\data\
ngram 1=104
ngram 2=2429

\1-grams:
-3.5224802	<unk>	0
0	<s>	-3.0801637
-1.5282195	</s>	0
-1.6002445	T	-3.0983822
-1.9543958	UW1	-2.703645
-1.5931804	D	-2.7779105
-1.7521675	AO1	-2.5959744
-1.6297098	L	-2.6799588
-1.7228645	ER0	-2.3473117
-1.7421786	Z	-2.6021354
-1.6613207	W	-2.9778965
-1.7324141	AH1	-2.819267
-1.6002445	N	-2.9688714
-1.6613207	G	-2.4699302
-1.7728622	OW1	-2.6194963
-1.6452278	R	-2.7786798
-1.7623917	AY1	-2.6444778
-1.6866368	HH	-2.9792242
-1.7728622	IY1	-2.6287017
-1.6074257	K	-2.7494826
-1.7228645	Y	-3.0382075
-1.7228645	AE1	-2.8403609
-1.7945927	V	-2.1636004
-2.23994	UH1	-2.913214
-1.6531997	DH	-3.0027776
-1.6613207	IH1	-3.1151881
-1.622154	S	-2.8262806
-1.7421786	EY1	-2.6062932
-1.7135203	EH1	-2.9614694
-1.9233387	IY0	-2.451942
-1.7623917	TH	-2.0795355
-1.8805577	IH2	-1.5731912
-2.3069935	NG	-2.3001082
-1.7945927	OW2	-2.308285
-1.6866368	F	-2.2926815
-1.704373	IH0	-2.8283322
-1.6531997	AH0	-2.922717
-1.6297098	M	-2.6725118
-2.0240893	EH2	-1.4379592
-1.6613207	B	-2.491108
-1.6373996	P	-2.487552
-1.7135203	SH	-2.0354996
-1.7521675	CH	-1.8064967
-1.7521675	AA1	-2.6118088
-1.7228645	JH	-1.8346459
-1.7835916	AW1	-2.249318
-2.155506	OY1	-1.6233633
-2.155506	IY2	-1.1315384
-2.483459	ZH	-1.0900319
-1.9233387	ER1	-1.9174691
-2.3863244	AA0	-1.5926389
-2.0240893	AO2	-1.6835445
-2.23994	yyy	-1.2360628
-2.23994	EY2	-1.2586987
-2.209934	AY0	-1.6061223
-2.063635	OW0	-1.1665564
-2.063635	AO0	-1.4158765
-2.34485	EH0	-1.2849805
-2.4321816	xxx	-0.6551287
-2.4321816	UW0	-1.1811309
-2.23994	AY2	-1.4554067
-2.0848458	AA2	-1.2678356
-2.608772	UH2	-1.5330837
-2.063635	AE2	-1.1917629
-2.3863244	UW2	-1.296812
-2.4321816	EY0	-0.83193916
-2.1818678	AH2	-1.3744766
-3.3184054	OY2	-0.6149406
-2.6882532	AW2	-0.5994756
-2.34485	AE0	-0.8842586
-2.9113033	dollies	-0.37726837
-3.3184054	youall	-0.25613338
-3.1566026	uhhuh	-0.8208293
-2.7856133	byebye	-0.6638728
-2.7856133	nightnight	-0.82771945
-2.7856133	UH0	-1.1983854
-3.3184054	uhoh	-0.96490276
-3.3184054	allgone	-0.42276362
-2.9113033	ll	-0.45731616
-3.3184054	whee	-0.36908156
-2.6882532	doesn	-0.7153907
-3.3184054	ssh	-0.5392994
-2.608772	chickie	-0.47991884
-3.3184054	hadta	-0.25613338
-3.3184054	uhuh	-0.891482
-3.3184054	mm	-0.35984635
-3.3184054	tsitsi	-0.25613338
-3.1566026	AW0	-0.35984635
-2.7856133	isn	-0.5392994
-2.9113033	gramma	-0.36908156
-3.3184054	ohmygoodness	-0.25613338
-3.3184054	doshueh	-0.25613338
-2.9113033	ER2	-0.35984635
-3.1566026	sothat	-0.25613338
-3.3184054	uhhum	-0.25613338
-3.3184054	alldone	-0.25613338
-3.3184054	didn	-0.25613338
-3.1566026	outof	-0.25613338
-3.1566026	grammas	-0.42276362
-3.3184054	krissy	-0.42276362
-3.1566026	lotsof	-0.25613338
-3.1566026	alotof	-0.25613338
-3.3184054	pss	-0.25613338
-3.3184054	lookee	-0.25613338

\2-grams:
-0.7785035	T </s>
-0.91121644	UW1 </s>
-0.9837437	D </s>
-2.4841986	AO1 </s>
-1.0519457	L </s>
-0.61034274	ER0 </s>
-0.6686879	Z </s>
-1.2717613	AH1 </s>
-0.96087456	N </s>
-1.4120948	G </s>
-0.6854719	OW1 </s>
-0.7712587	R </s>
-1.2995039	AY1 </s>
-1.0311761	IY1 </s>
-1.0734493	K </s>
-0.94054115	AE1 </s>
-1.2574584	V </s>
-2.8295755	DH </s>
-0.87261534	S </s>
-0.6673342	EY1 </s>
-2.8176944	EH1 </s>
-0.58683527	IY0 </s>
-1.4907966	TH </s>
-0.7171147	NG </s>
-1.765989	OW2 </s>
-1.1135283	F </s>
-2.7157485	IH0 </s>
-1.5982302	AH0 </s>
-0.7938746	M </s>
-2.3919947	B </s>
-0.95645607	P </s>
-1.3922449	SH </s>
-0.8400672	CH </s>
-1.6605004	AA1 </s>
-1.10512	JH </s>
-0.9199748	AW1 </s>
-0.551872	OY1 </s>
-1.0429428	IY2 </s>
-0.546849	ZH </s>
-1.2996684	ER1 </s>
-2.1997786	AA0 </s>
-1.1505473	AO2 </s>
-0.11082558	yyy </s>
-0.82276195	EY2 </s>
-0.4017396	OW0 </s>
-0.21616396	xxx </s>
-1.0278802	UW0 </s>
-2.2701638	AY2 </s>
-1.2577122	AA2 </s>
-0.9983088	UW2 </s>
-1.6023594	AH2 </s>
-0.5415836	OY2 </s>
-0.7814312	AW2 </s>
-1.208056	dollies </s>
-0.11479287	uhhuh </s>
-0.16318642	byebye </s>
-0.13266407	nightnight </s>
-0.07397322	uhoh </s>
-0.19831024	allgone </s>
-0.32440588	whee </s>
-0.14285372	ssh </s>
-0.3834985	chickie </s>
-0.05778435	uhuh </s>
-0.3688051	mm </s>
-0.33538157	tsitsi </s>
-0.32440588	gramma </s>
-0.33538157	ohmygoodness </s>
-0.33538157	doshueh </s>
-0.33538157	uhhum </s>
-0.33538157	alldone </s>
-0.19831024	grammas </s>
-0.33538157	pss </s>
-1.7492733	<s> T
-1.597211	T T
-1.4164426	UW1 T
-1.7698183	D T
-1.4301907	AO1 T
-1.7162979	L T
-1.5888808	ER0 T
-1.5943714	Z T
-0.5320846	AH1 T
-0.8244937	N T
-2.4219217	G T
-1.6149242	OW1 T
-1.5769427	R T
-0.71182454	AY1 T
-1.0041128	IY1 T
-1.6222634	K T
-0.5207585	AE1 T
-1.6543303	V T
-0.5584028	UH1 T
-3.5132327	DH T
-0.5372091	IH1 T
-0.8922625	S T
-1.268127	EY1 T
-0.9070194	EH1 T
-1.285808	IY0 T
-2.1482882	TH T
-1.2107087	IH2 T
-1.2405413	NG T
-2.707759	OW2 T
-1.0027695	F T
-0.6496484	IH0 T
-0.92282254	AH0 T
-1.8429236	M T
-1.1309185	EH2 T
-3.7129617	B T
-1.725415	P T
-1.2582835	SH T
-1.6981667	CH T
-0.79481816	AA1 T
-2.1360233	JH T
-0.59823084	AW1 T
-1.9956937	OY1 T
-1.4459327	IY2 T
-1.9563174	ZH T
-0.89394224	ER1 T
-2.8205671	AA0 T
-0.63942116	EY2 T
-1.6980319	OW0 T
-1.7809248	UW0 T
-0.88731885	AY2 T
-2.2742405	AA2 T
-1.5787373	AE2 T
-0.5541612	EY0 T
-0.6530167	AH2 T
-1.7362365	AW2 T
-1.2215855	dollies T
-1.6363069	nightnight T
-0.9132204	whee T
-0.09030737	doesn T
-0.14364384	isn T
-0.33774847	didn T
-2.6534417	<s> UW1
-1.4694332	T UW1
-0.9325103	D UW1
-2.0261295	L UW1
-2.8267	ER0 UW1
-2.5857015	Z UW1
-2.2591257	W UW1
-2.490562	N UW1
-2.8906906	G UW1
-4.3394012	OW1 UW1
-1.5820131	R UW1
-1.457496	HH UW1
-2.290357	K UW1
-0.20506401	Y UW1
-4.505131	AE1 UW1
-2.243769	S UW1
-4.062086	EY1 UW1
-4.179084	IY0 UW1
-2.0370862	F UW1
-2.1948102	M UW1
-2.2981403	B UW1
-2.0598793	P UW1
-1.5489554	SH UW1
-1.7615099	CH UW1
-4.290895	AA1 UW1
-0.9462104	JH UW1
-2.837774	EY2 UW1
-1.4690382	<s> D
-1.6502229	T D
-1.1830444	UW1 D
-2.0159724	D D
-4.0153503	AO1 D
-1.325833	L D
-1.3555976	ER0 D
-1.6441345	Z D
-2.2130604	AH1 D
-0.88162076	N D
-2.9983718	G D
-1.9426042	OW1 D
-1.5992357	R D
-0.88998926	AY1 D
-1.2313586	IY1 D
-2.5789561	K D
-1.371621	AE1 D
-1.9450663	V D
-0.6788772	UH1 D
-3.5126538	DH D
-1.4492224	IH1 D
-2.091741	S D
-1.4142202	EY1 D
-1.267224	EH1 D
-1.6165957	IY0 D
-2.1593568	TH D
-1.9260341	IH2 D
-2.0059283	NG D
-2.0064614	OW2 D
-3.0276268	F D
-1.1895299	IH0 D
-1.5867026	AH0 D
-2.158568	M D
-3.357305	B D
-2.8226051	P D
-2.7976625	SH D
-1.8805361	CH D
-2.2387683	AA1 D
-2.1540916	JH D
-1.6250666	AW1 D
-1.7702447	OY1 D
-1.6243578	IY2 D
-1.811352	ZH D
-1.020377	ER1 D
-2.8175557	AA0 D
-2.147968	yyy D
-2.3109865	EY2 D
-0.3908469	AY0 D
-1.8988541	OW0 D
-1.717906	xxx D
-0.50588393	UW0 D
-1.0825533	AY2 D
-0.359332	AA2 D
-0.79777586	UH2 D
-2.492544	UW2 D
-1.331118	EY0 D
-1.6555096	OY2 D
-1.2738041	AE0 D
-0.33753276	youall D
-1.6351578	nightnight D
-1.3901182	ll D
-1.0685437	ER2 D
-2.2876496	<s> AO1
-1.7192012	T AO1
-2.5759718	UW1 AO1
-1.7422776	D AO1
-3.7528648	AO1 AO1
-1.7180625	L AO1
-2.0444438	ER0 AO1
-1.8769734	Z AO1
-1.2276438	W AO1
-3.6849685	AH1 AO1
-2.4180677	N AO1
-2.2068062	G AO1
-2.4497144	OW1 AO1
-1.8636268	R AO1
-3.1038787	AY1 AO1
-1.8356696	HH AO1
-2.5710826	IY1 AO1
-1.5776423	K AO1
-1.3665591	Y AO1
-4.167252	AE1 AO1
-2.1825056	V AO1
-3.9300332	DH AO1
-1.8834292	S AO1
-2.5391395	EY1 AO1
-2.4479866	IY0 AO1
-1.5415541	TH AO1
-1.8160313	NG AO1
-1.0422212	F AO1
-4.1409135	IH0 AO1
-3.4897149	AH0 AO1
-1.2037518	M AO1
-1.7432657	B AO1
-2.1427956	P AO1
-1.9976263	SH AO1
-1.5618744	CH AO1
-3.8454788	AA1 AO1
-2.0747724	JH AO1
-3.075315	AW1 AO1
-2.6246111	OY1 AO1
-2.0429623	IY2 AO1
-2.4392142	ER1 AO1
-2.7408984	EY2 AO1
-2.6245344	AA2 AO1
-1.5371784	<s> L
-1.9491986	T L
-1.4006575	UW1 L
-1.9594153	D L
-0.77923685	AO1 L
-2.1783593	L L
-2.031735	ER0 L
-1.8735594	Z L
-2.0056307	AH1 L
-2.2277114	N L
-2.2340739	G L
-1.254271	OW1 L
-2.1104183	R L
-1.3395038	AY1 L
-1.237545	IY1 L
-1.5347937	K L
-1.9179606	AE1 L
-2.1189938	V L
-1.7942799	UH1 L
-3.909362	DH L
-1.2831016	IH1 L
-1.6902547	S L
-1.4986293	EY1 L
-0.9067762	EH1 L
-1.6123965	IY0 L
-2.9672225	TH L
-2.8301322	IH2 L
-2.2196815	NG L
-3.302469	OW2 L
-1.4960811	F L
-2.1772819	IH0 L
-0.9027394	AH0 L
-2.3274329	M L
-0.7588303	EH2 L
-1.3666096	B L
-1.0095829	P L
-2.929012	SH L
-2.3284543	CH L
-1.7047849	AA1 L
-3.0438688	JH L
-2.0462937	AW1 L
-1.6913166	OY1 L
-0.9574626	IY2 L
-1.0416245	ER1 L
-2.8328264	AA0 L
-0.079500236	AO2 L
-1.8474922	EY2 L
-1.1311513	OW0 L
-0.61093765	AO0 L
-0.18586771	EH0 L
-2.2880332	AY2 L
-2.2815597	AA2 L
-2.4658725	UH2 L
-0.9546022	AE2 L
-1.8697208	UW2 L
-1.8596262	EY0 L
-1.7461476	AW2 L
-2.4364676	<s> ER0
-1.5400153	T ER0
-2.5938299	UW1 ER0
-1.7522125	D ER0
-1.9407456	L ER0
-2.9500337	ER0 ER0
-1.879838	Z ER0
-2.804473	W ER0
-4.174137	AH1 ER0
-2.306988	N ER0
-1.5790968	G ER0
-3.1945963	OW1 ER0
-1.7516178	R ER0
-1.7663691	AY1 ER0
-3.353828	HH ER0
-3.109985	IY1 ER0
-2.2111833	K ER0
-2.438852	Y ER0
-0.78477275	V ER0
-1.3716115	DH ER0
-2.536804	S ER0
-2.625307	EY1 ER0
-2.4329653	IY0 ER0
-3.0663083	TH ER0
-2.4416192	NG ER0
-1.1290594	F ER0
-4.3508377	IH0 ER0
-4.284498	AH0 ER0
-2.3832588	M ER0
-1.5215238	B ER0
-1.5788808	P ER0
-1.9409916	SH ER0
-1.0821127	CH ER0
-4.1530333	AA1 ER0
-1.5053892	JH ER0
-1.6030849	AW1 ER0
-2.8844912	OY1 ER0
-2.4081287	IY2 ER0
-1.8266784	ZH ER0
-3.1423528	ER1 ER0
-2.7249153	EY2 ER0
-2.584923	AY0 ER0
-2.58198	UW0 ER0
-1.7764966	AY2 ER0
-1.2627071	AW2 ER0
-0.8047073	AW0 ER0
-3.4362047	<s> Z
-3.0306191	T Z
-1.4962087	UW1 Z
-1.9000082	D Z
-1.8186406	AO1 Z
-1.5786577	L Z
-1.2618659	ER0 Z
-1.5707563	AH1 Z
-1.8498355	N Z
-1.7882456	G Z
-1.1887095	OW1 Z
-1.1934351	R Z
-2.156563	AY1 Z
-1.0652405	IY1 Z
-4.352537	K Z
-2.2197473	AE1 Z
-2.014088	V Z
-3.6539814	DH Z
-1.0434551	IH1 Z
-4.0310802	S Z
-2.3369803	EY1 Z
-2.2327724	EH1 Z
-1.3411933	IY0 Z
-1.4744802	NG Z
-2.5281622	OW2 Z
-0.94059706	IH0 Z
-1.9767071	AH0 Z
-1.9203709	M Z
-2.6674404	EH2 Z
-3.180746	B Z
-1.3932892	AA1 Z
-1.9491843	AW1 Z
-0.32557297	OY1 Z
-1.6739655	IY2 Z
-2.1323159	ER1 Z
-0.038021788	AA0 Z
-1.3745428	EY2 Z
-1.3406823	OW0 Z
-2.163132	UW0 Z
-1.1093873	AY2 Z
-2.164215	AA2 Z
-2.0506544	UW2 Z
-0.7909111	EY0 Z
-1.3112363	OY2 Z
-1.0753875	<s> W
-1.576507	T W
-1.1215256	UW1 W
-1.6596733	D W
-3.3963592	AO1 W
-1.7934797	L W
-1.3250599	ER0 W
-1.6889126	Z W
-2.1524537	AH1 W
-2.0337229	N W
-2.4548264	G W
-1.5129799	OW1 W
-1.9051493	R W
-1.2516091	AY1 W
-0.5875739	HH W
-1.5978916	IY1 W
-1.7398691	K W
-2.6760054	AE1 W
-1.9138719	V W
-3.5567677	DH W
-1.6303566	S W
-1.3743948	EY1 W
-4.4013023	EH1 W
-1.3983102	IY0 W
-2.5677972	TH W
-1.6321638	NG W
-3.1562133	OW2 W
-2.013541	F W
-3.0569189	IH0 W
-1.672091	AH0 W
-1.9963704	M W
-2.871862	B W
-2.4824317	P W
-2.6666214	SH W
-1.5321916	CH W
-2.3195815	AA1 W
-2.2644734	JH W
-1.6006013	AW1 W
-2.138114	OY1 W
-1.448893	IY2 W
-1.8199065	ZH W
-2.3230102	ER1 W
-2.9214337	AO2 W
-2.4837856	yyy W
-1.7957932	EY2 W
-1.070603	OW0 W
-1.647868	UW0 W
-2.5856762	AA2 W
-2.0416198	UW2 W
-1.7562903	AW2 W
-1.6897042	uhhuh W
-1.7099423	uhoh W
-0.62918055	sothat W
-1.9401804	<s> AH1
-1.9188658	T AH1
-2.6834056	UW1 AH1
-1.4441762	D AH1
-3.8668828	AO1 AH1
-1.98039	L AH1
-2.3697462	ER0 AH1
-2.1098623	Z AH1
-0.46308178	W AH1
-2.1721742	AH1 AH1
-1.7412918	N AH1
-2.4169102	G AH1
-2.4935553	OW1 AH1
-1.5945576	R AH1
-3.0055192	AY1 AH1
-1.2591243	HH AH1
-2.7509289	IY1 AH1
-1.2822443	K AH1
-2.3804634	Y AH1
-4.047149	AE1 AH1
-2.5461168	V AH1
-0.95693696	DH AH1
-1.2234772	S AH1
-2.5839496	EY1 AH1
-4.066099	EH1 AH1
-1.8324591	IY0 AH1
-2.1990466	TH AH1
-1.8678093	NG AH1
-1.6910309	F AH1
-3.877181	IH0 AH1
-2.3902528	AH0 AH1
-1.4112389	M AH1
-1.1135801	B AH1
-1.9518704	P AH1
-2.1746578	SH AH1
-2.0614471	CH AH1
-3.4431295	AA1 AH1
-0.7458024	JH AH1
-2.8688142	AW1 AH1
-3.1269257	OY1 AH1
-2.6447105	IY2 AH1
-2.5881758	ER1 AH1
-2.6795201	OW0 AH1
-1.7545301	xxx AH1
-2.5865035	UW0 AH1
-1.2574217	<s> N
-1.8807385	T N
-1.3857421	UW1 N
-2.0615728	D N
-0.6852652	AO1 N
-2.6105373	L N
-1.9430363	ER0 N
-1.7215693	Z N
-0.8361681	AH1 N
-2.4737163	N N
-2.971178	G N
-0.81926745	OW1 N
-1.7832557	R N
-1.1784705	AY1 N
-1.3725462	IY1 N
-2.5010078	K N
-0.6925458	AE1 N
-2.3116965	V N
-4.2419868	DH N
-0.88882124	IH1 N
-1.6238532	S N
-1.2853111	EY1 N
-0.8442749	EH1 N
-1.702973	IY0 N
-2.8366387	TH N
-0.6350158	IH2 N
-2.3552632	NG N
-1.5739894	OW2 N
-2.95115	F N
-0.9159198	IH0 N
-0.672639	AH0 N
-2.0868533	M N
-0.49286488	EH2 N
-3.593936	B N
-2.3602564	P N
-2.747607	SH N
-2.5007594	CH N
-0.49510318	AA1 N
-3.1274793	JH N
-0.6346527	AW1 N
-1.503399	OY1 N
-0.7375664	IY2 N
-0.71935976	ER1 N
-2.2078118	AA0 N
-0.56718826	EY2 N
-0.26333869	AY0 N
-1.740381	OW0 N
-1.751243	AO0 N
-1.1883208	EH0 N
-1.4556577	UW0 N
-1.8356688	AY2 N
-0.81325257	AA2 N
-0.47404695	AE2 N
-2.176872	UW2 N
-0.73018944	EY0 N
-0.1641285	AH2 N
-0.8624979	AW2 N
-0.4998473	AE0 N
-0.37081748	AW0 N
-0.6608072	ER2 N
-0.6258169	alotof N
-1.7690775	<s> G
-1.9007545	T G
-1.2758569	UW1 G
-2.2310092	D G
-1.7664527	AO1 G
-1.8717678	L G
-1.7853792	ER0 G
-1.516367	Z G
-2.2381644	AH1 G
-2.2886634	N G
-2.8178005	G G
-2.0253792	OW1 G
-1.831567	R G
-1.5962162	AY1 G
-1.6353388	IY1 G
-3.0286543	K G
-1.7839265	AE1 G
-1.7716184	V G
-2.3534615	UH1 G
-4.019603	DH G
-1.5914824	IH1 G
-1.7428063	S G
-1.6638522	EY1 G
-1.9915292	EH1 G
-1.5531791	IY0 G
-3.1548288	TH G
-1.8642378	IH2 G
-1.4572535	NG G
-3.553237	F G
-2.2152917	IH0 G
-1.4346441	AH0 G
-1.6871197	M G
-2.6116164	P G
-2.9101856	CH G
-1.9920784	AA1 G
-3.1565	JH G
-2.622392	AW1 G
-1.9990779	OY1 G
-1.9439205	IY2 G
-1.96696	ZH G
-1.606555	ER1 G
-2.8454416	AA0 G
-1.7300895	AO2 G
-1.7290285	yyy G
-2.6897612	EY2 G
-2.4197872	OW0 G
-1.73691	xxx G
-2.7422748	AY2 G
-1.8710965	AE2 G
-2.0416198	UW2 G
-1.9720885	AE0 G
-1.4041265	ll G
-0.339478	hadta G
-1.4194262	<s> OW1
-2.2637818	T OW1
-2.6201694	UW1 OW1
-1.1377257	D OW1
-1.5508313	L OW1
-2.451687	ER0 OW1
-2.3247902	Z OW1
-2.3133593	W OW1
-2.7905219	AH1 OW1
-0.99276465	N OW1
-0.5760964	G OW1
-2.3688471	OW1 OW1
-1.7956548	R OW1
-2.7132766	AY1 OW1
-1.5041184	HH OW1
-2.9683774	IY1 OW1
-2.0722334	K OW1
-3.184161	Y OW1
-3.7218246	AE1 OW1
-2.1911874	V OW1
-1.8297944	DH OW1
-1.6356949	S OW1
-2.6532688	EY1 OW1
-2.6401083	IY0 OW1
-2.6263297	NG OW1
-2.4078007	F OW1
-3.453314	IH0 OW1
-2.9402266	AH0 OW1
-2.114773	M OW1
-1.7448007	B OW1
-2.3224473	P OW1
-1.2214354	SH OW1
-2.437304	CH OW1
-3.1674685	AA1 OW1
-1.8390713	JH OW1
-2.6274872	AW1 OW1
-2.6282122	OY1 OW1
-2.4253676	IY2 OW1
-2.9105618	ER1 OW1
-2.5235019	yyy OW1
-2.4600344	OW0 OW1
-1.7524636	<s> R
-1.5547446	T R
-1.4631253	UW1 R
-1.4898059	D R
-0.3980449	AO1 R
-1.6903913	L R
-1.9688075	ER0 R
-1.8870316	Z R
-2.310848	AH1 R
-2.424846	N R
-1.4772056	G R
-2.1915157	OW1 R
-2.1871805	R R
-1.9332271	AY1 R
-0.81026214	IY1 R
-1.4163601	K R
-2.1596913	AE1 R
-1.5231249	V R
-0.77231574	UH1 R
-1.5319681	IH1 R
-1.744454	S R
-1.9591429	EY1 R
-0.45113438	EH1 R
-1.7783378	IY0 R
-1.0216864	TH R
-2.5251732	IH2 R
-1.7714828	NG R
-0.9701295	F R
-2.6630063	IH0 R
-1.8688489	AH0 R
-2.3215754	M R
-0.56137353	EH2 R
-1.22078	B R
-1.3098646	P R
-1.6733847	SH R
-2.4267359	CH R
-0.7486081	AA1 R
-2.8239737	JH R
-2.0112138	AW1 R
-2.2274728	OY1 R
-2.378725	IY2 R
-2.2951415	ZH R
-2.2984562	ER1 R
-1.9982561	AA0 R
-1.4511868	AO2 R
-2.4442282	EY2 R
-1.8486068	AY0 R
-2.0603943	OW0 R
-0.1609216	AO0 R
-1.285803	EH0 R
-0.8047164	AA2 R
-2.081032	UH2 R
-1.3015712	OY2 R
-0.035457037	UH0 R
-1.3504206	chickie R
-1.2083526	<s> AY1
-1.8182503	T AY1
-2.367051	UW1 AY1
-1.7758023	D AY1
-4.121179	AO1 AY1
-1.0743403	L AY1
-2.2949946	ER0 AY1
-2.1000392	Z AY1
-1.3723707	W AY1
-2.9718502	AH1 AY1
-1.8386197	N AY1
-2.3416386	G AY1
-1.6438107	OW1 AY1
-0.8894589	R AY1
-2.7042637	AY1 AY1
-1.7194985	HH AY1
-2.7110033	IY1 AY1
-1.9423708	K AY1
-2.4270496	AE1 AY1
-2.7067075	V AY1
-1.8380744	S AY1
-2.0585842	EY1 AY1
-4.199452	EH1 AY1
-2.1654186	IY0 AY1
-3.178873	TH AY1
-2.4785728	NG AY1
-3.464226	OW2 AY1
-1.155544	F AY1
-3.52324	AH0 AY1
-1.1598033	M AY1
-1.3786972	B AY1
-2.1271856	P AY1
-2.5365944	SH AY1
-2.337468	CH AY1
-2.9979932	AA1 AY1
-3.0896137	JH AY1
-1.8731428	AW1 AY1
-2.5156944	OY1 AY1
-2.4218647	IY2 AY1
-2.6383185	ER1 AY1
-2.3533185	EY2 AY1
-1.9914335	OW0 AY1
-0.91527057	<s> HH
-1.5212651	T HH
-1.3401933	UW1 HH
-1.5639043	D HH
-3.1648526	AO1 HH
-1.777822	L HH
-1.2048272	ER0 HH
-1.3664308	Z HH
-2.0251985	AH1 HH
-1.698314	N HH
-2.239771	G HH
-1.3975877	OW1 HH
-1.8649793	R HH
-1.5147132	AY1 HH
-1.4161463	IY1 HH
-1.9043753	K HH
-2.649099	AE1 HH
-1.7067087	V HH
-3.2923305	DH HH
-1.648871	S HH
-1.5685141	EY1 HH
-4.416327	EH1 HH
-1.3815786	IY0 HH
-2.2235882	TH HH
-1.6504589	NG HH
-3.3149972	OW2 HH
-2.5206869	F HH
-2.1472232	IH0 HH
-1.7087355	AH0 HH
-1.1630665	M HH
-3.3733647	B HH
-1.957826	P HH
-2.869837	SH HH
-1.532477	CH HH
-2.3886182	AA1 HH
-2.265919	JH HH
-1.7302537	AW1 HH
-1.9189812	OY1 HH
-1.8147588	IY2 HH
-2.3097198	ZH HH
-1.7496287	ER1 HH
-2.2847407	AO2 HH
-2.076344	EY2 HH
-1.3571082	OW0 HH
-1.7434341	xxx HH
-1.7888222	UW0 HH
-2.7527845	AY2 HH
-1.6797289	OY2 HH
-1.7129347	uhoh HH
-0.9201603	gramma HH
-2.9021294	<s> IY1
-2.225694	T IY1
-2.3420556	UW1 IY1
-2.2275763	D IY1
-1.3843206	L IY1
-2.5273438	ER0 IY1
-2.4830604	Z IY1
-1.0308931	W IY1
-4.1948633	AH1 IY1
-1.8737986	N IY1
-3.609698	G IY1
-3.19797	OW1 IY1
-1.5954139	R IY1
-2.899225	AY1 IY1
-0.78182316	HH IY1
-2.762666	IY1 IY1
-2.2291756	K IY1
-4.0588183	AE1 IY1
-2.3167548	V IY1
-1.814068	DH IY1
-1.1629351	S IY1
-3.0994883	EY1 IY1
-2.822975	IY0 IY1
-3.6542523	TH IY1
-3.5835683	NG IY1
-3.7557962	OW2 IY1
-1.83285	F IY1
-2.99236	IH0 IY1
-2.5081694	AH0 IY1
-1.1238593	M IY1
-1.4248396	B IY1
-1.1153841	P IY1
-0.4166458	SH IY1
-1.6376222	CH IY1
-3.5192544	AA1 IY1
-2.045072	JH IY1
-3.3412955	AW1 IY1
-2.3040779	IY2 IY1
-3.0167556	ER1 IY1
-2.7518902	EY2 IY1
-1.5977601	UW0 IY1
-1.6041428	<s> K
-1.9178718	T K
-1.322459	UW1 K
-2.255675	D K
-1.5734258	AO1 K
-1.5856826	L K
-1.8723195	ER0 K
-1.7872994	Z K
-1.5095124	AH1 K
-2.3449419	N K
-2.8150213	G K
-1.7393115	OW1 K
-1.8017685	R K
-0.9662128	AY1 K
-1.4794589	IY1 K
-2.5445929	K K
-1.2401925	AE1 K
-1.9500705	V K
-0.52837145	UH1 K
-4.006784	DH K
-1.4355438	IH1 K
-1.3955177	S K
-0.87982774	EY1 K
-1.7815937	EH1 K
-1.2234886	IY0 K
-2.895868	TH K
-1.3348734	IH2 K
-0.5568135	NG K
-0.041169774	OW2 K
-2.733279	F K
-1.3970752	IH0 K
-1.5602762	AH0 K
-2.175428	M K
-1.8614221	EH2 K
-3.5962076	B K
-2.192034	P K
-2.4015067	SH K
-2.3884766	CH K
-1.2174042	AA1 K
-2.5157492	JH K
-1.9240003	AW1 K
-1.9407194	OY1 K
-1.4714863	IY2 K
-0.8684292	ER1 K
-2.5856595	AO2 K
-2.4621916	yyy K
-1.225058	EY2 K
-1.5612365	OW0 K
-1.0749508	EH0 K
-1.2121297	xxx K
-2.5231516	UW0 K
-1.0471969	AY2 K
-1.4452755	AA2 K
-0.11194641	UH2 K
-1.2858671	AE2 K
-2.4981925	UW2 K
-0.7303309	EY0 K
-1.6594535	OY2 K
-1.0544572	AE0 K
-0.6611649	ER2 K
-0.97762144	<s> Y
-1.6768992	T Y
-1.171459	UW1 Y
-1.3495827	D Y
-3.404336	AO1 Y
-1.850298	L Y
-1.1199203	ER0 Y
-1.7334515	Z Y
-2.789686	AH1 Y
-1.5947244	N Y
-2.5787532	G Y
-1.4866028	OW1 Y
-1.6655428	R Y
-2.4020965	AY1 Y
-3.4634562	HH Y
-1.9440023	IY1 Y
-1.4938197	K Y
-2.5391607	AE1 Y
-1.426904	V Y
-2.7012308	DH Y
-2.0787556	S Y
-1.9321631	EY1 Y
-2.011243	IY0 Y
-1.8323327	TH Y
-1.792065	NG Y
-3.165122	OW2 Y
-1.4243046	F Y
-2.6869283	IH0 Y
-2.4464707	AH0 Y
-2.2506971	M Y
-2.785369	B Y
-1.9973454	P Y
-1.9485812	SH Y
-1.9276372	CH Y
-2.7277956	AA1 Y
-2.3787076	JH Y
-1.5550559	AW1 Y
-2.1856892	OY1 Y
-2.03861	IY2 Y
-1.9646322	ER1 Y
-2.4696243	EY2 Y
-2.18131	OW0 Y
-2.2944393	UW0 Y
-1.7746305	AW2 Y
-1.7169569	uhoh Y
-0.6321453	outof Y
-1.8588548	<s> AE1
-2.1718674	T AE1
-2.4655964	UW1 AE1
-1.5535969	D AE1
-3.8635592	AO1 AE1
-1.6787487	L AE1
-2.0070028	ER0 AE1
-2.031421	Z AE1
-3.1557364	W AE1
-3.2622595	AH1 AE1
-2.1271796	N AE1
-2.2254376	G AE1
-2.7254176	OW1 AE1
-1.7390316	R AE1
-2.6169693	AY1 AE1
-0.86104286	HH AE1
-2.5848842	IY1 AE1
-1.0101097	K AE1
-0.7622354	Y AE1
-2.966454	AE1 AE1
-2.1502826	V AE1
-0.7751439	DH AE1
-2.0621438	S AE1
-2.5917737	EY1 AE1
-1.8775884	IY0 AE1
-0.89124584	TH AE1
-2.0116277	NG AE1
-3.7314403	OW2 AE1
-1.9712813	F AE1
-4.130034	IH0 AE1
-2.986238	AH0 AE1
-1.6629682	M AE1
-0.9257962	B AE1
-1.5405118	P AE1
-1.3975878	SH AE1
-2.1871595	CH AE1
-3.4419186	AA1 AE1
-1.3941422	JH AE1
-2.8680706	AW1 AE1
-2.2883391	OY1 AE1
-2.03861	IY2 AE1
-2.3217452	ZH AE1
-2.7479677	ER1 AE1
-2.8684404	AA0 AE1
-2.4696243	EY2 AE1
-2.18131	OW0 AE1
-2.7775137	<s> V
-3.1671019	T V
-1.9443727	UW1 V
-3.243286	D V
-2.8531182	L V
-3.2043707	ER0 V
-2.5142636	Z V
-1.6321039	AH1 V
-3.1602561	N V
-1.4014426	OW1 V
-3.0131273	R V
-1.7439952	AY1 V
-1.7258865	IY1 V
-3.4208047	K V
-1.1419623	AE1 V
-3.4691668	V V
-1.659915	IH1 V
-2.71029	S V
-1.9849795	EY1 V
-1.717621	EH1 V
-2.993119	IY0 V
-3.4431427	TH V
-2.79719	NG V
-3.0569065	OW2 V
-3.708796	F V
-3.0089755	IH0 V
-1.7628536	AH0 V
-3.3413613	M V
-3.8935246	B V
-3.8242168	P V
-3.6265388	SH V
-3.8579035	AA1 V
-3.4314954	JH V
-3.8330321	AW1 V
-2.4748363	ER1 V
-2.2040124	EY2 V
-2.4671204	OW0 V
-1.077272	EH0 V
-0.35505757	AY2 V
-2.9187255	T UH1
-4.66117	D UH1
-1.2134581	L UH1
-1.6533101	W UH1
-1.3983582	G UH1
-3.4147918	R UH1
-3.0506613	HH UH1
-1.5312124	K UH1
-1.1996318	Y UH1
-1.8712907	F UH1
-4.1380525	M UH1
-1.6196774	B UH1
-0.7822133	P UH1
-0.8794497	SH UH1
-1.0802187	<s> DH
-1.2603476	T DH
-1.5443411	UW1 DH
-1.2463875	D DH
-2.9250019	AO1 DH
-1.6408355	L DH
-1.0843662	ER0 DH
-0.8293086	Z DH
-1.3824666	AH1 DH
-1.1412604	N DH
-3.1795917	G DH
-1.4122025	OW1 DH
-1.689909	R DH
-2.127355	AY1 DH
-1.5781491	IY1 DH
-1.3096234	K DH
-2.27146	AE1 DH
-0.982548	V DH
-2.0440826	DH DH
-1.9154028	IH1 DH
-1.3223232	S DH
-1.8244854	EY1 DH
-2.074795	EH1 DH
-1.7221912	IY0 DH
-1.2466915	TH DH
-1.2767993	NG DH
-3.307794	OW2 DH
-1.8033564	F DH
-1.7055261	IH0 DH
-2.2814581	AH0 DH
-1.9444402	M DH
-3.4346938	B DH
-1.723193	P DH
-1.6023998	SH DH
-1.4369972	CH DH
-2.6261692	AA1 DH
-1.9160658	JH DH
-1.6419908	AW1 DH
-1.9429528	OY1 DH
-1.9427613	IY2 DH
-2.0849676	ER1 DH
-2.8422532	AA0 DH
-2.449749	AO2 DH
-1.5569522	yyy DH
-2.1809874	EY2 DH
-1.9773295	OW0 DH
-1.734757	xxx DH
-0.93993634	UW0 DH
-1.638324	AA2 DH
-2.433146	AH2 DH
-1.7537323	AW2 DH
-1.6883842	uhhuh DH
-0.62875867	outof DH
-0.3392614	lookee DH
-1.6460901	<s> IH1
-1.5408361	T IH1
-1.8652266	UW1 IH1
-1.2589685	D IH1
-3.2641084	AO1 IH1
-1.2387699	L IH1
-1.8210227	ER0 IH1
-1.3803048	Z IH1
-1.1938608	W IH1
-3.338372	AH1 IH1
-1.9341438	N IH1
-1.0129497	G IH1
-1.7333889	OW1 IH1
-1.362606	R IH1
-2.4770255	AY1 IH1
-1.464381	HH IH1
-1.8057538	IY1 IH1
-1.534025	K IH1
-2.9124033	Y IH1
-2.913278	AE1 IH1
-1.375049	V IH1
-1.185662	DH IH1
-1.29343	S IH1
-2.3272505	EY1 IH1
-1.8597734	IY0 IH1
-0.40503517	TH IH1
-1.5979481	NG IH1
-3.6994858	OW2 IH1
-0.9264713	F IH1
-3.604651	IH0 IH1
-3.1661	AH0 IH1
-1.4820275	M IH1
-1.1314499	B IH1
-1.5080823	P IH1
-1.8971336	SH IH1
-1.0026773	CH IH1
-3.9192564	AA1 IH1
-1.7937844	JH IH1
-2.0529187	AW1 IH1
-1.9703081	OY1 IH1
-1.81218	IY2 IH1
-1.650038	ZH IH1
-2.374668	ER1 IH1
-2.4837856	yyy IH1
-2.0728335	EY2 IH1
-2.3079267	OW0 IH1
-1.73691	xxx IH1
-2.5856762	AA2 IH1
-1.3033127	OY2 IH1
-0.8314395	dollies IH1
-1.4089124	byebye IH1
-1.3530827	chickie IH1
-0.62918055	sothat IH1
-1.5676545	<s> S
-0.87134904	T S
-1.231537	UW1 S
-1.7981197	D S
-1.9946293	AO1 S
-1.6670456	L S
-1.4454485	ER0 S
-1.5875385	Z S
-1.4304223	AH1 S
-1.7748114	N S
-2.633896	G S
-1.807809	OW1 S
-1.6508688	R S
-1.3829919	AY1 S
-1.2033813	IY1 S
-1.1979538	K S
-1.7171401	AE1 S
-1.3826554	V S
-2.3627295	UH1 S
-3.361077	DH S
-1.0150964	IH1 S
-1.7110015	S S
-1.3685133	EY1 S
-1.1470861	EH1 S
-1.3296185	IY0 S
-2.160217	TH S
-1.2685905	IH2 S
-1.8856877	NG S
-1.7614695	OW2 S
-2.2317255	F S
-0.9274588	IH0 S
-1.3874416	AH0 S
-2.0567265	M S
-1.0268896	EH2 S
-3.0967553	B S
-1.5117081	P S
-3.232094	SH S
-2.3577473	CH S
-1.9460894	AA1 S
-2.739499	JH S
-1.0714926	AW1 S
-1.7892181	OY1 S
-1.1549134	IY2 S
-0.92695075	ER1 S
-2.210029	AA0 S
-2.0650253	AO2 S
-2.4682527	yyy S
-1.0564325	EY2 S
-1.4815589	OW0 S
-1.8814517	EH0 S
-2.2674446	UW0 S
-1.2639056	AY2 S
-1.985174	AA2 S
-1.7489638	AE2 S
-0.6107555	AW2 S
-1.683144	uhhuh S
-1.3962884	ll S
-1.072216	ER2 S
-2.2327075	<s> EY1
-1.4930921	T EY1
-2.5359812	UW1 EY1
-1.7829342	D EY1
-2.691327	AO1 EY1
-1.3107361	L EY1
-1.959933	ER0 EY1
-1.6630536	Z EY1
-1.3647947	W EY1
-3.4812462	AH1 EY1
-2.0685425	N EY1
-1.7212409	G EY1
-3.048639	OW1 EY1
-1.6352301	R EY1
-2.7595134	AY1 EY1
-2.0239544	HH EY1
-2.1865036	IY1 EY1
-0.8667215	K EY1
-3.343044	Y EY1
-3.717761	AE1 EY1
-1.5592635	V EY1
-1.555273	DH EY1
-1.4968829	S EY1
-3.0264153	EY1 EY1
-2.2839336	IY0 EY1
-2.6721256	TH EY1
-1.9374882	NG EY1
-1.9789493	F EY1
-4.1372566	IH0 EY1
-3.4034145	AH0 EY1
-1.3159596	M EY1
-1.3528185	B EY1
-1.5477979	P EY1
-2.0425682	SH EY1
-1.211102	CH EY1
-3.5992866	AA1 EY1
-2.3208475	JH EY1
-3.4738212	AW1 EY1
-3.132664	OY1 EY1
-1.7173967	IY2 EY1
-2.750395	ER1 EY1
-2.5132272	yyy EY1
-2.4496176	OW0 EY1
-1.8853074	UW0 EY1
-2.3535295	<s> EH1
-1.7320096	T EH1
-2.4173803	UW1 EH1
-2.37702	D EH1
-3.5981038	AO1 EH1
-1.1995177	L EH1
-1.7165676	ER0 EH1
-2.2961733	Z EH1
-0.8339281	W EH1
-2.4959478	AH1 EH1
-2.185262	N EH1
-1.0085626	G EH1
-2.6783738	OW1 EH1
-1.4708308	R EH1
-2.858325	AY1 EH1
-1.5232122	HH EH1
-2.4650571	IY1 EH1
-1.9506217	K EH1
-1.2156458	Y EH1
-1.0615096	V EH1
-0.78949857	DH EH1
-1.6579919	S EH1
-2.3790493	EY1 EH1
-2.720822	EH1 EH1
-1.8323733	IY0 EH1
-2.7983406	TH EH1
-1.8676772	NG EH1
-1.6447794	F EH1
-4.0135546	IH0 EH1
-2.5753489	AH0 EH1
-1.734061	M EH1
-1.2293171	B EH1
-1.3924367	P EH1
-1.8006538	SH EH1
-0.8221379	CH EH1
-3.941596	AA1 EH1
-0.8013799	JH EH1
-3.0101645	AW1 EH1
-2.8812413	OY1 EH1
-1.5036631	IY2 EH1
-3.1393623	ER1 EH1
-2.1915805	EY2 EH1
-2.071743	OW0 EH1
-2.158016	UW0 EH1
-0.5243219	UW2 EH1
-1.0875485	AW2 EH1
-0.20098434	krissy EH1
-4.6340127	<s> IY0
-1.9526365	T IY0
-3.6257598	UW1 IY0
-1.3723994	D IY0
-1.5647068	L IY0
-2.1660993	ER0 IY0
-2.0429356	Z IY0
-3.2708874	W IY0
-1.4893105	N IY0
-2.0567079	G IY0
-3.4378498	OW1 IY0
-1.3777256	R IY0
-4.3241553	IY1 IY0
-1.7596351	K IY0
-1.6998277	V IY0
-0.96179307	DH IY0
-1.9174097	S IY0
-3.8129964	IY0 IY0
-2.6124911	TH IY0
-3.9898074	NG IY0
-1.6840096	F IY0
-1.4008656	M IY0
-1.0148975	B IY0
-1.9485992	P IY0
-2.3719606	SH IY0
-2.6960993	CH IY0
-2.3018513	JH IY0
-3.9076507	AW1 IY0
-1.838777	ER1 IY0
-2.1164749	<s> TH
-2.3923101	T TH
-1.7402198	UW1 TH
-2.8725028	D TH
-3.6071815	AO1 TH
-2.6247232	L TH
-2.5040934	ER0 TH
-2.427026	Z TH
-2.430442	AH1 TH
-2.8897874	N TH
-3.1907284	G TH
-2.0738797	OW1 TH
-2.7927327	R TH
-1.4040294	AY1 TH
-2.4494398	IY1 TH
-3.3601902	K TH
-2.3313904	AE1 TH
-2.3764188	V TH
-1.9399457	IH1 TH
-2.841851	S TH
-2.5844593	EY1 TH
-4.0729785	EH1 TH
-1.7410231	IY0 TH
-3.6475883	TH TH
-2.531682	NG TH
-3.4583535	F TH
-1.8370516	IH0 TH
-3.0074022	AH0 TH
-1.7884225	M TH
-2.6735487	EH2 TH
-3.684313	P TH
-3.606109	SH TH
-3.181211	CH TH
-2.8767297	AA1 TH
-3.4107969	JH TH
-1.9073529	AW1 TH
-3.1443732	OY1 TH
-2.1541846	IY2 TH
-2.1329026	ER1 TH
-2.6121395	AO2 TH
-2.1887727	OW0 TH
-1.9968573	AE0 TH
-3.7703667	<s> IH2
-3.6276248	T IH2
-3.6212995	UW1 IH2
-3.0097716	D IH2
-4.1856556	AO1 IH2
-4.070077	L IH2
-3.2134712	ER0 IH2
-3.320865	Z IH2
-4.2348614	AH1 IH2
-3.2914948	N IH2
-3.5495605	OW1 IH2
-4.049275	R IH2
-3.8457863	AY1 IH2
-3.7611587	HH IH2
-4.0704927	IY1 IH2
-3.7372797	K IH2
-4.063291	Y IH2
-4.465666	AE1 IH2
-2.4060233	V IH2
-3.2241592	S IH2
-4.037275	EY1 IH2
-3.1921074	IY0 IH2
-1.3823776	TH IH2
-3.2764492	NG IH2
-3.3783453	F IH2
-4.183313	IH0 IH2
-3.8864403	AH0 IH2
-3.544491	M IH2
-3.0053535	P IH2
-3.4338155	SH IH2
-3.8838892	AW1 IH2
-0.8011484	chickie IH2
-1.566167	AO1 NG
-2.0663965	AH1 NG
-3.218072	OW1 NG
-2.7570794	AY1 NG
-1.5096102	AE1 NG
-1.0153039	IH1 NG
-3.97214	EH1 NG
-0.36455962	IH2 NG
-0.69428635	IH0 NG
-2.9051454	AA1 NG
-0.7827462	AE2 NG
-0.6459178	AE0 NG
-1.4347041	<s> OW2
-2.8148065	T OW2
-2.965151	UW1 OW2
-3.032594	D OW2
-2.8341994	L OW2
-2.4423244	ER0 OW2
-2.724587	Z OW2
-3.951548	AH1 OW2
-3.0153284	N OW2
-3.6146598	G OW2
-2.2896807	OW1 OW2
-2.2259948	R OW2
-3.9605176	AY1 OW2
-4.501642	HH OW2
-3.3321724	IY1 OW2
-2.9518964	K OW2
-3.4879704	AE1 OW2
-3.5769715	V OW2
-2.7000558	S OW2
-2.4613833	EY1 OW2
-2.6406603	IY0 OW2
-3.1856682	TH OW2
-2.883268	NG OW2
-1.8937774	F OW2
-3.8750775	AH0 OW2
-2.4469087	M OW2
-3.5428028	B OW2
-3.0500138	P OW2
-3.4035766	SH OW2
-2.520664	CH OW2
-3.8579035	AA1 OW2
-3.0993707	JH OW2
-2.5632627	AW1 OW2
-2.9079473	OY1 OW2
-2.343626	ZH OW2
-3.5047202	ER1 OW2
-2.715959	OW0 OW2
-2.6411064	AA2 OW2
-0.8082073	mm OW2
-2.117535	<s> F
-2.0353386	T F
-1.8222218	UW1 F
-2.2251184	D F
-1.21068	AO1 F
-1.8037841	L F
-1.9757625	ER0 F
-1.8650776	Z F
-1.8900694	AH1 F
-2.20603	N F
-2.5076306	G F
-2.363623	OW1 F
-1.9369423	R F
-1.9884442	AY1 F
-1.9874147	IY1 F
-2.29591	K F
-1.5069047	AE1 F
-2.0246124	V F
-2.8998954	UH1 F
-3.8346694	DH F
-1.5191	IH1 F
-2.043788	S F
-1.8545752	EY1 F
-2.3265371	EH1 F
-1.6473358	IY0 F
-2.4011097	TH F
-1.7409543	NG F
-3.7128937	OW2 F
-2.784015	F F
-2.4650965	IH0 F
-1.7241832	AH0 F
-2.2116196	M F
-2.442912	P F
-3.2551901	SH F
-2.2291903	CH F
-2.1385403	AA1 F
-2.4440217	JH F
-2.758288	AW1 F
-2.1830864	OY1 F
-0.96632975	IY2 F
-1.9856762	ER1 F
-2.9308105	AO2 F
-2.4581535	EY2 F
-1.4845233	OW0 F
-2.5643435	UW0 F
-1.0905894	AE2 F
-2.5275931	UW2 F
-1.4119047	byebye F
-1.017423	ll F
-0.63044864	lotsof F
-1.6767862	<s> IH0
-1.314395	T IH0
-1.4434106	UW1 IH0
-1.2697245	D IH0
-2.983248	AO1 IH0
-1.9526727	L IH0
-1.8075691	ER0 IH0
-1.3205999	Z IH0
-1.5836123	W IH0
-3.4043038	AH1 IH0
-1.6129755	N IH0
-1.3444471	G IH0
-1.2610794	OW1 IH0
-1.603922	R IH0
-1.9485008	AY1 IH0
-2.2508156	HH IH0
-1.9506122	IY1 IH0
-1.3879666	K IH0
-2.9799058	AE1 IH0
-1.0786301	V IH0
-1.1822284	DH IH0
-1.5404615	S IH0
-1.8415376	EY1 IH0
-1.9531205	IY0 IH0
-0.9649237	TH IH0
-1.4843898	NG IH0
-3.722068	OW2 IH0
-2.052566	F IH0
-3.2109473	IH0 IH0
-3.2153606	AH0 IH0
-1.850279	M IH0
-1.2808034	B IH0
-1.7681823	P IH0
-1.6698798	SH IH0
-1.2699124	CH IH0
-3.509257	AA1 IH0
-0.7607153	JH IH0
-2.1064177	AW1 IH0
-1.9196881	OY1 IH0
-1.8780324	IY2 IH0
-2.2574382	ER1 IH0
-2.499895	yyy IH0
-2.0787	EY2 IH0
-1.5974786	OW0 IH0
-1.9976594	UW0 IH0
-0.6711446	dollies IH0
-1.4139111	byebye IH0
-1.35981	chickie IH0
-1.4026263	<s> AH0
-1.185578	T AH0
-2.2284808	UW1 AH0
-1.4803513	D AH0
-2.7724538	AO1 AH0
-1.6211265	L AH0
-1.5550791	ER0 AH0
-1.0859264	Z AH0
-2.2680976	W AH0
-3.3678691	AH1 AH0
-1.1718584	N AH0
-1.7949939	G AH0
-1.7343743	OW1 AH0
-1.5892291	R AH0
-2.1946425	AY1 AH0
-0.974543	HH AH0
-1.9623308	IY1 AH0
-1.11927	K AH0
-2.6672888	Y AH0
-2.787475	AE1 AH0
-1.2406018	V AH0
-0.6962198	DH AH0
-1.4028939	S AH0
-2.2546067	EY1 AH0
-1.6736882	IY0 AH0
-2.1072073	TH AH0
-1.5833544	NG AH0
-3.43454	OW2 AH0
-1.476704	F AH0
-3.4011633	IH0 AH0
-2.9652681	AH0 AH0
-1.4107835	M AH0
-1.299881	B AH0
-0.97809184	P AH0
-1.2600584	SH AH0
-1.3290547	CH AH0
-3.321125	AA1 AH0
-1.2273519	JH AH0
-1.840594	AW1 AH0
-2.4992647	OY1 AH0
-1.5600708	IY2 AH0
-0.26427507	ZH AH0
-1.9848402	ER1 AH0
-2.5231233	AA0 AH0
-2.9183526	AO2 AH0
-2.4806342	yyy AH0
-2.4469779	EY2 AH0
-2.027988	AY0 AH0
-1.5945946	OW0 AH0
-1.734757	xxx AH0
-1.7111343	UW0 AH0
-2.7388272	AY2 AH0
-1.3181441	UW2 AH0
-2.433146	AH2 AH0
-1.6295263	<s> M
-1.7271732	T M
-1.4847977	UW1 M
-2.0087717	D M
-3.3918662	AO1 M
-1.8114523	L M
-1.6440622	ER0 M
-1.7024546	Z M
-0.80507815	AH1 M
-2.087503	N M
-3.273282	G M
-1.4268401	OW1 M
-1.7845787	R M
-1.2521952	AY1 M
-1.8092794	IY1 M
-2.2067773	K M
-1.9058571	AE1 M
-1.3488402	V M
-2.9703777	UH1 M
-2.964712	DH M
-1.8998336	IH1 M
-1.6381336	S M
-1.3797657	EY1 M
-1.4326602	EH1 M
-1.3433257	IY0 M
-2.1604326	TH M
-1.3351834	IH2 M
-1.9473774	NG M
-2.8134527	OW2 M
-2.9200778	F M
-1.8018283	IH0 M
-0.7985776	AH0 M
-1.7601182	M M
-2.6297026	EH2 M
-3.8190076	B M
-2.1923058	P M
-2.5906184	SH M
-1.8236264	CH M
-1.0745013	AA1 M
-2.4041252	JH M
-1.5832291	AW1 M
-2.7388916	OY1 M
-2.263475	IY2 M
-2.019061	ER1 M
-2.5185766	AA0 M
-2.1553285	yyy M
-2.4387808	EY2 M
-1.9738739	OW0 M
-1.9131603	AO0 M
-2.3881137	EH0 M
-0.61786145	UW0 M
-1.2831602	AY2 M
-2.5710568	AA2 M
-1.5170063	UH2 M
-2.0303874	AE2 M
-0.33782247	UW2 M
-1.9634207	AE0 M
-4.152661	<s> EH2
-3.4071155	T EH2
-3.9120688	UW1 EH2
-3.9163802	D EH2
-3.9642565	L EH2
-4.0976152	Z EH2
-2.9615307	W EH2
-4.5521574	AH1 EH2
-3.816266	N EH2
-2.9675183	R EH2
-4.407655	AY1 EH2
-3.5042925	K EH2
-3.378136	V EH2
-3.8973641	S EH2
-3.4119904	IY0 EH2
-3.7959142	TH EH2
-3.6502497	NG EH2
-4.391187	AH0 EH2
-3.1947908	M EH2
-2.3548281	B EH2
-3.1169734	P EH2
-3.542137	CH EH2
-2.9986825	JH EH2
-1.6436303	<s> B
-1.816206	T B
-1.704911	UW1 B
-1.8932242	D B
-2.5942984	AO1 B
-1.5836987	L B
-1.6395928	ER0 B
-1.7709694	Z B
-1.6566665	AH1 B
-2.243491	N B
-2.103374	G B
-1.9069353	OW1 B
-1.9808106	R B
-1.8766156	AY1 B
-2.004104	IY1 B
-2.435551	K B
-2.226796	AE1 B
-1.8716938	V B
-3.5567677	DH B
-3.1504285	IH1 B
-1.8606886	S B
-1.0165918	EY1 B
-3.1159496	EH1 B
-1.2302126	IY0 B
-2.792762	TH B
-1.8765553	NG B
-3.4369378	OW2 B
-2.8333247	F B
-2.424631	IH0 B
-1.2949227	AH0 B
-1.5599774	M B
-3.068185	B B
-2.5932055	P B
-2.8070695	SH B
-1.8824486	CH B
-1.8653226	AA1 B
-2.4418452	JH B
-2.0529187	AW1 B
-1.6921537	OY1 B
-1.5936087	IY2 B
-2.1143556	ER1 B
-2.5246494	AA0 B
-1.4345995	yyy B
-2.6897612	EY2 B
-1.6639206	OW0 B
-2.278489	UW0 B
-2.035348	AE2 B
-2.4351974	AH2 B
-0.54446226	OY2 B
-1.4076126	AW2 B
-1.6897042	uhhuh B
-0.4514299	ll B
-0.62918055	alotof B
-1.7354586	<s> P
-2.0743747	T P
-1.3023322	UW1 P
-2.093059	D P
-2.0502381	AO1 P
-1.5952462	L P
-1.776763	ER0 P
-1.8961688	Z P
-1.1870362	AH1 P
-2.1702518	N P
-2.5450714	G P
-1.4059734	OW1 P
-1.8693924	R P
-1.6557976	AY1 P
-1.2846851	IY1 P
-2.6374502	K P
-1.5441321	AE1 P
-1.9752989	V P
-3.644476	DH P
-2.2048125	IH1 P
-1.5939837	S P
-1.245414	EY1 P
-1.7660321	EH1 P
-1.5723231	IY0 P
-2.7019384	TH P
-1.7113274	IH2 P
-2.1866882	NG P
-2.35247	OW2 P
-2.992607	F P
-2.346499	IH0 P
-1.4351839	AH0 P
-1.7692602	M P
-2.154302	EH2 P
-2.6821573	P P
-2.9304132	SH P
-2.4259908	CH P
-1.5216087	AA1 P
-2.8222325	JH P
-2.2962308	AW1 P
-2.411888	OY1 P
-1.7092065	IY2 P
-2.0441887	ER1 P
-2.8359458	AA0 P
-1.7457403	EY2 P
-2.300562	OW0 P
-2.390387	EH0 P
-1.7304825	xxx P
-2.271829	UW0 P
-2.7320132	AY2 P
-1.286475	AA2 P
-1.2525266	AE2 P
-1.7320819	AH2 P
-1.0776718	nightnight P
-1.745665	UH0 P
-1.0135444	ll P
-0.6279161	lotsof P
-1.9729201	<s> SH
-2.4315615	T SH
-2.2923317	UW1 SH
-2.0802972	D SH
-2.4481096	L SH
-2.4603271	ER0 SH
-1.8510243	Z SH
-2.4917839	AH1 SH
-2.6885984	N SH
-4.0219727	G SH
-2.355399	OW1 SH
-2.4819689	R SH
-2.4675307	AY1 SH
-2.3625586	IY1 SH
-2.4139745	K SH
-2.2074978	AE1 SH
-2.9091668	V SH
-1.6908463	UH1 SH
-4.511518	DH SH
-2.137848	IH1 SH
-2.4875264	S SH
-2.1648839	EY1 SH
-2.754611	EH1 SH
-2.259019	IY0 SH
-3.1677785	TH SH
-2.7927203	NG SH
-3.726729	OW2 SH
-2.6788213	F SH
-1.7989532	IH0 SH
-2.208088	AH0 SH
-2.8494234	M SH
-3.1957376	P SH
-3.0562198	CH SH
-2.3776171	AA1 SH
-3.3783514	JH SH
-2.6487958	AW1 SH
-3.1156716	OY1 SH
-2.144867	IY2 SH
-2.7467594	ER1 SH
-2.940394	AO2 SH
-2.3423424	EY2 SH
-2.4394448	OW0 SH
-2.6085715	AA2 SH
-1.1650612	AE2 SH
-1.6860007	OY2 SH
-0.75637734	AE0 SH
-1.413723	ll SH
-2.6848423	<s> CH
-2.8274882	T CH
-2.7496698	UW1 CH
-3.0443063	D CH
-2.1526587	AO1 CH
-2.9031718	L CH
-2.3539853	ER0 CH
-2.7033532	Z CH
-1.8699528	AH1 CH
-2.318609	N CH
-3.6047924	G CH
-3.1966174	OW1 CH
-2.524946	R CH
-2.9727316	AY1 CH
-2.2134771	IY1 CH
-2.30825	K CH
-2.354182	AE1 CH
-2.6543846	V CH
-3.3124087	UH1 CH
-1.9594958	IH1 CH
-2.7951946	S CH
-2.3194852	EY1 CH
-3.0986636	EH1 CH
-2.2642832	IY0 CH
-3.6410248	TH CH
-2.8778949	IH2 CH
-3.0295527	NG CH
-3.461673	OW2 CH
-3.2733264	F CH
-2.479949	IH0 CH
-2.4495215	AH0 CH
-2.759674	M CH
-3.6815095	P CH
-3.1769943	CH CH
-2.1724763	AA1 CH
-2.8454297	JH CH
-2.073184	AW1 CH
-2.656526	IY2 CH
-2.4392142	ER1 CH
-2.5166252	yyy CH
-2.4530623	OW0 CH
-1.9993932	AA2 CH
-2.5191727	AE2 CH
-2.1551712	<s> AA1
-1.6897562	T AA1
-2.6133242	UW1 AA1
-1.9501305	D AA1
-4.115228	AO1 AA1
-1.7667401	L AA1
-2.0444438	ER0 AA1
-1.8799397	Z AA1
-1.0370173	W AA1
-3.4077559	AH1 AA1
-1.5530549	N AA1
-0.6850737	G AA1
-2.5238543	OW1 AA1
-1.99919	R AA1
-3.0622005	AY1 AA1
-1.8536675	HH AA1
-2.8878381	IY1 AA1
-1.4090935	K AA1
-1.7920893	Y AA1
-3.804658	AE1 AA1
-2.6543846	V AA1
-4.183685	DH AA1
-2.343931	S AA1
-2.8208396	EY1 AA1
-4.453548	EH1 AA1
-2.4554262	IY0 AA1
-3.0715425	TH AA1
-2.0205233	NG AA1
-1.6720552	F AA1
-3.5580244	AH0 AA1
-1.212033	M AA1
-1.4876865	B AA1
-1.4585966	P AA1
-1.8065563	SH AA1
-1.3535576	CH AA1
-3.7062762	AA1 AA1
-1.6866302	JH AA1
-2.8703058	AW1 AA1
-3.1384792	OY1 AA1
-2.4183898	IY2 AA1
-3.2630858	ER1 AA1
-2.0775306	OW0 AA1
-2.6245344	AA2 AA1
-2.2406652	<s> JH
-2.7377539	T JH
-2.348679	UW1 JH
-2.5980034	D JH
-3.7452345	AO1 JH
-2.444425	L JH
-2.4407694	ER0 JH
-2.2626631	Z JH
-3.1741233	AH1 JH
-2.0508378	N JH
-3.3454525	G JH
-2.7254176	OW1 JH
-2.3009782	R JH
-2.3850508	AY1 JH
-2.5304148	IY1 JH
-2.9715831	K JH
-3.0097096	AE1 JH
-2.5456858	V JH
-4.175625	DH JH
-2.5541883	IH1 JH
-2.4784043	S JH
-2.1471992	EY1 JH
-2.5020967	EH1 JH
-2.293916	IY0 JH
-2.8522463	TH JH
-2.8672085	IH2 JH
-2.7682188	NG JH
-3.200232	F JH
-2.6151047	IH0 JH
-2.5350192	AH0 JH
-2.470738	M JH
-2.1637075	EH2 JH
-3.7601326	B JH
-3.1966517	P JH
-3.5802834	SH JH
-2.673144	CH JH
-2.8102367	AA1 JH
-2.200055	JH JH
-3.3303852	AW1 JH
-2.8844912	OY1 JH
-2.587339	ER1 JH
-1.705287	AA0 JH
-2.943636	AO2 JH
-2.4428093	OW0 JH
-2.1877353	AE2 JH
-2.449835	AH2 JH
-3.0257995	<s> AW1
-2.3780227	T AW1
-2.9100165	UW1 AW1
-1.5200428	D AW1
-4.1333313	AO1 AW1
-2.0710607	L AW1
-1.6033788	ER0 AW1
-2.1725879	Z AW1
-2.5235543	W AW1
-3.8441236	AH1 AW1
-1.5257027	N AW1
-3.6121716	G AW1
-2.4607008	OW1 AW1
-2.3224216	R AW1
-3.8236234	AY1 AW1
-1.2917583	HH AW1
-3.045375	IY1 AW1
-1.9201458	K AW1
-2.6322489	V AW1
-3.7117329	DH AW1
-2.5270472	S AW1
-3.3832092	EY1 AW1
-4.4705315	EH1 AW1
-2.6520267	IY0 AW1
-2.2984037	TH AW1
-1.9954273	NG AW1
-2.0533898	F AW1
-4.1520724	IH0 AW1
-3.6892822	AH0 AW1
-1.9537873	M AW1
-1.5770304	B AW1
-2.6543589	P AW1
-2.6375568	SH AW1
-2.3100388	CH AW1
-3.4244857	JH AW1
-3.3435109	AW1 AW1
-2.674875	IY2 AW1
-2.51013	ER1 AW1
-2.7574923	EY2 AW1
-2.463563	OW0 AW1
-4.975665	<s> OY1
-2.2287662	T OY1
-3.8708298	L OY1
-2.3360233	N OY1
-4.274008	G OY1
-4.6539073	R OY1
-4.474768	AY1 OY1
-4.044994	K OY1
-2.9400997	V OY1
-4.405181	S OY1
-4.2867894	IY0 OY1
-4.42394	AH0 OY1
-4.5304556	M OY1
-1.4651058	B OY1
-2.6710908	P OY1
-2.8824196	CH OY1
-2.4687126	JH OY1
-4.975665	<s> IY2
-4.9734793	T IY2
-2.4403093	D IY2
-2.5402837	L IY2
-3.879841	ER0 IY2
-2.474473	Z IY2
-4.1893167	W IY2
-3.7025805	N IY2
-3.4124773	R IY2
-4.474768	AY1 IY2
-4.446222	IY1 IY2
-3.7001898	K IY2
-3.5442502	S IY2
-3.098315	M IY2
-2.2940378	B IY2
-4.3340397	P IY2
-2.3190835	SH IY2
-3.2333932	UW1 ZH
-4.56886	OW1 ZH
-3.0864618	IH1 ZH
-3.8434322	EY1 ZH
-4.1596684	EH1 ZH
-1.2429695	IH2 ZH
-2.5522082	AA1 ZH
-3.4301574	ER1 ZH
-4.5280714	<s> ER1
-2.1357038	T ER1
-4.0416026	UW1 ER1
-2.4328213	D ER1
-3.0639586	L ER1
-2.7827125	Z ER1
-1.635922	W ER1
-3.2532823	N ER1
-1.734021	G ER1
-4.086232	OW1 ER1
-3.854398	AY1 ER1
-1.5727972	HH ER1
-4.3241553	IY1 ER1
-3.462388	K ER1
-4.069011	Y ER1
-3.0922134	V ER1
-4.6301923	DH ER1
-2.280563	S ER1
-4.2947755	EY1 ER1
-3.6688554	IY0 ER1
-1.7419152	TH ER1
-3.9898074	NG ER1
-1.5699968	F ER1
-3.7343493	M ER1
-1.8689094	B ER1
-2.3592541	P ER1
-2.12949	SH ER1
-2.5786495	CH ER1
-2.423112	JH ER1
-5.087235	<s> AA0
-4.64791	L AA0
-1.8364823	W AA0
-3.5789957	R AA0
-4.3440633	HH AA0
-4.0467696	IY1 AA0
-3.949436	K AA0
-4.3820868	IY0 AA0
-3.3045902	M AA0
-4.4322414	P AA0
-2.4958344	<s> AO2
-3.5926907	T AO2
-4.0656137	UW1 AO2
-3.691385	D AO2
-3.9642565	L AO2
-3.5652077	ER0 AO2
-3.3734164	Z AO2
-4.3131766	W AO2
-3.7726927	N AO2
-3.3519614	OW1 AO2
-3.8845034	R AO2
-3.989809	IY1 AO2
-3.6907172	K AO2
-4.678246	DH AO2
-2.528576	S AO2
-3.1977386	EY1 AO2
-3.485821	IY0 AO2
-3.6502497	NG AO2
-3.1162596	F AO2
-4.459273	M AO2
-2.63053	B AO2
-3.8912394	P AO2
-2.8313885	OW0 AO2
-2.698376	<s> yyy
-4.5860953	L yyy
-4.3279595	AH1 yyy
-4.874151	N yyy
-4.4825606	OW1 yyy
-3.9055362	R yyy
-4.170095	IY1 yyy
-4.649386	K yyy
-4.7227015	S yyy
-4.450548	EY1 yyy
-4.325102	IY0 yyy
-4.3734417	P yyy
-1.2331842	yyy yyy
-1.7445886	uhhuh yyy
-3.8939419	T EY2
-2.6741831	D EY2
-2.3062553	L EY2
-2.3673756	ER0 EY2
-2.5206919	W EY2
-4.444892	N EY2
-3.2682097	G EY2
-3.997324	R EY2
-2.8293605	K EY2
-2.6968138	V EY2
-4.1268635	S EY2
-2.8344696	IY0 EY2
-4.1380525	M EY2
-3.4188921	P EY2
-4.1472445	T AY0
-2.7091703	D AY0
-4.5719247	L AY0
-4.6373143	AH1 AY0
-4.280213	N AY0
-4.4697084	OW1 AY0
-4.681601	R AY0
-4.49966	AY1 AY0
-3.5659068	V AY0
-4.438233	EY1 AY0
-4.311952	IY0 AY0
-4.7479553	AH0 AY0
-2.4415176	M AY0
-3.8378904	SH AY0
-3.1720614	CH AY0
-3.7529876	<s> OW0
-3.656101	T OW0
-2.4334679	D OW0
-2.1992846	L OW0
-4.126182	ER0 OW0
-3.9791281	Z OW0
-3.504602	N OW0
-3.951859	G OW0
-4.399686	OW1 OW0
-3.255447	R OW0
-4.161636	AY1 OW0
-4.401611	IY1 OW0
-3.014423	K OW0
-3.66954	V OW0
-3.0275505	S OW0
-4.0938616	EY1 OW0
-3.031867	IY0 OW0
-4.0661483	NG OW0
-4.4817286	M OW0
-4.2589808	B OW0
-3.408336	P OW0
-4.6884947	<s> AO0
-3.969558	T AO0
-3.3477607	UW1 AO0
-3.921327	D AO0
-3.7264988	ER0 AO0
-4.108953	Z AO0
-4.4089675	N AO0
-4.603313	R AO0
-3.878234	AY1 AO0
-3.7274086	IY1 AO0
-4.5598826	K AO0
-3.940552	V AO0
-3.9015965	S AO0
-4.2404566	IY0 AO0
-3.3891902	TH AO0
-4.0661483	NG AO0
-2.402346	F AO0
-4.2276726	M AO0
-4.2865143	P AO0
-4.345417	AA1 AO0
-3.6513145	ER1 AO0
-4.3801427	D EH0
-3.3252158	L EH0
-4.5026865	Z EH0
-3.662691	W EH0
-3.8358798	R EH0
-2.676371	HH EH0
-4.063373	V EH0
-3.0413597	S EH0
-4.195465	F EH0
-4.1540103	M EH0
-2.5145054	JH EH0
-3.6066828	<s> xxx
-4.735511	D xxx
-4.2791705	ER0 xxx
-4.532101	Z xxx
-4.7143135	AH1 xxx
-4.7771754	R xxx
-4.4631233	S xxx
-4.4806232	AA1 xxx
-2.6515586	yyy xxx
-2.6024215	T UW0
-3.4230478	L UW0
-4.619401	N UW0
-3.301248	R UW0
-4.1897073	HH UW0
-2.679011	Y UW0
-2.7983768	SH UW0
-3.7055435	CH UW0
-2.452343	ZH UW0
-3.3090754	T AY2
-2.9972873	L AY2
-3.6024153	W AY2
-3.7054956	N AY2
-2.3070378	R AY2
-4.6838875	HH AY2
-4.0227494	V AY2
-2.746226	S AY2
-3.8889537	TH AY2
-3.18385	F AY2
-3.0997472	M AY2
-4.072503	P AY2
-3.6399076	CH AY2
-3.6582813	JH AY2
-4.3192205	<s> AA2
-4.935003	T AA2
-4.487835	UW1 AA2
-3.5470564	D AA2
-3.8619342	ER0 AA2
-4.1806755	W AA2
-3.9573169	G AA2
-4.4106	OW1 AA2
-3.7550564	R AA2
-4.439916	AY1 AA2
-3.1187377	HH AA2
-3.9219878	K AA2
-3.912785	Y AA2
-2.8007095	EY1 AA2
-2.8649366	NG AA2
-3.1755795	F AA2
-4.691946	AH0 AA2
-3.1340654	M AA2
-2.0431538	B AA2
-3.090008	P AA2
-3.6084826	W UH2
-2.836937	G UH2
-4.763164	HH UH2
-4.2803574	Y UH2
-4.2735505	F UH2
-2.1139512	B UH2
-4.9227943	<s> AE2
-3.506487	T AE2
-3.971193	L AE2
-4.126182	ER0 AE2
-4.0111237	W AE2
-4.571933	AH1 AE2
-3.8187897	N AE2
-3.7533665	R AE2
-3.0726166	AY1 AE2
-3.5224926	HH AE2
-4.401611	IY1 AE2
-2.979102	K AE2
-4.0846443	Y AE2
-3.4755855	S AE2
-4.2404566	IY0 AE2
-3.8149357	TH AE2
-4.269353	AH0 AE2
-2.6007566	M AE2
-3.6955786	B AE2
-4.0268593	P AE2
-3.5820043	JH AE2
-5.07925	T UW2
-4.26415	ER0 UW2
-2.5956964	R UW2
-3.711509	K UW2
-2.4079235	Y UW2
-4.392907	B UW2
-4.4322414	P UW2
-3.8986692	SH UW2
-2.5028596	CH UW2
-3.7087524	JH UW2
-4.6421146	<s> EY0
-5.096705	T EY0
-3.4800882	D EY0
-3.5974915	L EY0
-4.2791705	ER0 EY0
-4.302759	N EY0
-4.7771754	R EY0
-2.9995964	V EY0
-4.4631233	S EY0
-4.5987115	<s> AH2
-3.4635112	T AH2
-3.580709	UW1 AH2
-4.138664	Z AH2
-2.6942773	W AH2
-3.4448836	N AH2
-4.457226	OW1 AH2
-4.6675334	R AH2
-3.6840477	AY1 AH2
-4.157831	IY1 AH2
-4.048539	K AH2
-4.003803	S AH2
-4.1217203	NG AH2
-4.5435424	M AH2
-4.3148036	B AH2
-3.480319	P AH2
-2.784968	B OY2
-4.802516	T AW2
-4.031077	L AW2
-3.5468514	R AW2
-3.2808077	HH AW2
-4.8007355	K AW2
-3.793923	T AE0
-4.6316123	L AE0
-4.5026865	Z AE0
-4.603696	N AE0
-4.125621	R AE0
-3.516667	K AE0
-4.1854615	NG AE0
-3.426671	F AE0
-4.7986245	AH0 AE0
-3.365367	M AE0
-3.885814	SH AE0
-4.396554	AH1 dollies
-3.5263116	IY0 dollies
-4.9221163	AH0 dollies
-5.28704	<s> youall
-3.5925202	<s> uhhuh
-5.2508574	T uhhuh
-4.274372	<s> byebye
-5.1963663	T byebye
-3.9001298	OW1 byebye
-0.8571137	dollies byebye
-3.8256395	<s> nightnight
-4.214582	L nightnight
-5.0487375	N nightnight
-3.9001298	OW1 nightnight
-5.1963663	T UH0
-4.7854705	HH UH0
-3.0349278	Y UH0
-3.7828963	CH UH0
-3.5750122	<s> uhoh
-4.8630757	<s> allgone
-3.93719	AY1 ll
-3.522551	IY1 ll
-4.512294	S ll
-4.5112195	<s> whee
-5.1891823	<s> doesn
-4.802516	T doesn
-4.597679	Z doesn
-5.027763	N doesn
-4.651443	AY1 doesn
-4.5112195	<s> ssh
-4.662132	<s> chickie
-4.3276258	ER0 chickie
-4.758622	AH1 chickie
-4.1852546	EY1 chickie
-4.0755215	IY0 chickie
-4.333434	AH0 chickie
-4.6885633	IY1 hadta
-4.0742655	<s> uhuh
-4.696304	<s> mm
-5.28704	<s> tsitsi
-4.7156625	AY1 AW0
-3.9307575	F AW0
-5.1963663	T isn
-5.0487375	N isn
-4.637684	OW1 isn
-1.8581173	xxx isn
-5.2377634	<s> gramma
-4.820997	T gramma
-4.5043507	IY0 gramma
-5.28704	<s> ohmygoodness
-5.28704	<s> doshueh
-4.398405	W ER2
-3.933346	B ER2
-4.5593414	P ER2
-5.1008625	N sothat
-4.9314013	R sothat
-5.28704	<s> uhhum
-5.28704	<s> alldone
-4.726903	AY1 didn
-4.8724494	K outof
-4.7930517	M outof
-5.272133	<s> grammas
-4.7538433	UW1 grammas
-4.8630757	<s> krissy
-5.272133	<s> lotsof
-4.9314013	R lotsof
-4.9434433	S alotof
-4.3364043	NG alotof
-5.28704	<s> pss
-5.28704	<s> lookee

\end\
