\data\
ngram 1=104
ngram 2=2429
ngram 3=23920

\1-grams:
-3.5224802	<unk>	0
0	<s>	-3.0508244
-1.5282195	</s>	0
-1.6002445	T	-1.2432634
-1.9543958	UW1	-0.7778919
-1.5931804	D	-1.1955546
-1.7521675	AO1	-0.83750844
-1.6297098	L	-1.1058301
-1.7228645	ER0	-1.1139615
-1.7421786	Z	-1.1993974
-1.6613207	W	-1.1903138
-1.7324141	AH1	-0.9632096
-1.6002445	N	-1.1767915
-1.6613207	G	-1.0010809
-1.7728622	OW1	-0.94961274
-1.6452278	R	-1.0279216
-1.7623917	AY1	-1.0907679
-1.6866368	HH	-1.2136685
-1.7728622	IY1	-0.9390573
-1.6074257	K	-1.1533387
-1.7228645	Y	-1.1414812
-1.7228645	AE1	-1.0111072
-1.7945927	V	-0.8410816
-2.23994	UH1	-0.5538989
-1.6531997	DH	-1.1119528
-1.6613207	IH1	-1.1020546
-1.622154	S	-1.2038987
-1.7421786	EY1	-1.1177056
-1.7135203	EH1	-1.0429137
-1.9233387	IY0	-0.9794082
-1.7623917	TH	-0.7807715
-1.8805577	IH2	-0.70921946
-2.3069935	NG	-0.5695398
-1.7945927	OW2	-0.6147436
-1.6866368	F	-1.0372807
-1.704373	IH0	-0.952172
-1.6531997	AH0	-1.1378453
-1.6297098	M	-1.0813832
-2.0240893	EH2	-0.6691972
-1.6613207	B	-1.1112735
-1.6373996	P	-1.0899211
-1.7135203	SH	-0.8782884
-1.7521675	CH	-0.89406383
-1.7521675	AA1	-0.85413027
-1.7228645	JH	-0.8664068
-1.7835916	AW1	-0.6862292
-2.155506	OY1	-0.44997334
-2.155506	IY2	-0.45552462
-2.483459	ZH	-0.36263186
-1.9233387	ER1	-0.5846871
-2.3863244	AA0	-0.33973247
-2.0240893	AO2	-0.6379376
-2.23994	yyy	-0.45757458
-2.23994	EY2	-0.42896554
-2.209934	AY0	-0.59281784
-2.063635	OW0	-0.5014935
-2.063635	AO0	-0.940337
-2.34485	EH0	-0.42780226
-2.4321816	xxx	-0.36932343
-2.4321816	UW0	-0.38604987
-2.23994	AY2	-0.45842144
-2.0848458	AA2	-0.46653572
-2.608772	UH2	-0.3178783
-2.063635	AE2	-0.48092973
-2.3863244	UW2	-0.33657396
-2.4321816	EY0	-0.45073593
-2.1818678	AH2	-0.5970633
-3.3184054	OY2	-0.27611738
-2.6882532	AW2	-0.28818607
-2.34485	AE0	-0.3703313
-2.9113033	dollies	-0.3189726
-3.3184054	youall	-0.27611738
-3.1566026	uhhuh	-0.29701662
-2.7856133	byebye	-0.3252462
-2.7856133	nightnight	-0.3252462
-2.7856133	UH0	-0.35206532
-3.3184054	uhoh	-0.27611738
-3.3184054	allgone	-0.27611738
-2.9113033	ll	-0.30907708
-3.3184054	whee	-0.27611738
-2.6882532	doesn	-0.6024989
-3.3184054	ssh	-0.27611738
-2.608772	chickie	-0.37587026
-3.3184054	hadta	-0.27611738
-3.3184054	uhuh	-0.27611738
-3.3184054	mm	-0.27611738
-3.3184054	tsitsi	-0.27611738
-3.1566026	AW0	-0.27611738
-2.7856133	isn	-0.5055889
-2.9113033	gramma	-0.35206532
-3.3184054	ohmygoodness	-0.27611738
-3.3184054	doshueh	-0.27611738
-2.9113033	ER2	-0.27611738
-3.1566026	sothat	-0.27611738
-3.3184054	uhhum	-0.27611738
-3.3184054	alldone	-0.27611738
-3.3184054	didn	-0.27611738
-3.1566026	outof	-0.27611738
-3.1566026	grammas	-0.35413945
-3.3184054	krissy	-0.27611738
-3.1566026	lotsof	-0.27611738
-3.1566026	alotof	-0.27611738
-3.3184054	pss	-0.27611738
-3.3184054	lookee	-0.27611738

\2-grams:
-1.5698515	T </s>	0
-1.2056155	UW1 </s>	0
-1.5458524	D </s>	0
-1.5947444	AO1 </s>	0
-1.5711406	L </s>	0
-1.3902166	ER0 </s>	0
-1.4053885	Z </s>	0
-1.2721385	AH1 </s>	0
-1.5412216	N </s>	0
-1.702233	G </s>	0
-1.1671482	OW1 </s>	0
-1.7831829	R </s>	0
-1.418277	AY1 </s>	0
-1.407528	IY1 </s>	0
-1.5640479	K </s>	0
-2.3749404	AE1 </s>	0
-1.5410099	V </s>	0
-2.202098	DH </s>	0
-1.5825835	S </s>	0
-1.3228123	EY1 </s>	0
-1.7164469	EH1 </s>	0
-1.3705298	IY0 </s>	0
-1.2466621	TH </s>	0
-1.3705268	NG </s>	0
-1.1348867	OW2 </s>	0
-1.5870867	F </s>	0
-2.3123477	IH0 </s>	0
-1.352067	AH0 </s>	0
-1.5959831	M </s>	0
-1.9086826	B </s>	0
-1.5363803	P </s>	0
-1.592211	SH </s>	0
-1.3698369	CH </s>	0
-1.1749712	AA1 </s>	0
-1.7600281	JH </s>	0
-1.3349209	AW1 </s>	0
-1.3558872	OY1 </s>	0
-1.1681684	IY2 </s>	0
-1.1635959	ZH </s>	0
-1.3643925	ER1 </s>	0
-1.2217315	AA0 </s>	0
-1.7308862	AO2 </s>	0
-0.47349483	yyy </s>	0
-1.2980882	EY2 </s>	0
-1.0228431	OW0 </s>	0
-0.6320421	xxx </s>	0
-1.0112703	UW0 </s>	0
-1.5761675	AY2 </s>	0
-1.1122395	AA2 </s>	0
-0.9947531	UW2 </s>	0
-1.52436	AH2 </s>	0
-1.1677021	OY2 </s>	0
-1.2638582	AW2 </s>	0
-1.0892242	dollies </s>	0
-0.75881404	uhhuh </s>	0
-0.5144344	byebye </s>	0
-0.5144344	nightnight </s>	0
-0.8751328	uhoh </s>	0
-0.31321084	allgone </s>	0
-0.60044515	whee </s>	0
-0.31321084	ssh </s>	0
-0.44808778	chickie </s>	0
-0.31321084	uhuh </s>	0
-0.60044515	mm </s>	0
-0.31321084	tsitsi </s>	0
-0.34583348	gramma </s>	0
-0.31321084	ohmygoodness </s>	0
-0.31321084	doshueh </s>	0
-0.31321084	uhhum </s>	0
-0.31321084	alldone </s>	0
-0.24361886	grammas </s>	0
-0.31321084	pss </s>	0
-1.7492621	<s> T	-1.7108861
-1.6567211	T T	-1.8566908
-1.3966044	UW1 T	-1.351258
-1.6345053	D T	-1.3583338
-1.1598263	AO1 T	-1.1959643
-1.7866611	L T	-1.0909368
-1.5041027	ER0 T	-0.9961504
-1.5657468	Z T	-1.3263084
-1.4975066	AH1 T	-2.201793
-1.5924029	N T	-2.1278245
-2.1070404	G T	-0.6983621
-1.399276	OW1 T	-1.1616807
-1.7613541	R T	-1.3152567
-1.4387348	AY1 T	-1.8650812
-1.1753893	IY1 T	-1.6047081
-1.6402537	K T	-1.2652189
-1.0224375	AE1 T	-2.1570497
-1.5916276	V T	-0.92236435
-1.4103581	UH1 T	-1.7620279
-2.3487113	DH T	-0.42659295
-0.9071249	IH1 T	-2.163575
-1.4081451	S T	-1.9196485
-1.3259778	EY1 T	-1.2693118
-1.518627	EH1 T	-1.8005106
-1.5231928	IY0 T	-1.4132515
-1.8597275	TH T	-0.74609333
-1.0752476	IH2 T	-0.7067867
-1.5068259	NG T	-1.4939823
-1.423437	OW2 T	-0.39494342
-1.7171079	F T	-1.455873
-0.8920367	IH0 T	-1.9826453
-1.3290346	AH0 T	-1.8637723
-1.7843682	M T	-1.1916809
-1.3859756	EH2 T	-0.6253201
-2.3420758	B T	-0.29445156
-1.6777507	P T	-0.87918705
-1.7800437	SH T	-0.95638824
-1.6508602	CH T	-0.44620305
-1.3180507	AA1 T	-1.6882172
-1.8553659	JH T	-0.50578153
-0.7716842	AW1 T	-1.5346384
-1.6476841	OY1 T	-0.30166158
-1.4400034	IY2 T	-0.30046993
-1.4632348	ZH T	-0.28729513
-1.1372836	ER1 T	-1.1343526
-1.5074427	AA0 T	-0.28729513
-0.8278254	EY2 T	-0.99124354
-1.7521937	OW0 T	-0.4363361
-1.1375746	UW0 T	-0.29801974
-0.98460853	AY2 T	-0.7749535
-1.6978893	AA2 T	-0.29807448
-1.1319352	AE2 T	-0.36496648
-0.35573342	EY0 T	-0.7151701
-1.2258543	AH2 T	-0.7279192
-1.2828642	AW2 T	-0.28729513
-1.1009694	dollies T	-0.28729513
-1.044385	nightnight T	-0.28729513
-0.60461545	whee T	-0.28729513
-0.12117824	doesn T	-0.6100458
-0.15760736	isn T	-0.43395454
-0.31535825	didn T	-0.28729513
-2.6535103	<s> UW1	-2.149958
-1.5158573	T UW1	-1.7114886
-1.4294125	D UW1	-1.9830947
-1.5583428	L UW1	-1.0136735
-2.5062664	ER0 UW1	-0.6286177
-1.9943036	Z UW1	-0.9483488
-1.70985	W UW1	-1.5572141
-1.724943	N UW1	-0.8765391
-1.9132565	G UW1	-0.40177655
-2.6621094	OW1 UW1	-0.28729513
-1.4389763	R UW1	-1.4107056
-1.3170371	HH UW1	-1.40872
-1.970198	K UW1	-1.3776639
-0.8493012	Y UW1	-2.3743746
-2.6176748	AE1 UW1	-0.28729513
-1.6022651	S UW1	-1.2815686
-2.8186753	EY1 UW1	-0.29807448
-2.7030153	IY0 UW1	-0.28729513
-1.5635755	F UW1	-1.2659323
-1.5807345	M UW1	-1.5556477
-1.6144108	B UW1	-1.1433798
-1.6490899	P UW1	-1.3209898
-1.2468681	SH UW1	-1.1368668
-1.4827756	CH UW1	-0.7276335
-2.5264442	AA1 UW1	-0.28729513
-1.1842973	JH UW1	-1.835301
-1.9642625	EY2 UW1	-0.28729513
-1.4690319	<s> D	-2.1100135
-1.8200698	T D	-1.8692533
-1.5083926	UW1 D	-1.5780886
-1.738467	D D	-1.240454
-2.2365355	AO1 D	-0.28729513
-1.7297796	L D	-1.478878
-1.4530493	ER0 D	-1.0433326
-1.5484618	Z D	-1.0817531
-1.5267249	AH1 D	-0.9229405
-1.6086364	N D	-2.0579388
-2.009345	G D	-0.40039298
-1.5222719	OW1 D	-0.9589182
-1.8683537	R D	-1.3329221
-1.3767228	AY1 D	-1.7547771
-1.5437478	IY1 D	-1.4088368
-1.7743227	K D	-0.7206931
-1.3280658	AE1 D	-1.385234
-1.5500631	V D	-0.6099281
-0.6989256	UH1 D	-1.6050676
-2.345638	DH D	-0.4795742
-1.4856964	IH1 D	-1.3982083
-1.759484	S D	-1.2061311
-1.4288228	EY1 D	-1.2255957
-1.2286472	EH1 D	-1.4804497
-1.4981524	IY0 D	-1.2096888
-1.7597134	TH D	-0.65314764
-1.891923	IH2 D	-0.6769926
-1.583154	NG D	-0.91860455
-1.5796324	OW2 D	-0.7010849
-2.1764712	F D	-0.29586437
-1.5436277	IH0 D	-1.4863329
-1.4794848	AH0 D	-1.4547949
-1.7234021	M D	-0.8097285
-2.4395804	B D	-0.2964713
-1.8354037	P D	-0.49476418
-2.187633	SH D	-0.30077028
-1.7580259	CH D	-0.6720834
-1.2910943	AA1 D	-0.68942165
-1.9508234	JH D	-0.40690687
-1.5678327	AW1 D	-0.9632171
-1.1739489	OY1 D	-0.44434014
-1.2483226	IY2 D	-0.2890732
-1.4609866	ZH D	-0.29445156
-1.3752943	ER1 D	-0.920326
-1.50482	AA0 D	-0.28729513
-1.6353742	yyy D	-0.29807448
-1.461918	EY2 D	-0.28729513
-0.2569057	AY0 D	-1.7663931
-1.6307238	OW0 D	-0.2964713
-1.4136713	xxx D	-0.28729513
-1.2985072	UW0 D	-1.4693477
-1.600272	AY2 D	-0.57729805
-1.6948541	AA2 D	-1.6707436
-0.58094823	UH2 D	-0.89211124
-1.4524763	UW2 D	-0.28729513
-1.2855939	EY0 D	-0.29445156
-1.1818601	OY2 D	-0.28729513
-0.71154064	AE0 D	-0.43395454
-0.3151626	youall D	-0.28729513
-1.0434495	nightnight D	-0.28729513
-1.1884284	ll D	-0.28729513
-0.88229334	ER2 D	-0.28729513
-2.287647	<s> AO1	-1.6054127
-1.5443343	T AO1	-2.2126224
-1.6874256	UW1 AO1	-0.9962474
-1.4729954	D AO1	-1.7483485
-2.3313034	AO1 AO1	-0.29445156
-1.4166834	L AO1	-1.6325449
-1.5919725	ER0 AO1	-1.2790526
-1.5732933	Z AO1	-1.6012719
-1.233098	W AO1	-2.3338661
-2.3682141	AH1 AO1	-0.29958934
-1.5844567	N AO1	-1.4782543
-1.443289	G AO1	-1.322992
-1.8144716	OW1 AO1	-1.1489127
-1.4959966	R AO1	-1.2823473
-1.9135922	AY1 AO1	-0.52352136
-1.3659427	HH AO1	-1.9541771
-1.8063185	IY1 AO1	-0.9253162
-1.4126486	K AO1	-1.9726719
-0.959388	Y AO1	-2.5590289
-2.5151615	AE1 AO1	-0.29807448
-1.7695091	V AO1	-1.0790491
-2.4081056	DH AO1	-0.53086454
-1.5350087	S AO1	-1.2934164
-1.9063405	EY1 AO1	-0.97869235
-1.6525365	IY0 AO1	-1.0006865
-1.3217313	TH AO1	-1.501053
-1.6197025	NG AO1	-1.4339545
-1.2504302	F AO1	-2.2267838
-2.451183	IH0 AO1	-0.29807448
-2.4321387	AH0 AO1	-0.45073414
-1.3456366	M AO1	-2.3836288
-1.3550289	B AO1	-1.6042162
-1.5714484	P AO1	-1.3269014
-1.4206759	SH AO1	-1.1683177
-1.3364073	CH AO1	-1.2894924
-2.409257	AA1 AO1	-0.30901578
-1.3581012	JH AO1	-0.9079055
-2.2363944	AW1 AO1	-0.44632477
-1.9202363	OY1 AO1	-0.29807448
-1.4722228	IY2 AO1	-0.29589707
-1.939775	ER1 AO1	-0.6659965
-1.8757939	EY2 AO1	-0.28729513
-1.7564974	AA2 AO1	-0.28729513
-1.5371729	<s> L	-2.0793839
-1.7069002	T L	-1.4830921
-1.4342647	UW1 L	-1.2877885
-1.7415988	D L	-1.2103298
-0.82689714	AO1 L	-1.6369576
-1.7901044	L L	-1.0538191
-1.6066208	ER0 L	-0.8754875
-1.5850501	Z L	-1.1881051
-1.7226057	AH1 L	-1.219355
-1.706394	N L	-1.3042839
-1.2999688	G L	-0.7557324
-1.3047493	OW1 L	-1.4125011
-2.0210814	R L	-1.1987343
-1.3372201	AY1 L	-1.3210124
-1.489726	IY1 L	-1.367724
-1.3969507	K L	-1.6278409
-1.1247637	AE1 L	-1.230031
-1.6915371	V L	-0.64323634
-1.0697656	UH1 L	-0.78833365
-2.3612258	DH L	-0.2915748
-1.3165733	IH1 L	-1.4683568
-1.5160208	S L	-1.6085542
-1.4306566	EY1 L	-1.2718139
-1.0574105	EH1 L	-1.75701
-1.6091124	IY0 L	-1.3555567
-1.7683147	TH L	-0.2908586
-1.9057562	IH2 L	-0.28729513
-1.5924778	NG L	-0.689987
-1.5879571	OW2 L	-0.28729513
-1.3399091	F L	-1.2137462
-1.3469622	IH0 L	-1.0827351
-1.259552	AH0 L	-1.8777605
-1.7566085	M L	-0.91838527
-1.2134422	EH2 L	-1.1787672
-1.3654008	B L	-1.5865875
-1.3200285	P L	-1.9103155
-1.9669921	SH L	-0.30167264
-2.0093474	CH L	-0.43770218
-1.3787655	AA1 L	-1.0499314
-2.1990764	JH L	-0.29445156
-1.5746933	AW1 L	-0.7708894
-0.8953711	OY1 L	-0.4157896
-1.2539061	IY2 L	-0.70193315
-1.012508	ER1 L	-0.92471445
-1.5180949	AA0 L	-0.28729513
-0.3475786	AO2 L	-1.5836381
-1.6078951	EY2 L	-0.5043167
-0.923557	OW0 L	-1.3034829
-0.38297626	AO0 L	-1.2790526
-1.1903391	EH0 L	-1.4693477
-1.6128453	AY2 L	-0.29445156
-1.4533341	AA2 L	-0.29807448
-1.1051632	UH2 L	-0.28729513
-1.1351491	AE2 L	-0.9548851
-1.0071355	UW2 L	-0.29265139
-1.2917492	EY0 L	-0.28729513
-1.289987	AW2 L	-0.28729513
-2.4364552	<s> ER0	-1.0181452
-1.6197532	T ER0	-1.6301358
-1.8347994	UW1 ER0	-0.57699597
-1.7734408	D ER0	-1.2084479
-1.7997166	L ER0	-0.9610999
-2.0512636	ER0 ER0	-0.3667891
-1.6278746	Z ER0	-0.8573429
-2.1855938	W ER0	-1.5394647
-2.354794	AH1 ER0	-0.28729513
-1.7834687	N ER0	-0.8774147
-1.4656366	G ER0	-1.0245886
-2.1213014	OW1 ER0	-0.6959597
-1.9839952	R ER0	-1.250894
-2.0896482	AY1 ER0	-1.060477
-1.9292773	HH ER0	-0.6769926
-2.1127293	IY1 ER0	-0.40717196
-1.7120534	K ER0	-0.8771571
-1.3411978	Y ER0	-0.84967494
-1.3736048	V ER0	-1.4232904
-1.718525	DH ER0	-1.5003421
-1.6449866	S ER0	-0.6518223
-2.0850554	EY1 ER0	-0.49252576
-1.7232138	IY0 ER0	-0.4751048
-1.8931476	TH ER0	-0.53086454
-1.8513623	NG ER0	-0.7039111
-1.2376091	F ER0	-1.2489525
-2.4345813	IH0 ER0	-0.28729513
-2.535812	AH0 ER0	-0.28729513
-1.7660203	M ER0	-0.7024822
-1.6589956	B ER0	-1.1477933
-1.549574	P ER0	-1.0447668
-1.9918122	SH ER0	-0.56039214
-1.5026374	CH ER0	-0.97933686
-2.390414	AA1 ER0	-0.28729513
-1.4487468	JH ER0	-0.8675981
-1.024565	AW1 ER0	-0.8555044
-1.9046788	OY1 ER0	-0.28729513
-1.9455293	IY2 ER0	-0.28729513
-1.498434	ZH ER0	-0.28729513
-1.9277921	ER1 ER0	-0.30901578
-1.86104	EY2 ER0	-0.28729513
-1.4654777	AY0 ER0	-0.28729513
-1.7334245	UW0 ER0	-0.28729513
-1.6418588	AY2 ER0	-0.60451293
-1.3101994	AW2 ER0	-0.29445156
-0.6103674	AW0 ER0	-0.28729513
-3.4361396	<s> Z	-0.9318719
-2.5011787	T Z	-1.3745613
-1.5731046	UW1 Z	-1.2626512
-1.7747959	D Z	-0.99216926
-1.7143427	AO1 Z	-0.8559271
-1.7715446	L Z	-1.26133
-1.53025	ER0 Z	-1.1386926
-1.7893085	AH1 Z	-1.3449457
-1.6351528	N Z	-1.2343421
-1.775469	G Z	-0.86289513
-1.6330004	OW1 Z	-1.4376755
-1.9872392	R Z	-1.7073481
-1.7171696	AY1 Z	-0.7861482
-1.3021379	IY1 Z	-1.544237
-2.7566912	K Z	-0.28729513
-1.3347948	AE1 Z	-0.7334193
-1.6558803	V Z	-0.6637786
-2.404584	DH Z	-0.3016542
-0.90906954	IH1 Z	-1.6970806
-2.5552788	S Z	-0.30348292
-1.8155569	EY1 Z	-0.6371742
-1.3029795	EH1 Z	-0.74576145
-1.5605356	IY0 Z	-1.150951
-1.6177002	NG Z	-0.93753827
-1.4434574	OW2 Z	-0.5764842
-0.9179462	IH0 Z	-1.7278812
-1.5453631	AH0 Z	-0.98551404
-1.7999843	M Z	-0.9203702
-1.8703175	EH2 Z	-0.28729513
-2.07203	B Z	-0.29507834
-2.1065629	AA1 Z	-1.1701622
-1.7864964	AW1 Z	-0.6739671
-1.3981941	OY1 Z	-1.2152076
-1.7571083	IY2 Z	-0.29510805
-1.8090664	ER1 Z	-0.7970221
-1.5546381	AA0 Z	-0.9934244
-1.6444882	EY2 Z	-0.29475126
-1.5252036	OW0 Z	-0.61318314
-1.4843016	UW0 Z	-0.29445156
-0.51135266	AY2 Z	-0.4547645
-1.7530254	AA2 Z	-0.30901578
-1.1931628	UW2 Z	-0.29445156
-1.308174	EY0 Z	-0.7349845
-1.208569	OY2 Z	-0.28729513
-1.0753862	<s> W	-2.479378
-1.5646619	T W	-1.9953227
-1.5171316	UW1 W	-1.9618948
-1.6576294	D W	-1.5568199
-2.0900779	AO1 W	-0.2908586
-1.7641551	L W	-1.3566175
-1.545336	ER0 W	-1.3933675
-1.5046988	Z W	-1.3196437
-1.7786583	AH1 W	-1.1503373
-1.6878933	N W	-1.4132328
-2.1256914	G W	-0.7475841
-1.5583118	OW1 W	-1.5396229
-1.9237411	R W	-1.3744802
-1.3384833	AY1 W	-1.834852
-1.0957692	HH W	-2.6854267
-1.6550196	IY1 W	-1.4292359
-1.5113004	K W	-1.4768122
-2.4615417	AE1 W	-0.73106
-1.6455003	V W	-0.820899
-2.3741117	DH W	-0.495884
-1.5453422	S W	-1.6303103
-1.5252136	EY1 W	-1.5927384
-2.4778354	EH1 W	-0.28729513
-1.5282248	IY0 W	-1.3953439
-1.563806	TH W	-0.29875883
-1.699278	NG W	-1.1629692
-1.9704676	OW2 W	-0.30348292
-2.0240855	F W	-1.0068367
-2.3981462	IH0 W	-0.43149295
-1.3857806	AH0 W	-1.61974
-1.7600074	M W	-1.2033796
-2.4752774	B W	-1.0438457
-1.7408124	P W	-0.6213341
-1.9758544	SH W	-0.38880438
-1.7110035	CH W	-0.82868785
-1.5772549	AA1 W	-0.9340758
-1.8695393	JH W	-0.6026842
-1.7666845	AW1 W	-1.0129064
-1.6708412	OY1 W	-0.29314157
-1.599398	IY2 W	-0.3491859
-1.0131094	ZH W	-0.28729513
-1.9010545	ER1 W	-0.51886475
-1.7751452	AO2 W	-0.28729513
-1.660309	yyy W	-0.28729513
-1.6188297	EY2 W	-0.3519228
-1.6529516	OW0 W	-0.92635006
-1.7064308	UW0 W	-0.29265139
-1.7229666	AA2 W	-0.28729513
-1.1817479	UW2 W	-0.29445156
-1.2972286	AW2 W	-0.28729513
-1.1066921	uhhuh W	-0.28729513
-0.8888404	uhoh W	-0.28729513
-0.60767365	sothat W	-0.28729513
-1.9401774	<s> AH1	-1.3554968
-1.5320759	T AH1	-1.6515875
-1.754044	UW1 AH1	-0.75613976
-1.4016222	D AH1	-1.7502954
-2.1164494	AO1 AH1	-0.28729513
-1.4702445	L AH1	-1.2513561
-1.814886	ER0 AH1	-0.798943
-1.6089084	Z AH1	-1.0783345
-1.0984678	W AH1	-3.3993523
-1.6878843	AH1 AH1	-1.0821705
-1.5236038	N AH1	-1.866328
-1.4661579	G AH1	-0.9215849
-1.759494	OW1 AH1	-0.71406966
-1.4160957	R AH1	-1.6955562
-1.9112208	AY1 AH1	-0.5279124
-1.1854268	HH AH1	-1.6482013
-1.7513689	IY1 AH1	-0.66283077
-1.3897394	K AH1	-2.0184808
-1.4075754	Y AH1	-1.2468679
-2.5038948	AE1 AH1	-0.29445156
-1.766487	V AH1	-0.41177475
-1.0583656	DH AH1	-1.8704616
-1.4573544	S AH1	-2.062797
-1.707694	EY1 AH1	-0.679031
-2.1732838	EH1 AH1	-0.28729513
-1.6508551	IY0 AH1	-1.3079718
-1.4714189	TH AH1	-0.85086226
-1.5323205	NG AH1	-1.1348735
-1.4090962	F AH1	-1.4463093
-2.4400449	IH0 AH1	-0.30348292
-2.1032758	AH0 AH1	-1.2416055
-1.4080158	M AH1	-1.7259555
-1.2745261	B AH1	-1.839137
-1.4450253	P AH1	-1.1546985
-1.3886794	SH AH1	-0.88625216
-1.4398894	CH AH1	-0.7107502
-2.103377	AA1 AH1	-0.2964713
-1.0511048	JH AH1	-1.9977349
-1.9263878	AW1 AH1	-0.39125678
-1.909803	OY1 AH1	-0.28729513
-1.9510901	IY2 AH1	-0.28729513
-1.9317498	ER1 AH1	-0.45763186
-2.0016227	OW0 AH1	-0.28729513
-1.4487106	xxx AH1	-0.28729513
-1.7374215	UW0 AH1	-0.28729513
-1.2574182	<s> N	-2.3402565
-1.758929	T N	-1.6633531
-1.4310348	UW1 N	-1.4344047
-1.7634107	D N	-1.1435356
-0.78902876	AO1 N	-1.7473063
-1.92688	L N	-0.74764276
-1.5223947	ER0 N	-0.86432695
-1.5833155	Z N	-1.2873015
-1.2591586	AH1 N	-1.8868227
-1.7727596	N N	-1.0582758
-2.1070404	G N	-0.46573088
-1.2244625	OW1 N	-1.9150779
-1.8695937	R N	-1.2187115
-1.3916836	AY1 N	-1.522347
-1.461158	IY1 N	-1.2336237
-1.8312474	K N	-0.7991197
-0.90934217	AE1 N	-2.009478
-1.8080586	V N	-0.6132149
-2.3487113	DH N	-0.28729513
-0.85521626	IH1 N	-1.8475976
-1.5281646	S N	-1.6546859
-1.4461601	EY1 N	-1.3121965
-1.0159812	EH1 N	-1.8601834
-1.4127508	IY0 N	-1.1693647
-1.6813097	TH N	-0.3575813
-0.39711758	IH2 N	-1.092124
-1.6804104	NG N	-0.6872096
-1.7232428	OW2 N	-0.77896583
-2.0865617	F N	-0.48234576
-0.87009513	IH0 N	-1.7556399
-1.1886978	AH0 N	-2.1133342
-1.8179055	M N	-1.1586123
-0.38884598	EH2 N	-0.8799627
-2.5778768	B N	-0.43395454
-1.8764956	P N	-0.9394121
-1.958307	SH N	-0.29925224
-1.9042599	CH N	-0.4544913
-0.9187036	AA1 N	-2.0276184
-2.183958	JH N	-0.29807448
-1.1961167	AW1 N	-1.5491947
-1.1748968	OY1 N	-0.78252006
-1.2494335	IY2 N	-0.6801617
-1.3168918	ER1 N	-1.2745609
-1.2369844	AA0 N	-0.29265139
-1.3128878	EY2 N	-0.8449459
-0.9360474	AY0 N	-1.367492
-1.304612	OW0 N	-0.29804158
-1.743356	AO0 N	-0.30901578
-0.7056711	EH0 N	-0.495884
-1.4477704	UW0 N	-0.7806042
-1.3261647	AY2 N	-0.29958934
-0.82725286	AA2 N	-0.6685947
-1.1319352	AE2 N	-0.7750138
-1.1718473	UW2 N	-0.28729513
-1.2868179	EY0 N	-0.78613704
-0.24723518	AH2 N	-0.78287977
-0.97528964	AW2 N	-0.29445156
-0.8946539	AE0 N	-0.6261653
-0.60461545	AW0 N	-0.29807448
-0.883016	ER2 N	-0.28729513
-0.60461545	alotof N	-0.28729513
-1.7690706	<s> G	-1.8200356
-1.8043222	T G	-1.7288575
-1.61469	UW1 G	-1.890915
-1.8840592	D G	-1.1578764
-1.9604192	AO1 G	-1.1121002
-1.8960953	L G	-1.3971453
-1.6322682	ER0 G	-1.0326563
-1.5520715	Z G	-1.5670727
-1.5326552	AH1 G	-0.8367866
-1.7088219	N G	-1.332733
-2.1256914	G G	-0.6213363
-1.663126	OW1 G	-1.1295663
-1.9237411	R G	-1.4283525
-1.3384833	AY1 G	-1.5933181
-1.6550196	IY1 G	-1.5556695
-1.9407285	K G	-0.658519
-1.6737173	AE1 G	-1.1080403
-1.7546047	V G	-1.0559045
-1.7091963	UH1 G	-1.5039924
-2.3741117	DH G	-0.29265139
-1.5339626	IH1 G	-1.2483591
-1.7653062	S G	-1.607793
-1.4156874	EY1 G	-1.2239904
-1.1360813	EH1 G	-1.0515562
-1.5823499	IY0 G	-1.3587091
-2.0106342	TH G	-0.30348292
-1.4756272	IH2 G	-0.5087261
-1.3407795	NG G	-1.3234454
-2.425707	F G	-0.29445156
-1.5015652	IH0 G	-1.3787917
-1.3857806	AH0 G	-1.8384202
-1.9033086	M G	-1.6247762
-2.0378406	P G	-0.7361219
-2.0187752	CH G	-0.29265139
-1.6298884	AA1 G	-1.1637173
-2.2147403	JH G	-0.28729513
-1.9022076	AW1 G	-0.4721161
-1.8704089	OY1 G	-0.43373644
-1.7260234	IY2 G	-0.2908586
-1.4816521	ZH G	-0.29807448
-1.9010545	ER1 G	-1.0969756
-1.5290151	AA0 G	-0.28729513
-1.4828289	AO2 G	-0.4217658
-1.3830392	yyy G	-0.53086454
-1.8284465	EY2 G	-0.28729513
-1.7784483	OW0 G	-0.28729513
-1.4318689	xxx G	-0.28729513
-1.6231728	AY2 G	-0.28729513
-1.7349741	AE2 G	-0.43395454
-1.4740154	UW2 G	-0.30901578
-1.3908068	AE0 G	-0.28729513
-1.2007911	ll G	-0.28729513
-0.31692672	hadta G	-0.28729513
-1.4194263	<s> OW1	-1.8066007
-1.5947351	T OW1	-1.4284309
-1.9497309	UW1 OW1	-1.0078167
-1.4867028	D OW1	-2.309628
-1.4438052	L OW1	-1.3472271
-1.7502587	ER0 OW1	-0.7155176
-1.7185829	Z OW1	-1.1205523
-1.5025487	W OW1	-1.3214699
-1.7393639	AH1 OW1	-0.8440381
-1.4252472	N OW1	-2.032632
-1.1388763	G OW1	-1.8465024
-1.8170992	OW1 OW1	-0.7453609
-1.3634781	R OW1	-1.2978678
-1.7194448	AY1 OW1	-0.762261
-1.2820543	HH OW1	-1.9411992
-1.8089607	IY1 OW1	-0.55451816
-1.5019401	K OW1	-1.366546
-1.4088972	Y OW1	-0.4529403
-2.5267284	AE1 OW1	-0.2908586
-1.351434	V OW1	-0.9795956
-1.1465929	DH OW1	-1.6059773
-1.4586383	S OW1	-1.3410742
-1.908544	EY1 OW1	-0.67786205
-1.7705185	IY0 OW1	-0.52035
-1.7292114	NG OW1	-0.9178085
-1.6072028	F OW1	-1.0338614
-2.4626148	IH0 OW1	-0.7014229
-2.1946223	AH0 OW1	-0.94781125
-1.5535077	M OW1	-1.2112573
-1.4020187	B OW1	-1.5997944
-1.6651964	P OW1	-0.8811996
-1.2410585	SH OW1	-1.0966456
-1.8574647	CH OW1	-0.30167264
-1.9717342	AA1 OW1	-0.4565279
-1.4521774	JH OW1	-0.6036069
-1.7933064	AW1 OW1	-0.5789834
-1.9309264	OY1 OW1	-0.30348292
-1.974074	IY2 OW1	-0.29807448
-1.9479513	ER1 OW1	-0.3046061
-1.6959518	yyy OW1	-0.28729513
-2.024856	OW0 OW1	-0.29807448
-1.7524557	<s> R	-1.8635683
-1.5065792	T R	-1.9737136
-1.6703451	UW1 R	-1.253359
-1.4324375	D R	-1.6089185
-0.7899893	AO1 R	-1.9661624
-1.8232642	L R	-1.541819
-1.6557745	ER0 R	-0.9513254
-1.6437099	Z R	-1.1519489
-1.9027945	AH1 R	-0.85523003
-1.6867348	N R	-1.0510117
-1.2383564	G R	-1.3972597
-1.8567342	OW1 R	-0.97718537
-1.920937	R R	-1.2235601
-1.5335941	AY1 R	-1.0663218
-1.3731936	IY1 R	-1.7558047
-1.4087679	K R	-1.7904226
-1.6179374	AE1 R	-1.3110555
-1.5188904	V R	-1.3062106
-0.84748954	UH1 R	-1.4969871
-1.153727	IH1 R	-1.3568163
-1.7884773	S R	-1.6044096
-1.4484515	EY1 R	-1.006501
-1.0872705	EH1 R	-2.1786418
-1.5531027	IY0 R	-1.0743616
-1.0104887	TH R	-1.7444359
-1.9114155	IH2 R	-0.28729513
-1.596264	NG R	-1.1386068
-1.2122462	F R	-1.7039565
-2.0785675	IH0 R	-0.8429169
-1.5201142	AH0 R	-1.3428121
-1.7583046	M R	-0.9363023
-0.9921981	EH2 R	-0.96182525
-1.2841892	B R	-1.5534693
-1.3833545	P R	-1.549627
-1.6604714	SH R	-1.2592183
-1.8350451	CH R	-0.42904532
-0.9423416	AA1 R	-1.7339067
-2.0970206	JH R	-0.40039295
-1.0888299	AW1 R	-0.5373848
-1.6649352	OY1 R	-0.41499
-1.7194078	IY2 R	-0.29807448
-1.476974	ZH R	-0.28729513
-1.7772874	ER1 R	-0.68191814
-0.9031306	AA0 R	-0.2908586
-0.7594719	AO2 R	-0.44178563
-1.8195664	EY2 R	-0.28729513
-1.4536383	AY0 R	-0.43395454
-1.7717344	OW0 R	-0.40039295
-0.35048416	AO0 R	-1.2868837
-1.0176594	EH0 R	-0.4777639
-0.8297215	AA2 R	-0.9625622
-1.10736	UH2 R	-0.29807448
-1.1920526	OY2 R	-0.29807448
-0.3488401	UH0 R	-0.9348418
-1.1653519	chickie R	-0.28729513
-1.2083524	<s> AY1	-2.0482411
-1.5218487	T AY1	-1.5253936
-1.9470831	UW1 AY1	-0.6870918
-1.607517	D AY1	-1.2422329
-2.336913	AO1 AY1	-0.28729513
-1.3463775	L AY1	-1.8190031
-1.5925103	ER0 AY1	-0.4798414
-1.6297971	Z AY1	-0.7955466
-1.2192073	W AY1	-1.5448745
-1.7917112	AH1 AY1	-0.4200775
-1.4846096	N AY1	-1.4040784
-1.4437842	G AY1	-0.7385078
-1.5073296	OW1 AY1	-1.2314869
-1.2611643	R AY1	-2.0653505
-1.8678418	AY1 AY1	-0.43619922
-1.3479646	HH AY1	-1.1452628
-1.8076376	IY1 AY1	-0.43969363
-1.5780821	K AY1	-1.1419547
-2.5209064	AE1 AY1	-0.7338412
-1.7109721	V AY1	-0.4193631
-1.6120595	S AY1	-1.3462982
-1.8600601	EY1 AY1	-0.93727094
-2.5349739	EH1 AY1	-0.28729513
-1.7271968	IY0 AY1	-0.7044572
-1.9025117	TH AY1	-0.28729513
-1.7266368	NG AY1	-0.38383558
-2.0175436	OW2 AY1	-0.28729513
-1.3304831	F AY1	-1.4901648
-1.9237156	AH0 AY1	-0.3022416
-1.3120408	M AY1	-1.6024635
-1.3702424	B AY1	-1.1556445
-1.5322002	P AY1	-0.92220426
-2.1439314	SH AY1	-0.5186758
-1.7241021	CH AY1	-0.5683149
-1.7034767	AA1 AY1	-0.32271498
-2.1384656	JH AY1	-0.28729513
-1.7910244	AW1 AY1	-0.7073813
-1.7048435	OY1 AY1	-0.2915748
-1.764329	IY2 AY1	-0.28729513
-2.1306992	ER1 AY1	-0.40873381
-1.6504018	EY2 AY1	-0.28729513
-1.5289967	OW0 AY1	-0.2908586
-0.91526985	<s> HH	-2.5500002
-1.6937051	T HH	-1.9833775
-1.5664611	UW1 HH	-1.7625029
-1.6591865	D HH	-1.6152835
-1.8176111	AO1 HH	-0.34258455
-1.7961966	L HH	-1.36257
-1.5274612	ER0 HH	-1.479911
-1.4629722	Z HH	-1.6040999
-1.6410133	AH1 HH	-1.1713169
-1.689637	N HH	-1.7036269
-2.0317826	G HH	-0.8683238
-1.5021939	OW1 HH	-1.6067935
-1.8431034	R HH	-1.404748
-1.3394332	AY1 HH	-1.5045148
-1.6994966	IY1 HH	-1.6740222
-1.7094721	K HH	-1.3235167
-2.4769442	AE1 HH	-0.8954984
-1.7004987	V HH	-0.99975115
-2.3840334	DH HH	-0.52352136
-1.7919258	S HH	-1.5846838
-1.416754	EY1 HH	-1.3549236
-2.4926882	EH1 HH	-0.28729513
-1.530127	IY0 HH	-1.4193884
-1.627298	TH HH	-0.6192605
-1.7065701	NG HH	-1.014026
-1.7492558	OW2 HH	-0.29445156
-2.109171	F HH	-0.6137936
-2.221716	IH0 HH	-1.1152302
-1.4327466	AH0 HH	-1.5029783
-1.7625742	M HH	-1.9655794
-2.2451413	B HH	-0.29958934
-1.8098954	P HH	-1.0348767
-1.9826218	SH HH	-0.29034778
-1.6622423	CH HH	-0.8006016
-1.5800996	AA1 HH	-0.73792857
-2.1124966	JH HH	-0.6026842
-1.7731886	AW1 HH	-1.0252358
-1.6798538	OY1 HH	-0.44357073
-1.6069336	IY2 HH	-0.29265139
-1.488765	ZH HH	-0.28729513
-1.9123125	ER1 HH	-0.7530319
-1.7825649	AO2 HH	-0.29807448
-1.6272153	EY2 HH	-0.2915748
-1.5140191	OW0 HH	-0.7724349
-1.4381082	xxx HH	-0.28729513
-1.4710546	UW0 HH	-0.2908586
-1.6310828	AY2 HH	-0.28729513
-1.1994824	OY2 HH	-0.28729513
-0.8910449	uhoh HH	-0.28729513
-0.8969927	gramma HH	-0.28729513
-2.9021354	<s> IY1	-0.95797884
-1.54505	T IY1	-1.1233182
-2.205958	UW1 IY1	-1.4467741
-1.6079789	D IY1	-0.9969953
-1.4438052	L IY1	-1.8798743
-2.1286438	ER0 IY1	-0.61824864
-1.630279	Z IY1	-0.7212293
-1.1317852	W IY1	-1.7840714
-2.377397	AH1 IY1	-0.28729513
-1.4979712	N IY1	-1.6238123
-2.2955313	G IY1	-0.28729513
-2.1347828	OW1 IY1	-0.5764842
-1.3508865	R IY1	-1.4439919
-1.8689133	AY1 IY1	-0.7349845
-1.1394925	HH IY1	-2.0086129
-1.8089607	IY1 IY1	-0.8263617
-1.6513671	K IY1	-1.2740773
-2.5267284	AE1 IY1	-0.30901578
-1.7122992	V IY1	-0.5496431
-1.1465929	DH IY1	-2.3728142
-1.4246647	S IY1	-1.7536608
-2.1779714	EY1 IY1	-0.58522224
-1.7281983	IY0 IY1	-0.5913025
-2.3520594	TH IY1	-0.28729513
-2.1574914	NG IY1	-0.29445156
-2.0220873	OW2 IY1	-0.28729513
-1.4873823	F IY1	-1.4311275
-2.4626148	IH0 IY1	-1.148581
-2.1946223	AH0 IY1	-1.5750653
-1.3704973	M IY1	-1.6505153
-1.3705671	B IY1	-1.0878236
-1.3019426	P IY1	-1.877582
-1.041324	SH IY1	-1.5840219
-1.3613681	CH IY1	-1.0592029
-2.241889	AA1 IY1	-0.4795742
-1.3880445	JH IY1	-0.45447555
-2.066017	AW1 IY1	-0.29265139
-1.630358	IY2 IY1	-0.28729513
-1.9479513	ER1 IY1	-0.28729513
-1.885916	EY2 IY1	-0.28729513
-1.7537875	UW0 IY1	-0.4777639
-1.6041352	<s> K	-1.9043981
-1.7791865	T K	-1.5793037
-1.4693094	UW1 K	-1.6242265
-1.7898748	D K	-0.9900612
-1.6933168	AO1 K	-1.0779839
-1.8186251	L K	-1.2055258
-1.5829301	ER0 K	-0.9265074
-1.6020765	Z K	-1.1019465
-1.4701309	AH1 K	-1.2968358
-1.7492697	N K	-1.0217247
-2.3357453	G K	-0.51673293
-1.469774	OW1 K	-1.0542603
-1.9140048	R K	-1.1702821
-1.3774141	AY1 K	-1.7227165
-1.5451893	IY1 K	-1.2758334
-1.8632349	K K	-0.65992236
-1.2144827	AE1 K	-1.496966
-1.6375952	V K	-0.7978028
-0.76644796	UH1 K	-1.7559294
-2.3518062	DH K	-0.29265139
-1.3449082	IH1 K	-1.4889581
-1.3980628	S K	-1.5545033
-1.3974555	EY1 K	-1.7015601
-1.2291961	EH1 K	-1.2471895
-1.5238186	IY0 K	-1.5462874
-1.9898896	TH K	-0.2964713
-1.6306256	IH2 K	-0.70033586
-1.3334509	NG K	-1.7253891
-0.37993723	OW2 K	-3.0929465
-2.012111	F K	-0.3976596
-1.1060033	IH0 K	-1.4433348
-1.4134742	AH0 K	-1.5172787
-1.7852714	M K	-0.9231523
-1.2115681	EH2 K	-0.30019677
-2.583144	B K	-0.43395454
-1.7667007	P K	-0.83181155
-2.0883193	SH K	-0.52717745
-1.8273106	CH K	-0.32918647
-1.3467916	AA1 K	-1.5096322
-1.9551884	JH K	-0.3474117
-1.8821009	AW1 K	-0.87978065
-1.6505122	OY1 K	-0.29741362
-1.7032965	IY2 K	-0.35311645
-1.3775079	ER1 K	-1.1435475
-1.75831	AO2 K	-0.28729513
-1.6407928	yyy K	-0.28729513
-1.465793	EY2 K	-0.6586113
-1.4959956	OW0 K	-0.4396835
-0.8333213	EH0 K	-0.847551
-0.9447539	xxx K	-0.29445156
-1.6810172	UW0 K	-0.28729513
-1.3274852	AY2 K	-1.2924875
-1.4481617	AA2 K	-0.7806042
-1.1018889	UH2 K	-0.8041396
-1.0111071	AE2 K	-0.46135503
-1.4571712	UW2 K	-0.28729513
-1.2880455	EY0 K	-0.78613704
-1.1847479	OY2 K	-0.28729513
-0.89525235	AE0 K	-0.37937796
-0.8837398	ER2 K	-0.28729513
-0.977621	<s> Y	-2.756309
-1.679432	T Y	-2.0572672
-1.5240523	UW1 Y	-2.1918194
-1.7250456	D Y	-2.1206033
-2.113064	AO1 Y	-0.37937796
-1.8317417	L Y	-1.5327905
-1.4281703	ER0 Y	-1.9387097
-1.5384231	Z Y	-1.5570787
-1.7340572	AH1 Y	-0.880854
-1.509443	N Y	-1.9617839
-1.8863556	G Y	-0.67284906
-1.478146	OW1 Y	-1.8449562
-1.9839952	R Y	-1.8194767
-1.7481887	AY1 Y	-0.9434364
-2.092669	HH Y	-0.5722573
-1.6615764	IY1 Y	-1.2959534
-1.6108671	K Y	-1.8601699
-2.4983692	AE1 Y	-1.0301654
-1.5649527	V Y	-1.441144
-2.3976252	DH Y	-1.1163253
-1.7698894	S Y	-1.3847674
-1.6213614	EY1 Y	-1.2644861
-1.6175785	IY0 Y	-1.2114947
-2.0324197	TH Y	-1.1383196
-1.6137233	NG Y	-1.2546521
-1.999829	OW2 Y	-0.29265139
-1.6624429	F Y	-1.7448696
-2.4345813	IH0 Y	-1.1029613
-1.6641667	AH0 Y	-1.1414222
-1.5508645	M Y	-1.2166224
-1.7223431	B Y	-0.6502022
-1.7464509	P Y	-1.3055191
-1.8866044	SH Y	-1.1106482
-1.7192932	CH Y	-0.7379405
-1.7694795	AA1 Y	-0.7702155
-1.8823322	JH Y	-0.40374324
-1.6755899	AW1 Y	-1.5667244
-1.692169	OY1 Y	-0.40039295
-1.4666842	IY2 Y	-0.40039295
-1.9277921	ER1 Y	-1.1363052
-1.6386539	EY2 Y	-0.28729513
-1.8028	OW0 Y	-0.29807448
-1.4798409	UW0 Y	-0.29807448
-1.3101994	AW2 Y	-0.28729513
-0.89400166	uhoh Y	-0.28729513
-0.6103674	outof Y	-0.28729513
-1.8588516	<s> AE1	-1.9416072
-1.6197532	T AE1	-1.4588212
-1.7523549	UW1 AE1	-0.9964186
-1.4471331	D AE1	-1.914827
-2.3148959	AO1 AE1	-0.29807448
-1.4285265	L AE1	-1.5320139
-1.6127795	ER0 AE1	-1.0479302
-1.5548998	Z AE1	-1.1574275
-1.9839723	W AE1	-1.0631508
-2.2393713	AH1 AE1	-0.5620667
-1.4961023	N AE1	-1.4527246
-1.3772827	G AE1	-1.052247
-2.1213014	OW1 AE1	-0.8016096
-1.3877604	R AE1	-1.5128754
-1.7156594	AY1 AE1	-0.86128426
-1.1731539	HH AE1	-2.4239638
-1.623233	IY1 AE1	-0.80724275
-1.4232394	K AE1	-2.2485442
-1.0277303	Y AE1	-1.9358513
-2.4983692	AE1 AE1	-1.2065729
-1.4285214	V AE1	-0.85938084
-1.0151659	DH AE1	-3.34103
-1.5067134	S AE1	-1.3872164
-1.8561264	EY1 AE1	-0.95854115
-1.6175785	IY0 AE1	-1.2319328
-1.1194873	TH AE1	-2.2485821
-1.7164875	NG AE1	-1.1093467
-1.999829	OW2 AE1	-0.28729513
-1.4848695	F AE1	-1.1441402
-2.4345813	IH0 AE1	-0.29807448
-1.872389	AH0 AE1	-0.8000308
-1.4076368	M AE1	-1.5580872
-1.3258198	B AE1	-2.0165343
-1.3601586	P AE1	-1.6083417
-1.2832476	SH AE1	-1.5689436
-1.576868	CH AE1	-0.7198996
-2.1002147	AA1 AE1	-0.30584553
-1.1593186	JH AE1	-1.3874439
-1.782015	AW1 AE1	-0.43907297
-1.9046788	OY1 AE1	-0.60451293
-1.7500057	IY2 AE1	-0.30019677
-1.498434	ZH AE1	-0.28729513
-1.9277921	ER1 AE1	-0.29958934
-1.548812	AA0 AE1	-0.28729513
-1.6386539	EY2 AE1	-0.29807448
-1.8028	OW0 AE1	-0.30348292
-2.7775304	<s> V	-1.3497027
-2.0742211	T V	-1.0437644
-1.8493071	UW1 V	-0.9076669
-2.0594673	D V	-0.51558185
-2.052123	L V	-0.47994828
-2.1323586	ER0 V	-0.289965
-1.8640113	Z V	-1.2329018
-1.1894604	AH1 V	-1.1927257
-1.9413548	N V	-0.593047
-1.2622488	OW1 V	-1.8352987
-2.1216283	R V	-0.68357295
-1.4827901	AY1 V	-1.0619941
-1.3409245	IY1 V	-1.0911258
-2.305623	K V	-0.74735475
-2.1863325	AE1 V	-1.5956752
-2.45644	V V	-0.29445156
-2.0034685	IH1 V	-1.3080093
-2.575835	S V	-1.4441477
-1.5532597	EY1 V	-0.8592403
-1.060751	EH1 V	-1.8645133
-2.1898234	IY0 V	-0.6880808
-2.3655932	TH V	-0.28729513
-1.7344073	NG V	-0.7503174
-2.0313203	OW2 V	-0.53086454
-2.491699	F V	-0.29807448
-1.8460559	IH0 V	-0.3869707
-1.3758041	AH0 V	-1.1716822
-2.3288436	M V	-0.54652095
-2.7117164	B V	-0.29807448
-2.5625782	P V	-0.29445156
-2.4636922	SH V	-0.28729513
-2.1228511	AA1 V	-0.28729513
-2.455398	JH V	-0.28729513
-2.2625518	AW1 V	-0.28729513
-1.5633357	ER1 V	-0.29886422
-1.8962795	EY2 V	-0.43395454
-1.8285987	OW0 V	-0.28729513
-1.529936	EH0 V	-0.9780226
-1.661385	AY2 V	-2.1083562
-1.9934281	T UH1	-1.4901313
-3.0787957	D UH1	-0.28729513
-1.483265	L UH1	-3.1241505
-1.2107784	W UH1	-2.2096863
-1.3516845	G UH1	-2.4824598
-2.1042387	R UH1	-0.76131344
-1.7365264	HH UH1	-0.9780226
-1.4849534	K UH1	-2.4357834
-0.96281075	Y UH1	-2.7259336
-1.5467558	F UH1	-1.7011262
-2.7354841	M UH1	-0.30901578
-1.4285512	B UH1	-1.9022903
-1.3842679	P UH1	-2.5477586
-1.1732388	SH UH1	-2.1782475
-1.0802171	<s> DH	-2.7225392
-1.691692	T DH	-2.5165603
-1.5620879	UW1 DH	-1.710698
-1.5850968	D DH	-2.147235
-1.9580528	AO1 DH	-0.38545403
-1.7633418	L DH	-1.6964056
-1.5071869	ER0 DH	-1.8404948
-1.4616619	Z DH	-2.347636
-1.2293296	AH1 DH	-1.9740174
-1.6673734	N DH	-2.4834633
-2.1233156	G DH	-0.2915748
-1.3816403	OW1 DH	-1.7461896
-1.9712563	R DH	-1.7674018
-1.5552282	AY1 DH	-1.1045738
-1.3534971	IY1 DH	-1.5353843
-1.7300315	K DH	-2.085717
-2.1479325	AE1 DH	-0.9990735
-1.6443622	V DH	-1.7685798
-2.243629	DH DH	-1.4192313
-2.4899392	IH1 DH	-1.0413432
-1.6784782	S DH	-2.1434364
-1.6432501	EY1 DH	-1.3302051
-2.1520844	EH1 DH	-2.2066429
-1.5537733	IY0 DH	-1.3413986
-1.6913794	TH DH	-1.3704125
-1.5177962	NG DH	-1.5885794
-1.9664305	OW2 DH	-0.28729513
-2.1008127	F DH	-1.0965915
-2.2086122	IH0 DH	-1.1702943
-1.6593872	AH0 DH	-1.2751576
-1.7297208	M DH	-1.3849304
-2.1365445	B DH	-0.2908586
-1.7400129	P DH	-1.3845627
-1.8722637	SH DH	-1.0273277
-1.5700316	CH DH	-0.9140402
-1.7578657	AA1 DH	-0.7704928
-1.7859796	JH DH	-0.65210694
-1.661852	AW1 DH	-1.0722088
-1.5339881	OY1 DH	-0.42042017
-1.7227031	IY2 DH	-0.3837874
-1.6427215	ER1 DH	-0.5401958
-1.5262592	AA0 DH	-0.28729513
-1.7726998	AO2 DH	-0.28729513
-1.2159735	yyy DH	-0.29034778
-1.6160702	EY2 DH	-0.29265139
-1.650425	OW0 DH	-0.2908586
-1.4298089	xxx DH	-0.28729513
-1.4624424	UW0 DH	-0.6764132
-1.7197515	AA2 DH	-0.7349845
-1.552473	AH2 DH	-0.28729513
-1.2954068	AW2 DH	-0.28729513
-1.10554	uhhuh DH	-0.28729513
-0.6072902	outof DH	-0.28729513
-0.31673032	lookee DH	-0.28729513
-1.646085	<s> IH1	-2.3759756
-1.552553	T IH1	-2.1209626
-1.5171316	UW1 IH1	-1.8027061
-1.3993293	D IH1	-2.0308251
-2.0900779	AO1 IH1	-0.5087261
-1.3650934	L IH1	-1.9731013
-1.4899365	ER0 IH1	-1.3477961
-1.5046988	Z IH1	-1.9091331
-1.1413491	W IH1	-1.9985771
-1.9869635	AH1 IH1	-0.5186758
-1.5345589	N IH1	-1.7854943
-1.1594982	G IH1	-2.0742533
-1.663126	OW1 IH1	-1.8278397
-1.3342837	R IH1	-1.8472475
-1.9018621	AY1 IH1	-1.1176418
-1.2092911	HH IH1	-1.8487003
-1.6550196	IY1 IH1	-1.7861371
-1.4702418	K IH1	-1.8198856
-1.4824182	Y IH1	-1.3232563
-2.4615417	AE1 IH1	-0.9110758
-1.257403	V IH1	-1.4937712
-1.0571032	DH IH1	-2.8604212
-1.4432768	S IH1	-2.1160235
-1.849327	EY1 IH1	-1.1889977
-1.5544447	IY0 IH1	-1.4614408
-0.9011916	TH IH1	-2.527615
-1.5193862	NG IH1	-1.6149664
-1.9704676	OW2 IH1	-0.28729513
-1.2475193	F IH1	-1.9576894
-2.3981462	IH0 IH1	-0.6769926
-1.9118665	AH0 IH1	-0.6885454
-1.3423635	M IH1	-1.8172413
-1.3519061	B IH1	-1.991201
-1.4266269	P IH1	-1.5997921
-1.4471934	SH IH1	-0.96589744
-1.1468782	CH IH1	-1.4293842
-2.1924207	AA1 IH1	-0.29807448
-1.4439889	JH IH1	-0.6898577
-1.9022076	AW1 IH1	-1.0749326
-1.5361632	OY1 IH1	-0.60451293
-1.599398	IY2 IH1	-0.5087261
-1.4816521	ZH IH1	-0.43395454
-1.7828951	ER1 IH1	-0.5539841
-1.660309	yyy IH1	-0.28729513
-1.6188297	EY2 IH1	-0.29589707
-1.6529516	OW0 IH1	-0.29445156
-1.4318689	xxx IH1	-0.28729513
-1.7229666	AA2 IH1	-0.28729513
-1.1950092	OY2 IH1	-0.28729513
-0.77015114	dollies IH1	-0.29807448
-1.0519421	byebye IH1	-0.28729513
-1.1675599	chickie IH1	-0.28729513
-0.60767365	sothat IH1	-0.28729513
-1.5676482	<s> S	-1.8723199
-1.6146777	T S	-2.2451673
-1.47107	UW1 S	-1.536681
-1.6749868	D S	-1.3074882
-1.6092982	AO1 S	-0.9485749
-1.7892411	L S	-1.1287062
-1.4091316	ER0 S	-1.1545941
-1.5337647	Z S	-1.3097582
-1.2438174	AH1 S	-1.4383465
-1.6105739	N S	-1.334526
-1.937292	G S	-0.4498354
-1.5866257	OW1 S	-0.97569
-1.7976695	R S	-1.2960687
-1.3639338	AY1 S	-1.352229
-1.489091	IY1 S	-1.4577746
-1.523794	K S	-1.5767064
-1.1411891	AE1 S	-1.2216915
-1.5946583	V S	-1.1959246
-1.696598	UH1 S	-1.4946524
-2.3580632	DH S	-0.45111
-1.4874299	IH1 S	-1.7437606
-1.7620621	S S	-1.4445932
-1.3539742	EY1 S	-1.2832012
-0.9792415	EH1 S	-1.5411823
-1.4772816	IY0 S	-1.3637081
-1.558415	TH S	-0.5822532
-1.6336199	IH2 S	-0.9932625
-1.6873901	NG S	-0.7491952
-1.5862794	OW2 S	-1.6257023
-1.7978154	F S	-0.5886772
-1.3465188	IH0 S	-1.7519593
-1.3842012	AH0 S	-1.5227517
-1.7870834	M S	-0.985759
-1.0879424	EH2 S	-0.7220065
-2.1290295	B S	-0.33827278
-1.6539134	P S	-1.1208154
-2.0941582	SH S	-0.28729513
-1.7051779	CH S	-0.298051
-1.3781674	AA1 S	-1.1100365
-2.0879931	JH S	-0.29445156
-1.5733125	AW1 S	-1.1453869
-1.3765256	OY1 S	-0.42295843
-1.5871223	IY2 S	-0.64069766
-1.1392024	ER1 S	-1.27959
-1.0763078	AA0 S	-0.30348292
-1.7630538	AO2 S	-0.30167264
-1.6462799	yyy S	-0.28729513
-1.2042657	EY2 S	-0.65154326
-1.6404626	OW0 S	-0.51886475
-1.0155783	EH0 S	-0.28729513
-1.6881278	UW0 S	-0.28729513
-1.6103014	AY2 S	-1.2121058
-1.7071245	AA2 S	-0.43395454
-1.3046601	AE2 S	-0.28729513
-1.2881954	AW2 S	-0.52352136
-1.1009623	uhhuh S	-0.28729513
-1.1938796	ll S	-0.28729513
-0.885191	ER2 S	-0.28729513
-2.2327034	<s> EY1	-1.1632732
-1.5439768	T EY1	-1.7772946
-1.9418356	UW1 EY1	-0.6061821
-1.4856553	D EY1	-1.1370038
-1.9823177	AO1 EY1	-0.4029788
-1.4292789	L EY1	-1.53413
-1.570068	ER0 EY1	-0.7778644
-1.6288347	Z EY1	-1.1573454
-1.1919732	W EY1	-1.4724389
-1.8498646	AH1 EY1	-0.43361634
-1.5529653	N EY1	-1.2113953
-1.3781339	G EY1	-1.5819874
-2.024711	OW1 EY1	-0.31921443
-1.3752506	R EY1	-1.4000406
-1.7171696	AY1 EY1	-0.6228981
-1.4946682	HH EY1	-0.9659028
-1.8646983	IY1 EY1	-0.81993985
-1.460628	K EY1	-1.951749
-2.158749	Y EY1	-0.42419097
-2.5094917	AE1 EY1	-0.28729513
-1.5668503	V EY1	-0.8892667
-1.1600841	DH EY1	-1.3473055
-1.5488888	S EY1	-1.4628572
-1.8155569	EY1 EY1	-0.29588082
-1.6868945	IY0 EY1	-0.61552614
-2.1603858	TH EY1	-0.2980471
-1.7215325	NG EY1	-0.71640104
-1.5297567	F EY1	-1.1587024
-2.4455783	IH0 EY1	-0.28729513
-1.9745035	AH0 EY1	-0.301238
-1.382051	M EY1	-1.6418071
-1.4009724	B EY1	-1.890626
-1.4454305	P EY1	-1.243545
-1.3892589	SH EY1	-0.8527291
-1.1651771	CH EY1	-1.295832
-1.8580348	AA1 EY1	-0.2915748
-1.7300681	JH EY1	-0.46573088
-2.0533428	AW1 EY1	-0.28729513
-1.9149883	OY1 EY1	-0.28729513
-1.6224086	IY2 EY1	-0.39768028
-1.9357438	ER1 EY1	-0.29958934
-1.6867632	yyy EY1	-0.28729513
-2.0073156	OW0 EY1	-0.28729513
-1.4843016	UW0 EY1	-0.28729513
-2.353517	<s> EH1	-1.3001261
-1.5547453	T EH1	-1.976663
-1.7506723	UW1 EH1	-0.9287293
-1.6052148	D EH1	-0.9490065
-2.109705	AO1 EH1	-0.30348292
-1.3448247	L EH1	-2.0107384
-1.612216	ER0 EH1	-1.2069929
-1.6477071	Z EH1	-0.956758
-1.1423085	W EH1	-2.55141
-2.101181	AH1 EH1	-1.0670803
-1.4827973	N EH1	-1.4243913
-1.2408335	G EH1	-2.153888
-1.8092636	OW1 EH1	-0.67067504
-1.2909138	R EH1	-1.7801912
-1.8625239	AY1 EH1	-0.5266533
-1.2512373	HH EH1	-2.189353
-1.749054	IY1 EH1	-0.947674
-1.4995527	K EH1	-1.5051163
-0.9988072	Y EH1	-2.2824829
-1.1247765	V EH1	-1.7336484
-0.9950092	DH EH1	-2.9571183
-1.4451424	S EH1	-1.7161037
-1.5279639	EY1 EH1	-0.9700985
-2.3048284	EH1 EH1	-1.1931412
-1.616802	IY0 EH1	-1.2599794
-2.0292397	TH EH1	-0.35463545
-1.5290507	NG EH1	-1.1369741
-1.343513	F EH1	-1.3560221
-2.4291852	IH0 EH1	-0.29445156
-1.7551751	AH0 EH1	-1.08217
-1.4651248	M EH1	-1.5375535
-1.2990028	B EH1	-1.8773096
-1.3999742	P EH1	-1.6004748
-1.2385921	SH EH1	-1.3034829
-1.1195962	CH EH1	-1.7098125
-2.216451	AA1 EH1	-0.28729513
-1.0370643	JH EH1	-1.8181379
-2.0410283	AW1 EH1	-0.42661136
-1.8996145	OY1 EH1	-0.29807448
-1.9400388	IY2 EH1	-1.0360146
-2.1003547	ER1 EH1	-0.28729513
-1.6357658	EY2 EH1	-0.30348292
-1.6684284	OW0 EH1	-0.53086454
-1.729464	UW0 EH1	-0.30901578
-1.488992	UW2 EH1	-1.6769925
-1.3083225	AW2 EH1	-0.43395454
-0.31810677	krissy EH1	-0.29807448
-4.6471047	<s> IY0	-0.29807448
-1.8429286	T IY0	-1.2834697
-1.9828304	UW1 IY0	-0.3686194
-1.7354566	D IY0	-1.4376147
-1.5400121	L IY0	-1.2183657
-2.0784035	ER0 IY0	-0.8316889
-1.908712	Z IY0	-0.8581084
-2.775659	W IY0	-1.087167
-1.8229612	N IY0	-1.5509806
-2.1869924	G IY0	-0.71388257
-2.4505558	OW1 IY0	-0.40873381
-1.3681493	R IY0	-1.5100647
-2.634619	IY1 IY0	-0.28729513
-1.8926268	K IY0	-1.2584692
-1.7912736	V IY0	-0.8944706
-1.0842842	DH IY0	-1.8669686
-1.893621	S IY0	-1.0940878
-2.4966264	IY0 IY0	-0.29445156
-1.9344195	TH IY0	-0.3978474
-2.2497017	NG IY0	-0.28729513
-2.266481	F IY0	-0.8832033
-1.9327621	M IY0	-1.3658068
-1.4586774	B IY0	-1.4320178
-1.760457	P IY0	-0.8757043
-1.7534044	SH IY0	-0.44042718
-2.2330856	CH IY0	-0.29342198
-2.1842868	JH IY0	-0.48413458
-2.3357985	AW1 IY0	-0.28729513
-1.856528	ER1 IY0	-0.74172854
-2.1164744	<s> TH	-1.8600702
-1.9082743	T TH	-1.6286227
-1.8430301	UW1 TH	-1.659671
-1.9671737	D TH	-0.88016737
-2.1267667	AO1 TH	-0.30348292
-2.0474088	L TH	-1.0741761
-1.8175884	ER0 TH	-0.8153663
-1.8615403	Z TH	-1.2236842
-2.2530935	AH1 TH	-1.3070871
-1.9762238	N TH	-0.8300471
-2.4115403	G TH	-0.8318945
-1.7629701	OW1 TH	-0.9744408
-2.1150231	R TH	-0.7930747
-1.3836862	AY1 TH	-2.1911855
-1.707815	IY1 TH	-0.7405496
-2.1505299	K TH	-0.60451293
-2.0242674	AE1 TH	-0.94727004
-1.9238272	V TH	-0.7576263
-2.312208	IH1 TH	-1.0280553
-1.9880062	S TH	-1.0166935
-1.8173438	EY1 TH	-0.90167046
-2.1805868	EH1 TH	-0.29445156
-1.6887218	IY0 TH	-1.505057
-2.3454473	TH TH	-0.28729513
-1.8652674	NG TH	-0.89452624
-2.3629785	F TH	-0.29265139
-2.1108322	IH0 TH	-1.0202017
-1.9769654	AH0 TH	-0.6488651
-2.014294	M TH	-1.8284062
-1.876037	EH2 TH	-0.28729513
-2.436992	P TH	-0.43395454
-2.4435198	SH TH	-0.28729513
-2.4727094	CH TH	-0.29807448
-1.9693965	AA1 TH	-0.8586875
-2.4350624	JH TH	-0.28729513
-1.9358141	AW1 TH	-0.6793983
-1.9255486	OY1 TH	-0.28729513
-1.764329	IY2 TH	-0.29265139
-1.5582589	ER1 TH	-0.63376427
-1.802994	AO2 TH	-0.28729513
-2.01893	OW0 TH	-0.43395454
-1.4119291	AE0 TH	-0.28729513
-3.7709615	<s> IH2	-0.66486746
-2.2252486	T IH2	-0.6290135
-2.121988	UW1 IH2	-0.6769926
-1.8387843	D IH2	-0.8219156
-2.397399	AO1 IH2	-0.28729513
-2.5219812	L IH2	-0.30901578
-2.145616	ER0 IH2	-0.60451293
-2.153086	Z IH2	-0.7428156
-2.614818	AH1 IH2	-0.29807448
-2.1311817	N IH2	-0.9055429
-2.3063152	OW1 IH2	-0.54652095
-2.3242786	R IH2	-0.43395454
-2.5821939	AY1 IH2	-0.30348292
-2.1120393	HH IH2	-0.6100458
-2.424976	IY1 IH2	-0.28729513
-2.6860344	K IH2	-0.6769926
-2.34332	Y IH2	-0.30901578
-2.582967	AE1 IH2	-0.28729513
-2.3278966	V IH2	-1.2065729
-2.0419533	S IH2	-0.60833585
-2.7759433	EY1 IH2	-0.29807448
-2.2106316	IY0 IH2	-0.7428156
-2.2151165	TH IH2	-2.0593576
-2.0331154	NG IH2	-0.6100458
-2.4025793	F IH2	-0.30019677
-2.5181425	IH0 IH2	-0.28729513
-2.4727051	AH0 IH2	-0.4795742
-2.4908133	M IH2	-0.65566546
-2.7759676	P IH2	-1.1106482
-2.3136096	SH IH2	-0.29807448
-2.312499	AW1 IH2	-0.28729513
-1.1914464	chickie IH2	-0.30901578
-1.7597194	AO1 NG	-0.97763264
-1.4194641	AH1 NG	-1.2738938
-2.8286674	OW1 NG	-1.0079858
-2.9773207	AY1 NG	-0.90887344
-1.2284117	AE1 NG	-1.6186509
-1.3017066	IH1 NG	-1.8065681
-2.4375749	EH1 NG	-0.29807448
-2.0552862	IH2 NG	-0.7751008
-1.0026486	IH0 NG	-1.9488683
-2.2232358	AA1 NG	-0.6458244
-1.1730456	AE2 NG	-1.3034829
-1.4753765	AE0 NG	-0.9780226
-1.4347048	<s> OW2	-3.3680742
-1.8358738	T OW2	-1.2036979
-1.8493071	UW1 OW2	-1.3090158
-1.8964521	D OW2	-0.881343
-2.0001547	L OW2	-1.1328453
-1.948889	ER0 OW2	-1.3546355
-1.8004613	Z OW2	-1.4551438
-2.2636771	AH1 OW2	-0.43395454
-1.8434045	N OW2	-1.4795742
-2.4255662	G OW2	-0.43395454
-1.7664742	OW1 OW2	-1.9110758
-1.9438941	R OW2	-1.1102774
-2.4277797	AY1 OW2	-0.30901578
-2.7330158	HH OW2	-0.28729513
-2.270012	IY1 OW2	-0.8732872
-1.9563478	K OW2	-0.919578
-2.5386117	AE1 OW2	-0.8318945
-2.2911055	V OW2	-0.29807448
-1.826238	S OW2	-1.5357252
-2.2883155	EY1 OW2	-1.6952174
-1.7727348	IY0 OW2	-0.9801765
-2.0553558	TH OW2	-0.43395454
-1.998166	NG OW2	-0.9780226
-1.918247	F OW2	-1.6769925
-2.1987169	AH0 OW2	-0.6100458
-1.9202462	M OW2	-1.498174
-2.7117164	B OW2	-0.30019677
-2.1300852	P OW2	-0.9318719
-2.2807806	SH OW2	-0.29807448
-2.0534837	CH OW2	-0.8318945
-2.2507107	AA1 OW2	-0.30901578
-2.1486187	JH OW2	-0.29445156
-1.9454496	AW1 OW2	-1.1743172
-1.7145983	OY1 OW2	-0.29807448
-1.5158904	ZH OW2	-0.28729513
-2.1499786	ER1 OW2	-0.28729513
-2.036956	OW0 OW2	-0.28729513
-1.7706699	AA2 OW2	-0.28729513
-0.613078	mm OW2	-0.28729513
-2.1175237	<s> F	-1.4038981
-1.677484	T F	-1.4619181
-1.6773806	UW1 F	-1.1896986
-1.7226317	D F	-0.97196305
-0.93017906	AO1 F	-1.2699771
-1.7128584	L F	-1.0885719
-1.5467868	ER0 F	-0.82145745
-1.5368648	Z F	-1.088723
-1.6025909	AH1 F	-0.96060395
-1.7327354	N F	-1.270243
-1.9498208	G F	-0.6504965
-1.8640133	OW1 F	-0.7533383
-1.977579	R F	-1.2247002
-1.5360795	AY1 F	-0.91371155
-1.6578176	IY1 F	-0.9812517
-1.783381	K F	-1.0682658
-1.1786519	AE1 F	-1.5575342
-1.8266797	V F	-0.6798482
-1.7169344	UH1 F	-0.5383517
-2.3840334	DH F	-0.29445156
-0.9936476	IH1 F	-1.5631758
-1.7217832	S F	-1.1905248
-1.5479308	EY1 F	-1.019156
-1.4846767	EH1 F	-1.1274278
-1.530127	IY0 F	-1.1540282
-1.8839811	TH F	-0.36573094
-1.6058768	NG F	-0.96188724
-1.9828088	OW2 F	-0.28729513
-2.333708	F F	-0.44524378
-1.8309188	IH0 F	-0.99408126
-1.5222753	AH0 F	-1.4269536
-1.8660682	M F	-1.0090618
-1.8475114	P F	-0.7426947
-2.1183321	SH F	-0.28729513
-1.84292	CH F	-0.4057937
-1.7636338	AA1 F	-1.0728066
-1.7919635	JH F	-0.53992873
-1.9111181	AW1 F	-0.33609927
-1.6798538	OY1 F	-0.34986407
-1.6069336	IY2 F	-1.1273372
-1.7914448	ER1 F	-0.48000586
-1.7825649	AO2 F	-0.28729513
-1.8421167	EY2 F	-0.28729513
-1.4046117	OW0 F	-0.3247701
-1.7177948	UW0 F	-0.28729513
-0.84244156	AE2 F	-1.002453
-1.4814391	UW2 F	-0.28729513
-1.0548103	byebye F	-0.28729513
-1.2049916	ll F	-0.29807448
-0.6088261	lotsof F	-0.28729513
-1.6767831	<s> IH0	-2.2787108
-1.4776343	T IH0	-1.921336
-1.5686643	UW1 IH0	-2.0005212
-1.4230263	D IH0	-1.9973258
-2.1063714	AO1 IH0	-0.7069558
-1.6442002	L IH0	-1.3398118
-1.5283887	ER0 IH0	-1.2924365
-1.5376432	Z IH0	-2.0112822
-1.1784488	W IH0	-2.1878715
-2.0987315	AH1 IH0	-0.46135503
-1.582177	N IH0	-1.9689964
-1.2405231	G IH0	-1.9673452
-1.7560455	OW1 IH0	-2.1126347
-1.3607763	R IH0	-1.7618153
-1.9076875	AY1 IH0	-1.6466808
-1.3465056	HH IH0	-1.6937436
-1.7015613	IY1 IH0	-1.4184989
-1.6675417	K IH0	-2.182391
-2.4875247	AE1 IH0	-0.89452624
-1.489806	V IH0	-1.8114083
-1.0252402	DH IH0	-2.7099147
-1.5929693	S IH0	-1.9385061
-1.773571	EY1 IH0	-1.6143671
-1.4829447	IY0 IH0	-1.3407722
-1.5161314	TH IH0	-1.9358248
-1.6097823	NG IH0	-1.5890374
-1.9912356	OW2 IH0	-0.28729513
-1.7664737	F IH0	-1.0158633
-2.4238555	IH0 IH0	-0.580313
-2.0292335	AH0 IH0	-0.5762811
-1.6324196	M IH0	-1.620265
-1.2987273	B IH0	-1.7504234
-1.7448324	P IH0	-1.5838103
-1.6681179	SH IH0	-1.1947316
-1.4684503	CH IH0	-1.368453
-1.8508778	AA1 IH0	-0.29807448
-1.0502849	JH IH0	-1.8601421
-1.9171618	AW1 IH0	-1.147165
-1.6859677	OY1 IH0	-0.6100458
-1.7430174	IY2 IH0	-0.45073414
-1.54828	ER1 IH0	-0.58383024
-1.6748064	yyy IH0	-0.28729513
-1.6328969	EY2 IH0	-0.40039295
-1.6658103	OW0 IH0	-0.6696494
-1.7255393	UW0 IH0	-0.43395454
-0.77268493	dollies IH0	-0.30901578
-1.056733	byebye IH0	-0.28729513
-1.1731291	chickie IH0	-0.28729513
-1.402623	<s> AH0	-2.005293
-1.4659044	T AH0	-2.0258532
-1.6134638	UW1 AH0	-0.8824854
-1.5531228	D AH0	-1.517842
-2.0868912	AO1 AH0	-0.33880478
-1.438773	L AH0	-1.4571606
-1.5071869	ER0 AH0	-1.1383944
-1.5043378	Z AH0	-1.7208169
-1.3630736	W AH0	-1.7714138
-1.985079	AH1 AH0	-0.4057365
-1.5200423	N AH0	-1.9508586
-1.5411568	G AH0	-1.2393636
-1.7035397	OW1 AH0	-1.2863195
-1.3844972	R AH0	-1.4801018
-1.7417375	AY1 AH0	-0.979811
-1.2948611	HH AH0	-2.7378254
-1.4916362	IY1 AH0	-0.98107725
-1.3978916	K AH0	-1.9514121
-1.7725813	Y AH0	-0.8057579
-2.4565265	AE1 AH0	-1.0286529
-1.3687569	V AH0	-1.2652172
-0.99405414	DH AH0	-2.1505697
-1.4317509	S AH0	-1.634668
-1.8067304	EY1 AH0	-0.8048155
-1.502901	IY0 AH0	-1.126298
-1.4635966	TH AH0	-0.5054046
-1.5177962	NG AH0	-1.0192269
-1.7396152	OW2 AH0	-0.28729513
-1.4808788	F AH0	-1.2791063
-2.393182	IH0 AH0	-0.29507834
-1.8230143	AH0 AH0	-0.5346817
-1.3420376	M AH0	-1.5048684
-1.4310461	B AH0	-1.8007519
-1.4115936	P AH0	-2.011397
-1.3284657	SH AH0	-1.1558974
-1.6118232	CH AH0	-1.0496422
-1.9422835	AA1 AH0	-0.29445156
-1.3254346	JH AH0	-1.2325073
-1.661852	AW1 AH0	-1.2502674
-1.6678782	OY1 AH0	-0.40039295
-1.4522507	IY2 AH0	-0.44632477
-0.7050817	ZH AH0	-1.2355869
-1.5385253	ER1 AH0	-0.6131975
-1.5262592	AA0 AH0	-0.28729513
-1.7726998	AO2 AH0	-0.28729513
-1.6574668	yyy AH0	-0.28729513
-1.8239838	EY2 AH0	-0.29807448
-1.454938	AY0 AH0	-0.30901578
-1.5067197	OW0 AH0	-0.49353972
-1.4298089	xxx AH0	-0.28729513
-1.1446955	UW0 AH0	-0.29958934
-1.6205678	AY2 AH0	-0.28729513
-1.180498	UW2 AH0	-0.7806042
-1.552473	AH2 AH0	-0.28729513
-1.6295196	<s> M	-1.9573398
-1.6901883	T M	-1.8260169
-1.4719532	UW1 M	-1.2655346
-1.7660629	D M	-1.2251214
-1.95103	AO1 M	-0.30167264
-1.7901044	L M	-1.3002303
-1.5058624	ER0 M	-1.1122519
-1.5850501	Z M	-1.326643
-1.1568882	AH1 M	-1.9401536
-1.6855793	N M	-1.4218214
-2.0185537	G M	-0.29265139
-1.6219306	OW1 M	-1.2663724
-1.8745893	R M	-1.2600968
-1.3372201	AY1 M	-1.3782521
-1.6513169	IY1 M	-1.025587
-1.8054496	K M	-1.15712
-1.2153403	AE1 M	-0.9918074
-1.6409655	V M	-1.3845043
-1.6990886	UH1 M	-0.9110758
-2.3612258	DH M	-0.88684154
-1.4477756	IH1 M	-0.98798084
-1.5583472	S M	-1.6680883
-1.3542824	EY1 M	-1.2423259
-1.102392	EH1 M	-1.3467891
-1.6091124	IY0 M	-1.5095106
-1.8683912	TH M	-0.67778814
-0.73572564	IH2 M	-0.62408745
-1.5130607	NG M	-0.88667166
-1.7325227	OW2 M	-0.5043167
-2.4085581	F M	-0.33643472
-1.1067684	IH0 M	-0.99686694
-1.3175551	AH0 M	-2.036761
-1.8985882	M M	-1.5389633
-1.8348707	EH2 M	-0.28729513
-2.4590487	B M	-0.29807448
-1.8404076	P M	-1.1095508
-1.7857854	SH M	-0.37355182
-1.7063367	CH M	-0.73252296
-1.6849207	AA1 M	-1.5864507
-1.9618193	JH M	-0.46380746
-1.7581613	AW1 M	-1.3602673
-1.6591084	OY1 M	-0.29445156
-1.7128915	IY2 M	-0.28729513
-1.3207693	ER1 M	-0.49592602
-1.2426665	AA0 M	-0.29807448
-1.6490498	yyy M	-0.28729513
-1.6078951	EY2 M	-0.28729513
-1.3947122	OW0 M	-0.2908586
-1.7479239	AO0 M	-0.29807448
-1.4910173	EH0 M	-0.28729513
-1.3058772	UW0 M	-0.9011866
-1.6128453	AY2 M	-0.48729816
-1.7102469	AA2 M	-0.28729513
-1.1051632	UH2 M	-0.6100458
-1.7223233	AE2 M	-0.28729513
-1.4643103	UW2 M	-0.89324987
-1.3833736	AE0 M	-0.28729513
-4.155432	<s> EH2	-0.6769926
-2.0940506	T EH2	-1.0749326
-2.5205033	UW1 EH2	-0.43395454
-2.3636887	D EH2	-0.29589707
-2.5661001	L EH2	-0.29265139
-2.7448807	Z EH2	-0.29807448
-2.1057813	W EH2	-1.2577255
-2.6937146	AH1 EH2	-0.28729513
-2.371551	N EH2	-0.52352136
-1.8758506	R EH2	-0.7635044
-2.8473883	AY1 EH2	-0.28729513
-2.3482723	K EH2	-0.7806042
-2.2392607	V EH2	-0.30348292
-2.6490328	S EH2	-0.3837874
-2.2389388	IY0 EH2	-0.44632477
-2.4924061	TH EH2	-0.28729513
-2.0826256	NG EH2	-0.30901578
-2.8742235	AH0 EH2	-0.29807448
-2.2704563	M EH2	-0.7617775
-2.1077638	B EH2	-1.0931574
-2.3659825	P EH2	-0.777318
-2.625423	CH EH2	-0.28729513
-2.354666	JH EH2	-0.43395454
-1.643625	<s> B	-1.8166263
-1.6760286	T B	-1.5741103
-1.61469	UW1 B	-1.2411102
-1.7441206	D B	-1.2124404
-2.0900779	AO1 B	-1.0798239
-1.7641551	L B	-1.4231324
-1.5866306	ER0 B	-1.0372186
-1.6052513	Z B	-1.125616
-1.6002591	AH1 B	-1.3062754
-1.6878933	N B	-1.0579739
-1.9450799	G B	-0.7193956
-1.5905187	OW1 B	-0.9902838
-1.9728284	R B	-1.1270473
-1.5345865	AY1 B	-1.108945
-1.6550196	IY1 B	-1.002745
-1.7307066	K B	-0.7607205
-1.5276535	AE1 B	-0.96570075
-1.6455003	V B	-0.7387151
-2.3741117	DH B	-0.29708347
-2.1407738	IH1 B	-0.45564127
-1.7420727	S B	-1.302807
-1.3026781	EY1 B	-1.7747679
-2.1543894	EH1 B	-0.7428156
-1.5282248	IY0 B	-1.4509513
-1.877231	TH B	-0.29925224
-1.5193862	NG B	-0.82509816
-1.7420053	OW2 B	-0.29807448
-2.0240855	F B	-0.29939964
-2.2118514	IH0 B	-0.8966913
-1.28283	AH0 B	-1.7052965
-1.7600074	M B	-1.4456298
-2.3671203	B B	-0.6659965
-1.8853352	P B	-0.5852564
-1.9758544	SH B	-0.29265139
-1.7699523	CH B	-0.5465349
-1.4139299	AA1 B	-0.92209643
-2.2147403	JH B	-0.42659295
-1.7666845	AW1 B	-0.9184621
-1.5361632	OY1 B	-0.82698536
-1.4540288	IY2 B	-0.3346044
-1.7828951	ER1 B	-0.38385937
-1.5290151	AA0 B	-0.29807448
-1.3830392	yyy B	-0.3519228
-1.8284465	EY2 B	-0.28729513
-1.6529516	OW0 B	-0.3387897
-1.4645795	UW0 B	-0.28729513
-1.471635	AE2 B	-0.30901578
-1.5540894	AH2 B	-0.28729513
-1.1950092	OY2 B	-0.78613704
-1.2972286	AW2 B	-0.29807448
-1.1066921	uhhuh B	-0.28729513
-0.8709349	ll B	-0.30167264
-0.60767365	alotof B	-0.28729513
-1.7354505	<s> P	-1.787638
-1.7618698	T P	-1.4219886
-1.1719666	UW1 P	-1.4793099
-1.7667284	D P	-1.1413177
-1.8074827	AO1 P	-0.71825254
-1.7617197	L P	-1.2731128
-1.6071771	ER0 P	-1.0089605
-1.56783	Z P	-1.1216767
-1.1571677	AH1 P	-1.5498699
-1.6861566	N P	-1.2387714
-2.020419	G P	-0.6150151
-1.2718089	OW1 P	-1.3645002
-1.9195416	R P	-1.3139293
-1.5129867	AY1 P	-1.2134537
-1.5182658	IY1 P	-1.3670074
-1.8062528	K P	-0.69985867
-1.2579343	AE1 P	-1.4641191
-1.7502314	V P	-0.7576208
-2.3644116	DH P	-0.3519228
-1.4882993	IH1 P	-0.8633023
-1.5163877	S P	-1.5217571
-1.368839	EY1 P	-1.3722553
-1.7301508	EH1 P	-1.126309
-1.5802053	IY0 P	-1.1828316
-1.8705842	TH P	-0.38397723
-1.472506	IH2 P	-0.4445572
-1.5943668	NG P	-0.61765796
-1.5896415	OW2 P	-0.64046425
-2.096693	F P	-0.44178563
-1.9313192	IH0 P	-1.0269263
-1.3055811	AH0 P	-1.6614481
-1.7281325	M P	-1.1121222
-1.837497	EH2 P	-0.29445156
-1.8819993	P P	-0.49684525
-2.3600879	SH P	-0.29801974
-2.0116854	CH P	-0.3388198
-1.2940384	AA1 P	-1.0801663
-2.2029397	JH P	-0.2915748
-1.7602766	AW1 P	-1.002453
-1.6620121	OY1 P	-0.3837874
-1.4487162	IY2 P	-0.4607475
-1.6386534	ER1 P	-0.4880791
-1.5207994	AA0 P	-0.28729513
-1.4736483	EY2 P	-0.40039295
-1.7684159	OW0 P	-0.29445156
-1.4930904	EH0 P	-0.28729513
-1.425718	xxx P	-0.28729513
-1.4581996	UW0 P	-0.28729513
-1.6154042	AY2 P	-0.28729513
-1.0027629	AA2 P	-0.49205983
-1.3070496	AE2 P	-0.6006193
-1.5492579	AH2 P	-0.30348292
-1.0490928	nightnight P	-0.30901578
-0.89324677	UH0 P	-0.28729513
-0.8689835	ll P	-0.29807448
-0.6065243	lotsof P	-0.28729513
-1.9729149	<s> SH	-1.7747054
-1.9041601	T SH	-1.34216
-1.8327659	UW1 SH	-1.0684937
-1.8571253	D SH	-1.3712227
-2.0969222	L SH	-0.9801904
-1.6607835	ER0 SH	-0.61396325
-1.6477071	Z SH	-1.4016947
-1.3579065	AH1 SH	-0.8202135
-1.9331156	N SH	-0.9969947
-2.5470552	G SH	-0.28729513
-1.6687083	OW1 SH	-0.9964635
-2.0390482	R SH	-0.9726877
-1.6299298	AY1 SH	-0.9391672
-1.8602018	IY1 SH	-1.0244517
-2.0337598	K SH	-1.2238863
-1.6237609	AE1 SH	-0.9637018
-1.9131435	V SH	-0.39768028
-1.2561893	UH1 SH	-1.0535399
-2.5906901	DH SH	-0.28729513
-1.5368725	IH1 SH	-1.032998
-1.8781474	S SH	-1.0703217
-1.5956594	EY1 SH	-0.873479
-2.1684825	EH1 SH	-0.9178085
-1.7222238	IY0 SH	-0.78724325
-1.8908378	TH SH	-0.28729513
-1.7139869	NG SH	-0.580313
-1.995511	OW2 SH	-0.28729513
-2.3444545	F SH	-1.0631508
-1.9469339	IH0 SH	-1.2064003
-1.829119	AH0 SH	-1.2770708
-2.0641956	M SH	-0.9358643
-1.989272	P SH	-0.37504563
-2.4400837	CH SH	-0.29445156
-1.8526559	AA1 SH	-0.5823997
-2.4031522	JH SH	-0.28729513
-2.0410283	AW1 SH	-0.658437
-1.8996145	OY1 SH	-0.28729513
-1.6146021	IY2 SH	-0.29265139
-1.9238702	ER1 SH	-0.3027299
-1.7901137	AO2 SH	-0.28729513
-1.6357658	EY2 SH	-0.29445156
-1.9904561	OW0 SH	-0.29807448
-1.7427728	AA2 SH	-0.28729513
-1.4822645	AE2 SH	-0.83167565
-1.204002	OY2 SH	-0.28729513
-1.4022006	AE0 SH	-0.8732872
-1.2092329	ll SH	-0.28729513
-2.684836	<s> CH	-1.1159732
-1.8812195	T CH	-1.0079178
-1.8409578	UW1 CH	-0.7157944
-2.1061134	D CH	-0.56856084
-2.3313034	AO1 CH	-0.71187645
-1.9945834	L CH	-0.5626259
-1.8551279	ER0 CH	-0.930334
-1.8960801	Z CH	-0.6947344
-1.8512441	AH1 CH	-0.9801437
-1.9750986	N CH	-0.92885894
-2.572954	G CH	-0.30348292
-1.9439743	OW1 CH	-0.39858264
-2.0464482	R CH	-0.9144542
-2.2792702	AY1 CH	-0.5895207
-1.4987135	IY1 CH	-0.6752993
-2.148757	K CH	-1.258832
-1.5776429	AE1 CH	-0.77447623
-2.157928	V CH	-0.44524378
-1.7355452	UH1 CH	-0.29801974
-1.6453297	IH1 CH	-1.1000311
-1.9488801	S CH	-0.7455019
-1.5298072	EY1 CH	-0.739166
-2.0218709	EH1 CH	-0.81621915
-1.867219	IY0 CH	-0.9545074
-2.3389344	TH CH	-0.28729513
-1.9470122	IH2 CH	-0.28729513
-2.143861	NG CH	-0.52352136
-1.7666594	OW2 CH	-0.28729513
-2.2259967	F CH	-0.29445156
-2.1082633	IH0 CH	-0.83813334
-1.6659726	AH0 CH	-1.0368835
-2.218434	M CH	-0.77432275
-2.4330342	P CH	-0.28729513
-2.465985	CH CH	-0.29807448
-1.8598427	AA1 CH	-0.7872151
-2.42849	JH CH	-0.53086454
-1.5945001	AW1 CH	-0.7248622
-1.96243	IY2 CH	-0.28729513
-1.6658034	ER1 CH	-0.33104885
-1.6898044	yyy CH	-0.28729513
-1.8136696	OW0 CH	-0.28729513
-1.4783213	AA2 CH	-0.29807448
-1.7683141	AE2 CH	-0.28729513
-2.1551692	<s> AA1	-1.2750763
-1.580992	T AA1	-1.6652566
-1.9444515	UW1 AA1	-1.2868223
-1.5132526	D AA1	-1.3873026
-2.3313034	AO1 AA1	-0.28729513
-1.4568237	L AA1	-1.6648098
-1.6899545	ER0 AA1	-1.4039913
-1.5561177	Z AA1	-1.9962474
-1.1547375	W AA1	-2.3301864
-1.8512441	AH1 AA1	-0.36762902
-1.4474941	N AA1	-2.1109061
-1.187144	G AA1	-2.5228283
-1.8744136	OW1 AA1	-1.0693997
-1.5136865	R AA1	-1.4267399
-2.1774533	AY1 AA1	-0.7428156
-1.3134227	HH AA1	-1.470688
-1.8662075	IY1 AA1	-0.7839154
-1.4126486	K AA1	-1.8179696
-1.0753126	Y AA1	-1.005194
-2.5151615	AE1 AA1	-0.29589707
-2.0239272	V AA1	-0.71602
-2.4081056	DH AA1	-0.29445156
-1.6464702	S AA1	-1.3168001
-2.1738825	EY1 AA1	-0.96589744
-2.5294573	EH1 AA1	-0.28729513
-1.6525365	IY0 AA1	-0.9877297
-1.9001516	TH AA1	-0.3046061
-1.6197025	NG AA1	-1.2596085
-1.3449631	F AA1	-1.5002804
-2.2947679	AH0 AA1	-0.6100458
-1.3010004	M AA1	-2.0985775
-1.300106	B AA1	-1.5870049
-1.401437	P AA1	-1.7277511
-1.2618572	SH AA1	-1.1632402
-1.1980994	CH AA1	-1.1558478
-2.233243	AA1 AA1	-0.29265139
-1.2374129	JH AA1	-0.96248126
-1.9326493	AW1 AA1	-0.6470288
-1.9202363	OY1 AA1	-0.28729513
-1.96243	IY2 AA1	-0.28729513
-2.1244583	ER1 AA1	-0.28729513
-1.6790614	OW0 AA1	-0.3046061
-1.7564974	AA2 AA1	-0.28729513
-2.2406573	<s> JH	-1.4347085
-1.8310027	T JH	-0.9953076
-1.8347994	UW1 JH	-1.0465053
-2.0504134	D JH	-0.91011333
-2.3148959	AO1 JH	-0.29445156
-1.9904513	L JH	-1.0051
-1.6127795	ER0 JH	-0.5607526
-1.6695431	Z JH	-1.006071
-2.0003881	AH1 JH	-0.56491405
-1.8097078	N JH	-1.1141382
-2.278268	G JH	-0.44632477
-1.9387115	OW1 JH	-0.8317254
-2.0408864	R JH	-0.8873068
-1.7833532	AY1 JH	-0.94031894
-1.8023851	IY1 JH	-1.098122
-2.0351195	K JH	-0.7181047
-2.0169575	AE1 JH	-0.59089065
-2.0158312	V JH	-0.43379274
-2.5961077	DH JH	-0.29445156
-2.154677	IH1 JH	-1.0006717
-1.9459085	S JH	-1.1169065
-1.6765379	EY1 JH	-0.86372787
-1.9032873	EH1 JH	-1.4692584
-1.7232138	IY0 JH	-0.8493967
-2.0324197	TH JH	-0.2980334
-1.9378358	IH2 JH	-0.28729513
-1.8513623	NG JH	-0.44357073
-2.2177916	F JH	-0.2964713
-1.5549407	IH0 JH	-0.54008645
-1.6374376	AH0 JH	-0.68837184
-2.0082085	M JH	-1.064119
-1.571674	EH2 JH	-0.29445156
-2.664502	B JH	-0.30901578
-2.1965027	P JH	-0.6027026
-2.418003	SH JH	-0.28729513
-2.0357828	CH JH	-0.3686194
-1.9601696	AA1 JH	-0.58652556
-2.2435894	JH JH	-0.92344606
-2.217761	AW1 JH	-0.30348292
-1.9046788	OY1 JH	-0.29807448
-1.8031127	ER1 JH	-0.34744856
-1.548812	AA0 JH	-0.8732872
-1.7926594	AO2 JH	-0.28729513
-1.9960035	OW0 JH	-0.29807448
-1.7580407	AE2 JH	-0.29807448
-1.5655766	AH2 JH	-0.28729513
-3.0258183	<s> AW1	-1.0452292
-1.6823707	T AW1	-1.6207696
-1.7625897	UW1 AW1	-0.93464345
-1.5286996	D AW1	-2.3965607
-2.3483553	AO1 AW1	-0.28729513
-1.6075695	L AW1	-1.4636604
-1.4954962	ER0 AW1	-2.020823
-1.6953272	Z AW1	-1.6308181
-1.7022288	W AW1	-0.89165545
-2.3820622	AH1 AW1	-0.53086454
-1.4255642	N AW1	-1.5705472
-2.2990677	G AW1	-0.43395454
-2.13753	OW1 AW1	-1.5097117
-1.4805171	R AW1	-1.4302362
-2.4239123	AY1 AW1	-0.43395454
-1.2671807	HH AW1	-1.5844684
-2.1290338	IY1 AW1	-0.92344606
-1.4750905	K AW1	-1.163508
-1.9281753	V AW1	-0.68191814
-2.6301136	DH AW1	-0.5087261
-1.7277151	S AW1	-1.2685177
-2.1800303	EY1 AW1	-0.65566546
-2.5462213	EH1 AW1	-0.28729513
-1.8186455	IY0 AW1	-1.0880702
-1.64004	TH AW1	-0.9079055
-1.7318016	NG AW1	-1.5561703
-1.6364244	F AW1	-1.2935659
-2.4684453	IH0 AW1	-0.29807448
-2.0405176	AH0 AW1	-0.47411096
-1.6375369	M AW1	-1.6899172
-1.9461374	B AW1	-1.8224106
-1.6925342	P AW1	-0.72675526
-1.8110716	SH AW1	-0.6100458
-2.1921463	CH AW1	-0.9055429
-2.4485133	JH AW1	-0.28729513
-1.9422139	AW1 AW1	-0.29265139
-1.9800153	IY2 AW1	-0.28729513
-1.9520979	ER1 AW1	-0.9110758
-1.8910668	EY2 AW1	-0.28729513
-1.824818	OW0 AW1	-0.29807448
-4.9488797	<s> OY1	-0.28729513
-1.661957	T OY1	-1.2965742
-2.7435179	L OY1	-0.3046061
-1.7544949	N OY1	-2.0591087
-2.794376	G OY1	-0.28729513
-2.9014127	R OY1	-0.28729513
-2.9134157	AY1 OY1	-0.28729513
-2.6431243	K OY1	-0.43395454
-1.8878733	V OY1	-0.6056361
-2.8270752	S OY1	-0.29807448
-2.8097315	IY0 OY1	-0.28729513
-2.6897812	AH0 OY1	-0.29807448
-2.9377818	M OY1	-0.28729513
-1.410482	B OY1	-1.1475328
-1.7093247	P OY1	-0.96755713
-1.993341	CH OY1	-0.40039295
-2.0615273	JH OY1	-0.34277347
-4.9488797	<s> IY2	-0.28729513
-3.1182148	T IY2	-0.28729513
-2.287028	D IY2	-0.5833455
-2.437753	L IY2	-0.5098766
-2.7036862	ER0 IY2	-0.28729513
-3.0228934	Z IY2	-1.7069558
-2.585098	W IY2	-0.29445156
-2.6664166	N IY2	-0.40980774
-2.0335844	R IY2	-0.35311645
-2.9134157	AY1 IY2	-0.28729513
-2.7567203	IY1 IY2	-0.28729513
-2.4824376	K IY2	-0.5043167
-3.055042	S IY2	-0.5143363
-2.9377818	M IY2	-1.099363
-1.5693349	B IY2	-1.0498496
-2.9306934	P IY2	-0.28729513
-2.6498828	SH IY2	-1.2298346
-2.7018874	UW1 ZH	-0.83167565
-2.886485	OW1 ZH	-0.28729513
-2.2390633	IH1 ZH	-1.2632583
-3.035424	EY1 ZH	-0.30348292
-2.4556928	EH1 ZH	-0.30901578
-2.0714498	IH2 ZH	-1.3232563
-2.7256062	AA1 ZH	-0.76945496
-2.4249306	ER1 ZH	-0.29807448
-4.532548	<s> ER1	-0.28729513
-1.6563667	T ER1	-1.6086048
-2.2676277	UW1 ER1	-0.30901578
-1.650517	D ER1	-1.4327296
-1.9234115	L ER1	-1.0483848
-2.708756	Z ER1	-1.1738379
-1.2813854	W ER1	-1.2152169
-2.034269	N ER1	-1.1497042
-1.4502742	G ER1	-2.2774987
-2.4505558	OW1 ER1	-0.28729513
-2.5991511	AY1 ER1	-0.43395454
-1.2405883	HH ER1	-1.1927533
-2.634619	IY1 ER1	-0.28729513
-2.245919	K ER1	-0.5653166
-2.1875932	Y ER1	-0.28729513
-1.8646114	V ER1	-0.29342198
-2.7003489	DH ER1	-0.28729513
-1.6534612	S ER1	-1.482601
-2.8010747	EY1 ER1	-0.28729513
-2.3674035	IY0 ER1	-0.43395454
-1.2164335	TH ER1	-1.1933625
-2.2497017	NG ER1	-0.28729513
-1.3500767	F ER1	-1.6264001
-2.2541852	M ER1	-0.29801974
-1.5183402	B ER1	-1.6531472
-1.6477959	P ER1	-1.1073763
-1.4633946	SH ER1	-1.1106482
-1.877648	CH ER1	-0.78613704
-1.9150659	JH ER1	-0.6448079
-5.0612006	<s> AA0	-0.28729513
-3.069352	L AA0	-0.28729513
-1.3952532	W AA0	-2.5039923
-3.0067415	R AA0	-0.7806042
-2.636654	HH AA0	-0.29807448
-2.5660043	IY1 AA0	-0.29445156
-2.3863008	K AA0	-0.29589707
-2.903926	IY0 AA0	-0.28729513
-2.7689934	M AA0	-0.29533407
-3.0274565	P AA0	-0.28729513
-2.4958951	<s> AO2	-2.3075657
-2.1862848	T AO2	-1.0631508
-2.5205033	UW1 AO2	-0.30901578
-2.3636887	D AO2	-0.36383748
-2.5661001	L AO2	-0.29807448
-2.5242841	ER0 AO2	-0.43395454
-2.1677964	Z AO2	-0.8318945
-2.8190467	W AO2	-0.29807448
-2.48342	N AO2	-0.56491405
-2.7006614	OW1 AO2	-0.8732872
-2.506118	R AO2	-0.6100458
-2.477264	IY1 AO2	-0.30901578
-2.4601326	K AO2	-0.43395454
-2.7440584	DH AO2	-0.28729513
-2.0531802	S AO2	-1.1096629
-2.8561728	EY1 AO2	-0.9780226
-2.5334394	IY0 AO2	-0.6100458
-2.0826256	NG AO2	-0.30901578
-2.0795097	F AO2	-0.78613704
-2.8668325	M AO2	-0.28729513
-2.47648	B AO2	-1.1967008
-2.8620634	P AO2	-0.30901578
-2.1482286	OW0 AO2	-0.28729513
-2.6985197	<s> yyy	-1.177293
-3.008122	L yyy	-0.28729513
-2.7901983	AH1 yyy	-0.28729513
-3.0771747	N yyy	-0.28729513
-2.8024104	OW1 yyy	-0.28729513
-2.5574276	R yyy	-0.30167264
-2.5367198	IY1 yyy	-0.29807448
-3.0538328	K yyy	-0.28729513
-3.094889	S yyy	-0.28729513
-2.95466	EY1 yyy	-0.28729513
-2.847629	IY0 yyy	-0.28729513
-2.9695563	P yyy	-0.28729513
-1.4461432	yyy yyy	-0.54652095
-1.1541848	uhhuh yyy	-0.28729513
-2.9252586	T EY2	-0.6100458
-2.0934362	D EY2	-0.5694711
-2.7674556	L EY2	-1.6621447
-2.5677843	ER0 EY2	-1.5642883
-1.8735591	W EY2	-0.7242931
-2.8358197	N EY2	-0.29445156
-2.829049	G EY2	-0.78613704
-2.9434688	R EY2	-0.2915748
-2.1379087	K EY2	-1.0471569
-2.6963894	V EY2	-1.0623435
-3.094889	S EY2	-0.43395454
-2.2692208	IY0 EY2	-1.099363
-2.5824506	M EY2	-0.28729513
-2.3974829	P EY2	-0.42661136
-2.6069818	T AY0	-0.6769926
-2.2143576	D AY0	-1.3881971
-2.9940743	L AY0	-0.28729513
-2.7783566	AH1 AY0	-0.28729513
-2.8277411	N AY0	-0.43395454
-2.789854	OW1 AY0	-0.28729513
-2.9289927	R AY0	-0.28729513
-2.9378612	AY1 AY0	-0.28729513
-2.4328623	V AY0	-0.30901578
-2.9425473	EY1 AY0	-0.28729513
-2.8346257	IY0 AY0	-0.28729513
-2.9601398	AH0 AY0	-0.28729513
-2.0010605	M AY0	-1.8772175
-2.6715484	SH AY0	-0.28729513
-2.291481	CH AY0	-0.30901578
-3.7542074	<s> OW0	-0.9318719
-2.3076684	T OW0	-0.6460397
-2.9923477	D OW0	-0.9001026
-2.0815365	L OW0	-0.79951453
-2.8954396	ER0 OW0	-0.28729513
-2.613884	Z OW0	-0.30901578
-2.3771868	N OW0	-0.5527494
-2.7520711	G OW0	-0.29807448
-2.7213018	OW1 OW0	-0.28729513
-2.1635184	R OW0	-0.6338969
-2.6479015	AY1 OW0	-0.29807448
-2.7120955	IY1 OW0	-0.28729513
-2.3539104	K OW0	-0.62196773
-2.3928556	V OW0	-0.28729513
-2.6591148	S OW0	-0.4838902
-2.6479342	EY1 OW0	-0.28729513
-2.5464382	IY0 OW0	-0.6072845
-2.3242335	NG OW0	-0.28729513
-2.8892186	M OW0	-0.28729513
-2.8637226	B OW0	-0.28729513
-2.670506	P OW0	-0.5043167
-4.7075853	<s> AO0	-0.28729513
-2.5828762	T AO0	-0.53086454
-2.540737	UW1 AO0	-0.6448079
-2.4837682	D AO0	-0.29589707
-2.5335813	ER0 AO0	-0.29445156
-2.7576222	Z AO0	-0.29807448
-2.7821915	N AO0	-0.30901578
-2.8510091	R AO0	-0.28729513
-2.6479015	AY1 AO0	-0.29807448
-2.345103	IY1 AO0	-0.40039295
-2.9642196	K AO0	-0.28729513
-2.6148522	V AO0	-0.28729513
-2.7980356	S AO0	-0.3837874
-2.763854	IY0 AO0	-0.28729513
-2.5112162	TH AO0	-0.30901578
-2.3242335	NG AO0	-0.28729513
-1.8873601	F AO0	-1.4753473
-2.6824255	M AO0	-0.28729513
-2.883757	P AO0	-0.28729513
-2.580068	AA1 AO0	-0.28729513
-2.2880595	ER1 AO0	-0.28729513
-3.1218555	D EH0	-0.28729513
-2.6329005	L EH0	-0.8053467
-3.1009576	Z EH0	-0.28729513
-2.4358153	W EH0	-0.60451293
-2.7341485	R EH0	-0.54652095
-2.1428175	HH EH0	-1.6448079
-2.7366385	V EH0	-0.28729513
-2.874636	S EH0	-1.1219285
-2.9380143	F EH0	-0.28729513
-2.5997963	M EH0	-0.29445156
-2.7130082	JH EH0	-0.8732872
-3.6080587	<s> xxx	-0.6739093
-3.153133	D xxx	-0.28729513
-3.0495343	ER0 xxx	-0.28729513
-3.130443	Z xxx	-0.28729513
-2.8547955	AH1 xxx	-0.28729513
-3.0241127	R xxx	-0.28729513
-2.891722	S xxx	-0.28729513
-2.7125065	AA1 xxx	-0.28729513
-1.8083832	yyy xxx	-0.28729513
-1.681504	T UW0	-1.1441088
-2.102314	L UW0	-0.5715753
-3.1547885	N UW0	-0.29807448
-2.290278	R UW0	-0.5667244
-2.9609568	HH UW0	-0.30901578
-1.598762	Y UW0	-0.6808761
-2.7438989	SH UW0	-0.47411096
-2.7868876	CH UW0	-0.28729513
-1.5998435	ZH UW0	-0.28729513
-2.2006323	T AY2	-0.8368152
-2.2360027	L AY2	-0.78210616
-2.598619	W AY2	-0.48510706
-2.8358197	N AY2	-0.81536627
-2.5574276	R AY2	-1.8510108
-2.9136682	HH AY2	-0.28729513
-2.6963894	V AY2	-0.28729513
-2.850205	S AY2	-1.2468679
-2.5843198	TH AY2	-0.28729513
-2.8973045	F AY2	-0.7349845
-2.0025492	M AY2	-1.099363
-2.7209756	P AY2	-0.28729513
-2.722119	CH AY2	-0.28729513
-2.6768765	JH AY2	-0.28729513
-4.32395	<s> AA2	-0.3046061
-3.0797508	T AA2	-0.28729513
-2.5512185	UW1 AA2	-0.28729513
-2.7873652	D AA2	-0.50214016
-2.9063866	ER0 AA2	-0.29807448
-2.5719855	W AA2	-0.29445156
-2.7622674	G AA2	-0.29807448
-2.7320018	OW1 AA2	-0.28729513
-2.5225568	R AA2	-0.42295843
-2.8791485	AY1 AA2	-0.28729513
-2.5917094	HH AA2	-0.98584735
-2.471142	K AA2	-0.2915748
-2.6764095	Y AA2	-0.43395454
-2.886586	EY1 AA2	-1.3633734
-2.334518	NG AA2	-0.5764842
-2.6011171	F AA2	-0.7349845
-2.9044855	AH0 AA2	-0.28729513
-2.5497088	M AA2	-0.8224753
-2.325069	B AA2	-1.7040508
-2.260398	P AA2	-0.5990634
-2.6368785	W UH2	-0.48510706
-2.6201017	G UH2	-1.1936224
-2.992017	HH UH2	-0.28729513
-2.7719796	Y UH2	-0.29807448
-3.0156965	F UH2	-0.28729513
-2.553374	B UH2	-1.9356983
-4.895715	<s> AE2	-0.28729513
-2.5828762	T AE2	-0.847551
-2.576544	L AE2	-0.29265139
-2.8954396	ER0 AE2	-0.28729513
-2.8345292	W AE2	-0.43395454
-2.7133794	AH1 AE2	-0.28729513
-2.7821915	N AE2	-0.7014229
-2.5170078	R AE2	-0.2980334
-2.8683016	AY1 AE2	-1.1743172
-2.127889	HH AE2	-0.7014229
-2.7120955	IY1 AE2	-0.28729513
-1.937226	K AE2	-0.8208991
-2.6703248	Y AE2	-0.30901578
-2.5036764	S AE2	-0.6996126
-2.763854	IY0 AE2	-0.28729513
-2.5112162	TH AE2	-0.28729513
-2.8941622	AH0 AE2	-0.30901578
-1.9430412	M AE2	-1.1910968
-2.3221536	B AE2	-0.29265139
-2.670506	P AE2	-0.29807448
-2.6026936	JH AE2	-0.28729513
-3.2239451	T UW2	-0.28729513
-3.034387	ER0 UW2	-0.28729513
-2.4100444	R UW2	-1.7348467
-2.846437	K UW2	-0.5087261
-1.1951419	Y UW2	-1.0620152
-2.9922094	B UW2	-0.28729513
-3.0274565	P UW2	-0.28729513
-2.730972	SH UW2	-0.28729513
-2.773138	CH UW2	-0.8732872
-2.7257526	JH UW2	-0.28729513
-4.6572824	<s> EY0	-0.30901578
-3.2413929	T EY0	-0.28729513
-2.7044907	D EY0	-0.51710784
-3.0861104	L EY0	-0.78613704
-3.0495343	ER0 EY0	-0.28729513
-3.1547885	N EY0	-0.43395454
-3.0241127	R EY0	-0.28729513
-2.306874	V EY0	-0.78613704
-2.891722	S EY0	-0.29807448
-4.609444	<s> AH2	-0.30901578
-2.3940303	T AH2	-1.3232563
-2.3460932	UW1 AH2	-0.7349845
-2.7912145	Z AH2	-0.29807448
-1.8136247	W AH2	-1.3504084
-2.298948	N AH2	-0.8925924
-2.7776506	OW1 AH2	-0.28729513
-2.9149837	R AH2	-0.28729513
-2.2407954	AY1 AH2	-0.6100458
-2.5227861	IY1 AH2	-0.29807448
-2.7965026	K AH2	-0.43395454
-2.834649	S AH2	-0.40039295
-2.3782794	NG AH2	-0.28729513
-2.9508214	M AH2	-0.28729513
-2.917472	B AH2	-0.28729513
-2.9432652	P AH2	-0.44632477
-3.132356	B OY2	-0.5424377
-3.3191705	T AW2	-0.29807448
-2.8483756	L AW2	-0.30348292
-2.6156216	R AW2	-0.51710784
-1.9002662	HH AW2	-0.5778606
-3.2054293	K AW2	-0.28729513
-2.9518476	T AE0	-0.8775142
-3.0532162	L AE0	-0.28729513
-3.1009576	Z AE0	-0.28729513
-2.8609986	N AE0	-0.28729513
-2.5759726	R AE0	-0.43395454
-2.3832545	K AE0	-0.7806042
-2.44002	NG AE0	-0.28729513
-2.4997547	F AE0	-0.53086454
-3.0104458	AH0 AE0	-0.28729513
-2.7603705	M AE0	-0.847551
-2.718419	SH AE0	-0.28729513
-2.9476242	AH1 dollies	-0.28729513
-3.0243757	IY0 dollies	-0.29445156
-3.1328554	AH0 dollies	-0.28729513
-5.2629476	<s> youall	-0.28729513
-3.594149	<s> uhhuh	-0.79016364
-3.3954628	T uhhuh	-0.28729513
-4.281804	<s> byebye	-0.6100458
-3.3410046	T byebye	-0.28729513
-2.9531994	OW1 byebye	-0.29265139
-1.1675079	dollies byebye	-0.29807448
-3.8282695	<s> nightnight	-0.63683873
-3.181237	L nightnight	-0.30901578
-3.249358	N nightnight	-0.28729513
-2.9531994	OW1 nightnight	-0.43395454
-3.3410046	T UH0	-0.28729513
-3.0140307	HH UH0	-0.28729513
-1.6610155	Y UH0	-1.2121058
-2.8630376	CH UH0	-0.28729513
-3.5765972	<s> uhoh	-0.9348418
-4.9082866	<s> allgone	-0.29807448
-2.7829678	AY1 ll	-0.28729513
-2.6225455	IY1 ll	-0.42295843
-3.283538	S ll	-0.29807448
-4.5251	<s> whee	-0.30348292
-5.1640263	<s> doesn	-0.28729513
-3.0104716	T doesn	-0.29807448
-3.1961975	Z doesn	-0.28729513
-3.2287247	N doesn	-0.28729513
-3.0863042	AY1 doesn	-0.28729513
-4.5251	<s> ssh	-0.43395454
-4.679516	<s> chickie	-0.29445156
-3.09843	ER0 chickie	-0.28729513
-2.8987343	AH1 chickie	-0.28729513
-2.7499552	EY1 chickie	-0.29807448
-2.9686224	IY0 chickie	-0.28729513
-3.0828252	AH0 chickie	-0.30901578
-2.999169	IY1 hadta	-0.28729513
-4.0792894	<s> uhuh	-0.78613704
-4.717745	<s> mm	-0.29445156
-5.2629476	<s> tsitsi	-0.28729513
-3.1487296	AY1 AW0	-0.28729513
-2.7412307	F AW0	-0.29807448
-3.3410046	T isn	-0.28729513
-3.249358	N isn	-0.28729513
-2.9531994	OW1 isn	-0.28729513
-1.5470607	xxx isn	-0.28729513
-5.213105	<s> gramma	-0.28729513
-3.3639946	T gramma	-0.28729513
-3.0243757	IY0 gramma	-0.28729513
-5.2629476	<s> ohmygoodness	-0.28729513
-5.2629476	<s> doshueh	-0.28729513
-2.652142	W ER2	-0.29807448
-2.755891	B ER2	-0.29445156
-3.152151	P ER2	-0.28729513
-3.300561	N sothat	-0.28729513
-3.17736	R sothat	-0.28729513
-5.2629476	<s> uhhum	-0.28729513
-5.2629476	<s> alldone	-0.28729513
-3.1596289	AY1 didn	-0.28729513
-3.2772937	K outof	-0.28729513
-3.199099	M outof	-0.28729513
-5.2478623	<s> grammas	-0.28729513
-2.808254	UW1 grammas	-0.28729513
-4.9082866	<s> krissy	-0.29807448
-5.2478623	<s> lotsof	-0.28729513
-3.17736	R lotsof	-0.28729513
-3.31207	S alotof	-0.28729513
-2.5849288	NG alotof	-0.28729513
-5.2629476	<s> pss	-0.28729513
-5.2629476	<s> lookee	-0.28729513

\3-grams:
-0.9732088	UW1 T </s>
-1.1667675	AO1 T </s>
-0.90311617	L T </s>
-1.8609434	ER0 T </s>
-0.69671524	AH1 T </s>
-1.1298764	N T </s>
-0.9705047	OW1 T </s>
-0.7496239	R T </s>
-0.38644758	AY1 T </s>
-0.78500205	IY1 T </s>
-1.1361691	K T </s>
-0.75787383	AE1 T </s>
-1.3803887	UH1 T </s>
-0.70071775	IH1 T </s>
-1.0842679	S T </s>
-0.7917596	EY1 T </s>
-0.9012116	EH1 T </s>
-2.7943413	IY0 T </s>
-1.6999801	IH2 T </s>
-0.43940318	OW2 T </s>
-1.3500241	F T </s>
-0.5470682	IH0 T </s>
-0.57125723	AH0 T </s>
-0.47670195	EH2 T </s>
-1.253789	P T </s>
-0.33563238	SH T </s>
-0.84991705	AA1 T </s>
-0.45224136	AW1 T </s>
-1.1633226	IY2 T </s>
-0.6030626	ER1 T </s>
-1.4994913	EY2 T </s>
-0.98622394	AY2 T </s>
-0.42867967	AE2 T </s>
-0.8112825	AH2 T </s>
-0.626162	T UW1 </s>
-0.9122321	D UW1 </s>
-0.84301746	L UW1 </s>
-0.20666425	ER0 UW1 </s>
-0.7662947	Z UW1 </s>
-1.0791427	W UW1 </s>
-1.339838	N UW1 </s>
-0.9954145	G UW1 </s>
-0.8257372	R UW1 </s>
-1.0205398	HH UW1 </s>
-2.2852845	K UW1 </s>
-0.9615953	Y UW1 </s>
-1.7545929	S UW1 </s>
-2.087894	F UW1 </s>
-1.3423452	M UW1 </s>
-1.9868375	B UW1 </s>
-1.7377503	P UW1 </s>
-0.4909081	SH UW1 </s>
-0.40221927	CH UW1 </s>
-2.6560993	JH UW1 </s>
-1.5484868	UW1 D </s>
-0.8141469	L D </s>
-0.62347186	ER0 D </s>
-0.96263194	Z D </s>
-1.3348997	AH1 D </s>
-1.0160332	N D </s>
-1.3328875	OW1 D </s>
-0.90908116	R D </s>
-0.9052035	AY1 D </s>
-1.206237	IY1 D </s>
-0.9681086	AE1 D </s>
-1.1692462	V D </s>
-0.75765306	UH1 D </s>
-1.0607827	IH1 D </s>
-1.3075304	EY1 D </s>
-0.4234357	EH1 D </s>
-2.372134	IY0 D </s>
-0.3046795	OW2 D </s>
-0.5824822	IH0 D </s>
-1.5549259	AH0 D </s>
-1.587265	M D </s>
-1.2405237	AA1 D </s>
-1.5637221	AW1 D </s>
-1.146779	OY1 D </s>
-0.57273924	ER1 D </s>
-0.33103344	AY2 D </s>
-1.2202909	UH2 D </s>
-0.46155012	EY0 D </s>
-1.610013	<s> AO1 </s>
-1.7090646	R AO1 </s>
-1.2420372	AY1 AO1 </s>
-1.5395029	S AO1 </s>
-3.444898	M AO1 </s>
-2.16719	CH AO1 </s>
-2.8628263	T L </s>
-0.8974352	UW1 L </s>
-0.7962903	AO1 L </s>
-1.1648238	OW1 L </s>
-1.1929352	AY1 L </s>
-0.7780326	IY1 L </s>
-2.2295077	AE1 L </s>
-0.7444179	UH1 L </s>
-1.2214408	IH1 L </s>
-1.2388355	EY1 L </s>
-1.1233814	EH1 L </s>
-0.61461973	AH0 L </s>
-1.6878705	EH2 L </s>
-1.0396938	AA1 L </s>
-1.0155456	AW1 L </s>
-1.2131314	OY1 L </s>
-0.7948639	IY2 L </s>
-0.40689588	ER1 L </s>
-1.3988997	AO2 L </s>
-0.24084505	EY2 L </s>
-0.30295548	UH2 L </s>
-0.5817374	UW2 L </s>
-0.30295548	EY0 L </s>
-2.077221	<s> ER0 </s>
-0.46202886	T ER0 </s>
-0.5830691	UW1 ER0 </s>
-0.5587678	D ER0 </s>
-0.63442177	L ER0 </s>
-0.93162835	Z ER0 </s>
-0.32381576	N ER0 </s>
-0.5622228	G ER0 </s>
-0.9695295	R ER0 </s>
-0.57456815	AY1 ER0 </s>
-0.49077272	IY1 ER0 </s>
-0.31180578	K ER0 </s>
-1.7780694	Y ER0 </s>
-0.70467395	V ER0 </s>
-0.77031344	DH ER0 </s>
-0.8259517	S ER0 </s>
-0.43932098	EY1 ER0 </s>
-0.6595523	IY0 ER0 </s>
-1.316554	NG ER0 </s>
-0.93057233	F ER0 </s>
-0.42326432	M ER0 </s>
-0.71992385	B ER0 </s>
-0.3218283	P ER0 </s>
-0.3983672	SH ER0 </s>
-0.40763915	CH ER0 </s>
-0.2967538	AA1 ER0 </s>
-1.2277771	JH ER0 </s>
-0.49757212	AW1 ER0 </s>
-0.2967538	AY0 ER0 </s>
-0.15425822	AY2 ER0 </s>
-0.4537946	AW2 ER0 </s>
-1.0054616	UW1 Z </s>
-0.43043244	D Z </s>
-0.9185426	AO1 Z </s>
-0.33763605	L Z </s>
-0.27436733	ER0 Z </s>
-1.1850249	AH1 Z </s>
-0.4133926	N Z </s>
-0.25467867	G Z </s>
-0.67047083	OW1 Z </s>
-0.9512784	R Z </s>
-0.37242663	AY1 Z </s>
-0.617682	IY1 Z </s>
-1.3551495	AE1 Z </s>
-0.4576456	V Z </s>
-0.72276914	DH Z </s>
-0.842147	IH1 Z </s>
-0.7717485	EY1 Z </s>
-0.5211944	EH1 Z </s>
-0.54919326	IY0 Z </s>
-0.47298026	NG Z </s>
-0.74735355	OW2 Z </s>
-0.8077265	IH0 Z </s>
-0.7800052	AH0 Z </s>
-0.5800531	M Z </s>
-0.95774156	B Z </s>
-1.0456266	AA1 Z </s>
-0.93787456	AW1 Z </s>
-0.2817022	OY1 Z </s>
-0.9577469	IY2 Z </s>
-1.379395	ER1 Z </s>
-1.123051	AA0 Z </s>
-1.0637283	EY2 Z </s>
-0.22865172	OW0 Z </s>
-0.4546717	UW0 Z </s>
-1.2312106	AY2 Z </s>
-0.4546717	UW2 Z </s>
-0.57566893	<s> AH1 </s>
-2.0351987	T AH1 </s>
-1.5719677	UW1 AH1 </s>
-2.2270515	D AH1 </s>
-2.121769	L AH1 </s>
-1.6025865	Z AH1 </s>
-1.1502271	AH1 AH1 </s>
-2.249043	N AH1 </s>
-1.5130447	OW1 AH1 </s>
-2.4646533	R AH1 </s>
-0.12328494	HH AH1 </s>
-1.310982	IY1 AH1 </s>
-0.7248292	AE1 AH1 </s>
-1.059926	V AH1 </s>
-1.6089079	DH AH1 </s>
-2.5832508	S AH1 </s>
-1.5339087	EY1 AH1 </s>
-0.7237917	EH1 AH1 </s>
-1.8850511	IY0 AH1 </s>
-1.9621165	NG AH1 </s>
-2.3890853	F AH1 </s>
-0.8310525	IH0 AH1 </s>
-1.5341221	AH0 AH1 </s>
-2.638923	M AH1 </s>
-1.0171179	AA1 AH1 </s>
-0.988899	UW1 N </s>
-0.9129556	AO1 N </s>
-0.526959	AH1 N </s>
-1.9832096	OW1 N </s>
-1.3269687	R N </s>
-0.7684346	AY1 N </s>
-0.5659313	IY1 N </s>
-1.4027867	AE1 N </s>
-1.0609355	IH1 N </s>
-0.4932903	EY1 N </s>
-0.92763567	EH1 N </s>
-0.18043315	OW2 N </s>
-0.93614453	IH0 N </s>
-0.8815659	AH0 N </s>
-1.2162799	EH2 N </s>
-1.2759485	AA1 N </s>
-0.4733297	AW1 N </s>
-1.8162874	OY1 N </s>
-0.27713194	IY2 N </s>
-1.0795093	ER1 N </s>
-0.8676014	AA0 N </s>
-0.15784532	EY2 N </s>
-0.94387263	OW0 N </s>
-1.0779967	AY2 N </s>
-0.7964571	AA2 N </s>
-0.20487137	AE2 N </s>
-1.4408678	AH2 N </s>
-0.74441946	AW2 N </s>
-0.3414082	AE0 N </s>
-0.42647398	AO1 G </s>
-2.1717455	ER0 G </s>
-0.71700263	AH1 G </s>
-0.32459176	AE1 G </s>
-0.7404172	IH1 G </s>
-2.3434641	EY1 G </s>
-0.64474636	EH1 G </s>
-2.4064813	AA1 G </s>
-0.41477197	AO2 G </s>
-0.30611616	AE0 G </s>
-0.50017816	<s> OW1 </s>
-1.6500198	T OW1 </s>
-1.853366	UW1 OW1 </s>
-3.0415013	D OW1 </s>
-1.0722926	L OW1 </s>
-1.3204455	ER0 OW1 </s>
-2.0103393	Z OW1 </s>
-1.2398758	W OW1 </s>
-0.24652027	AH1 OW1 </s>
-0.4018957	N OW1 </s>
-0.7439276	G OW1 </s>
-0.70442164	OW1 OW1 </s>
-1.4906075	R OW1 </s>
-1.664719	AY1 OW1 </s>
-1.7413664	HH OW1 </s>
-1.231299	IY1 OW1 </s>
-1.8445214	K OW1 </s>
-1.0840449	Y OW1 </s>
-0.93745965	AE1 OW1 </s>
-1.7841202	V OW1 </s>
-0.9266458	DH OW1 </s>
-0.78442854	S OW1 </s>
-0.75834256	EY1 OW1 </s>
-1.0602611	IY0 OW1 </s>
-2.0742576	M OW1 </s>
-2.2943993	B OW1 </s>
-1.6993672	P OW1 </s>
-1.7672843	SH OW1 </s>
-0.9327772	CH OW1 </s>
-0.9992019	AA1 OW1 </s>
-1.3118267	JH OW1 </s>
-1.1535758	AW1 OW1 </s>
-0.81017625	OY1 OW1 </s>
-0.2847869	yyy OW1 </s>
-2.2429683	UW1 R </s>
-0.6635491	AO1 R </s>
-1.1473066	AY1 R </s>
-0.25899348	IY1 R </s>
-1.1573067	UH1 R </s>
-1.26777	IH1 R </s>
-0.5100532	EH1 R </s>
-0.52679217	EH2 R </s>
-0.70098794	AA1 R </s>
-0.93732554	AW1 R </s>
-2.146553	AO0 R </s>
-1.6876743	UH0 R </s>
-1.6305753	<s> AY1 </s>
-1.8702608	T AY1 </s>
-1.3352368	UW1 AY1 </s>
-1.4666752	D AY1 </s>
-2.0870032	L AY1 </s>
-1.1634653	ER0 AY1 </s>
-1.0523038	Z AY1 </s>
-0.65542316	W AY1 </s>
-1.7018223	N AY1 </s>
-0.44076592	G AY1 </s>
-1.4294902	OW1 AY1 </s>
-1.6895998	R AY1 </s>
-1.3513752	AY1 AY1 </s>
-0.39960584	HH AY1 </s>
-1.6086662	IY1 AY1 </s>
-1.6353914	K AY1 </s>
-1.9414062	AE1 AY1 </s>
-2.6031237	S AY1 </s>
-1.8958256	EY1 AY1 </s>
-1.1850725	IY0 AY1 </s>
-0.8517618	TH AY1 </s>
-2.5963726	F AY1 </s>
-1.1856539	M AY1 </s>
-0.6499942	B AY1 </s>
-1.2936327	P AY1 </s>
-1.1091666	SH AY1 </s>
-1.5040351	AW1 AY1 </s>
-0.7844757	T IY1 </s>
-1.1201841	D IY1 </s>
-2.776957	L IY1 </s>
-1.2949669	ER0 IY1 </s>
-1.616758	W IY1 </s>
-2.1948395	N IY1 </s>
-0.8502407	G IY1 </s>
-0.81261533	R IY1 </s>
-1.6654625	HH IY1 </s>
-0.9731613	K IY1 </s>
-0.33681267	V IY1 </s>
-0.52426684	S IY1 </s>
-0.5999558	M IY1 </s>
-1.0224527	B IY1 </s>
-1.9232659	P IY1 </s>
-1.3388573	SH IY1 </s>
-2.0020156	CH IY1 </s>
-0.4381222	JH IY1 </s>
-0.9087718	UW0 IY1 </s>
-2.7402647	UW1 K </s>
-0.9667041	AO1 K </s>
-0.5235064	L K </s>
-0.49485922	AH1 K </s>
-0.7116676	OW1 K </s>
-0.90567905	R K </s>
-1.1523697	AY1 K </s>
-1.1867759	IY1 K </s>
-0.5961807	AE1 K </s>
-0.7424774	UH1 K </s>
-1.14286	IH1 K </s>
-1.8795094	S K </s>
-1.3255737	EY1 K </s>
-1.3202112	EH1 K </s>
-0.41281295	IH2 K </s>
-0.9198501	NG K </s>
-3.8778114	OW2 K </s>
-0.87488186	IH0 K </s>
-2.7748084	AH0 K </s>
-0.9221217	AA1 K </s>
-0.8453859	ER1 K </s>
-0.59167695	AO2 K </s>
-0.43626046	EY2 K </s>
-1.8601204	AY2 K </s>
-0.1740204	UH2 K </s>
-0.6907067	AE2 K </s>
-0.10620813	Y AE1 </s>
-1.085275	UW1 V </s>
-0.75251067	L V </s>
-1.3760626	AH1 V </s>
-1.5054631	OW1 V </s>
-0.6594802	AY1 V </s>
-1.5382804	IY1 V </s>
-1.0414405	AE1 V </s>
-1.7435304	IH1 V </s>
-1.9592047	EY1 V </s>
-0.595925	IH0 V </s>
-1.6110944	AH0 V </s>
-2.7407565	IY1 DH </s>
-1.2098497	IH1 DH </s>
-1.2680373	IH0 DH </s>
-1.2755222	T S </s>
-0.71554476	UW1 S </s>
-1.2521789	AO1 S </s>
-0.6567564	L S </s>
-1.1858565	AH1 S </s>
-1.099898	N S </s>
-1.2920054	OW1 S </s>
-0.64051193	R S </s>
-0.91578543	AY1 S </s>
-0.9522687	IY1 S </s>
-0.52404404	K S </s>
-0.99838555	AE1 S </s>
-0.58316743	IH1 S </s>
-0.83119744	EY1 S </s>
-0.5612917	EH1 S </s>
-1.1345977	TH S </s>
-0.329656	F S </s>
-0.6619934	IH0 S </s>
-0.98770916	AH0 S </s>
-1.6646107	EH2 S </s>
-0.28319588	P S </s>
-0.14438497	AW1 S </s>
-0.70221335	OY1 S </s>
-1.3655055	ER1 S </s>
-0.5724993	AO2 S </s>
-0.2954941	EY2 S </s>
-0.2513737	AW2 S </s>
-1.4521283	<s> EY1 </s>
-1.852324	T EY1 </s>
-1.6163487	UW1 EY1 </s>
-0.43524513	D EY1 </s>
-1.2753187	AO1 EY1 </s>
-1.227692	L EY1 </s>
-1.9397081	ER0 EY1 </s>
-1.1891125	Z EY1 </s>
-0.34040895	W EY1 </s>
-1.2110151	AH1 EY1 </s>
-1.5459784	N EY1 </s>
-2.532944	G EY1 </s>
-1.3386936	OW1 EY1 </s>
-1.7260249	R EY1 </s>
-1.4697537	AY1 EY1 </s>
-0.52992886	HH EY1 </s>
-0.98276854	IY1 EY1 </s>
-0.22547626	K EY1 </s>
-0.40320128	Y EY1 </s>
-1.5081569	V EY1 </s>
-0.9895189	DH EY1 </s>
-0.7682429	S EY1 </s>
-1.1324193	EY1 EY1 </s>
-1.7656678	IY0 EY1 </s>
-0.97181445	TH EY1 </s>
-1.8815335	NG EY1 </s>
-0.94458884	AH0 EY1 </s>
-2.2581234	M EY1 </s>
-1.8263819	P EY1 </s>
-1.7645872	SH EY1 </s>
-1.1059842	JH EY1 </s>
-0.73083156	AW1 EY1 </s>
-1.1711698	IY2 EY1 </s>
-1.4430618	<s> EH1 </s>
-3.301844	T EH1 </s>
-2.7171652	N EH1 </s>
-1.8545828	OW1 EH1 </s>
-2.7494037	K EH1 </s>
-2.7510524	Y EH1 </s>
-0.48703343	EH1 EH1 </s>
-0.42823333	T IY0 </s>
-0.42104027	UW1 IY0 </s>
-0.38813215	D IY0 </s>
-0.5382767	L IY0 </s>
-0.33767658	ER0 IY0 </s>
-0.30443722	Z IY0 </s>
-0.49008843	N IY0 </s>
-0.3341131	G IY0 </s>
-0.38875523	OW1 IY0 </s>
-0.7653034	R IY0 </s>
-0.31134543	K IY0 </s>
-0.35924113	V IY0 </s>
-1.5097501	DH IY0 </s>
-0.5545281	S IY0 </s>
-0.4679764	TH IY0 </s>
-0.23944162	F IY0 </s>
-0.35337237	M IY0 </s>
-0.5700494	B IY0 </s>
-0.443383	P IY0 </s>
-0.8849466	SH IY0 </s>
-0.78632003	CH IY0 </s>
-0.3403133	JH IY0 </s>
-0.29591653	AW1 IY0 </s>
-0.59572464	ER1 IY0 </s>
-2.2002811	UW1 TH </s>
-0.38720885	AO1 TH </s>
-1.9529343	L TH </s>
-1.3982384	N TH </s>
-1.4676557	OW1 TH </s>
-1.2146834	R TH </s>
-0.72708815	IY1 TH </s>
-1.3532717	K TH </s>
-0.66831553	AE1 TH </s>
-1.138495	IH1 TH </s>
-1.8775054	S TH </s>
-0.44391036	EH1 TH </s>
-1.280396	IH0 TH </s>
-0.2897312	EH2 TH </s>
-0.25332436	AW1 TH </s>
-0.56669176	AO2 TH </s>
-0.6067062	AO1 NG </s>
-1.1879878	AH1 NG </s>
-1.5634271	AY1 NG </s>
-1.7975227	AE1 NG </s>
-1.2283914	IH1 NG </s>
-0.5421072	IH2 NG </s>
-0.52560145	IH0 NG </s>
-1.2923222	AA1 NG </s>
-1.341712	T OW2 </s>
-1.6222101	D OW2 </s>
-1.8042412	L OW2 </s>
-1.9790094	N OW2 </s>
-0.5674548	R OW2 </s>
-1.1297063	IY0 OW2 </s>
-2.1695697	M OW2 </s>
-1.3102155	UW1 F </s>
-0.29430562	AO1 F </s>
-0.57906115	L F </s>
-0.51597375	AH1 F </s>
-2.0288243	OW1 F </s>
-1.5042951	R F </s>
-1.1267343	AY1 F </s>
-1.4124894	IY1 F </s>
-1.401514	AE1 F </s>
-0.26347777	UH1 F </s>
-1.9319485	IH1 F </s>
-1.9557582	EY1 F </s>
-1.5459031	EH1 F </s>
-1.8696066	AA1 F </s>
-0.30339143	AO2 F </s>
-0.8162821	OW0 F </s>
-1.9249662	T IH0 </s>
-2.3338797	<s> AH0 </s>
-1.6104237	T AH0 </s>
-1.9223515	UW1 AH0 </s>
-1.3397663	D AH0 </s>
-1.45746	L AH0 </s>
-1.5536275	ER0 AH0 </s>
-1.8267436	Z AH0 </s>
-1.2837222	AH1 AH0 </s>
-1.327369	N AH0 </s>
-2.1761374	G AH0 </s>
-1.8194827	OW1 AH0 </s>
-1.1903436	R AH0 </s>
-1.9655344	AY1 AH0 </s>
-0.5263945	IY1 AH0 </s>
-2.1238468	K AH0 </s>
-0.5892916	Y AH0 </s>
-1.8423076	V AH0 </s>
-1.7719322	DH AH0 </s>
-1.3542677	S AH0 </s>
-1.698487	EY1 AH0 </s>
-1.0165585	IY0 AH0 </s>
-1.0181117	TH AH0 </s>
-1.5503252	NG AH0 </s>
-1.9207528	F AH0 </s>
-0.94760174	IH0 AH0 </s>
-1.0636533	M AH0 </s>
-2.718268	B AH0 </s>
-3.0300558	P AH0 </s>
-1.2279707	SH AH0 </s>
-1.3891877	CH AH0 </s>
-1.9815004	JH AH0 </s>
-1.2969282	IY2 AH0 </s>
-0.5863632	UW1 M </s>
-2.4840708	L M </s>
-0.9398959	AH1 M </s>
-0.55233437	OW1 M </s>
-1.4698019	R M </s>
-0.90395373	AY1 M </s>
-1.2653005	IY1 M </s>
-0.77957773	AE1 M </s>
-0.62984896	IH1 M </s>
-0.78524095	EY1 M </s>
-0.70293874	EH1 M </s>
-1.1647561	OW2 M </s>
-0.67803407	IH0 M </s>
-0.39030072	AH0 M </s>
-0.980021	AA1 M </s>
-1.6668496	ER1 M </s>
-0.86505735	UW0 M </s>
-0.5345398	AY2 M </s>
-0.7584662	AE2 M </s>
-0.116236776	UW2 M </s>
-2.1596515	AH1 B </s>
-1.6906332	OW1 B </s>
-1.7996886	AE1 B </s>
-0.47938925	IH1 B </s>
-2.8368514	EY1 B </s>
-2.1010983	AH0 B </s>
-1.2299087	AA1 B </s>
-0.29860654	AW2 B </s>
-0.89311326	UW1 P </s>
-0.49243778	AO1 P </s>
-0.81391776	L P </s>
-0.50146085	AH1 P </s>
-0.9589602	OW1 P </s>
-2.0289927	R P </s>
-1.1276165	AY1 P </s>
-0.8318057	IY1 P </s>
-1.03419	AE1 P </s>
-0.670159	IH1 P </s>
-2.749364	S P </s>
-0.9470273	EY1 P </s>
-0.2523669	EH1 P </s>
-0.9968109	IH2 P </s>
-0.2065353	OW2 P </s>
-2.1312926	AH0 P </s>
-0.7763558	M P </s>
-0.7649217	AA1 P </s>
-0.34471726	AA2 P </s>
-1.1065967	AE2 P </s>
-0.40198532	AH2 P </s>
-0.30194947	UH0 P </s>
-1.875249	AH1 SH </s>
-0.7682429	AE1 SH </s>
-0.93028563	UH1 SH </s>
-0.4939412	IH1 SH </s>
-1.0285536	EH1 SH </s>
-1.0867898	IH0 SH </s>
-2.2900932	AH0 SH </s>
-0.93548894	AA1 SH </s>
-0.097185135	AE2 SH </s>
-0.7320575	AO1 CH </s>
-1.4375665	L CH </s>
-0.7105575	AH1 CH </s>
-0.27824646	N CH </s>
-1.3858659	R CH </s>
-0.772676	IY1 CH </s>
-0.8477166	AE1 CH </s>
-0.55902743	UH1 CH </s>
-1.1487616	IH1 CH </s>
-0.95073813	EY1 CH </s>
-1.3036715	EH1 CH </s>
-0.40912274	IH0 CH </s>
-2.147227	AH0 CH </s>
-0.76653665	AA1 CH </s>
-0.19193962	AW1 CH </s>
-0.8893869	ER1 CH </s>
-0.56899744	AA2 CH </s>
-0.6516786	<s> AA1 </s>
-1.6518276	T AA1 </s>
-1.9715922	UW1 AA1 </s>
-1.5454746	D AA1 </s>
-2.5984862	W AA1 </s>
-1.1811548	AH1 AA1 </s>
-1.9296023	N AA1 </s>
-3.4487987	G AA1 </s>
-1.0723288	OW1 AA1 </s>
-2.0717688	R AA1 </s>
-1.4674865	AY1 AA1 </s>
-1.1312287	HH AA1 </s>
-2.7664015	K AA1 </s>
-0.76951474	Y AA1 </s>
-1.9564323	S AA1 </s>
-1.8176106	IY0 AA1 </s>
-2.0697784	NG AA1 </s>
-1.721327	M AA1 </s>
-2.4445097	B AA1 </s>
-2.2926145	P AA1 </s>
-0.97072303	CH AA1 </s>
-0.8095169	AA1 AA1 </s>
-0.76758933	N JH </s>
-1.3699142	R JH </s>
-0.46250993	IH1 JH </s>
-0.37755072	EY1 JH </s>
-0.40694857	IH0 JH </s>
-0.63148934	AH0 JH </s>
-1.174069	<s> AW1 </s>
-1.5336651	L AW1 </s>
-0.13488364	W AW1 </s>
-0.4386232	N AW1 </s>
-1.4799635	HH AW1 </s>
-1.5442325	IY1 AW1 </s>
-0.5231296	K AW1 </s>
-1.1938905	EY1 AW1 </s>
-1.7732685	IY0 AW1 </s>
-2.7420452	B AW1 </s>
-0.29526976	<s> OY1 </s>
-0.7181987	T OY1 </s>
-0.26218706	B OY1 </s>
-1.2193794	JH OY1 </s>
-0.8477528	D IY2 </s>
-1.0946312	L IY2 </s>
-0.43708614	W IY2 </s>
-0.42633754	N IY2 </s>
-0.7476889	R IY2 </s>
-1.0875152	K IY2 </s>
-0.35071185	S IY2 </s>
-0.38096347	EY1 ZH </s>
-0.16621967	AA1 ZH </s>
-2.4644396	T ER1 </s>
-1.889108	D ER1 </s>
-1.6549714	W ER1 </s>
-0.7615456	HH ER1 </s>
-0.295648	DH ER1 </s>
-0.99524534	S ER1 </s>
-2.574811	F ER1 </s>
-0.8956777	K AA0 </s>
-0.90010405	M AA0 </s>
-0.48694777	S AO2 </s>
-0.08740349	<s> yyy </s>
-0.18217117	L yyy </s>
-0.38150057	AH1 yyy </s>
-0.18217117	N yyy </s>
-0.18217117	OW1 yyy </s>
-0.37430626	R yyy </s>
-0.17665783	IY1 yyy </s>
-0.18217117	K yyy </s>
-0.18217117	S yyy </s>
-0.18217117	IY0 yyy </s>
-0.18217117	P yyy </s>
-0.2504696	yyy yyy </s>
-0.36594343	D EY2 </s>
-0.35315531	W EY2 </s>
-0.9118256	R EY2 </s>
-0.72748506	M EY2 </s>
-1.3407362	T OW0 </s>
-0.1384903	D OW0 </s>
-0.648691	L OW0 </s>
-0.25732395	N OW0 </s>
-0.2641236	G OW0 </s>
-0.20249157	R OW0 </s>
-0.2270479	K OW0 </s>
-0.6681079	S OW0 </s>
-1.0679901	IY0 OW0 </s>
-0.2733569	B OW0 </s>
-0.22502932	P OW0 </s>
-0.15713578	<s> xxx </s>
-0.21871544	D xxx </s>
-0.21871544	ER0 xxx </s>
-0.21871544	Z xxx </s>
-0.44083905	S xxx </s>
-1.9398197	T UW0 </s>
-0.98915446	L UW0 </s>
-1.0184147	R UW0 </s>
-0.47866166	Y UW0 </s>
-0.27104425	SH UW0 </s>
-1.2952896	L AY2 </s>
-0.2783663	D AA2 </s>
-1.0474362	R AA2 </s>
-0.2820804	NG AA2 </s>
-1.3037665	P AA2 </s>
-0.2706989	ER0 UW2 </s>
-0.22381715	K UW2 </s>
-0.77672005	Y UW2 </s>
-0.28852803	P AH2 </s>
-0.5401171	B OY2 </s>
-0.35483503	R AW2 </s>
-0.54669756	AH1 dollies </s>
-0.11387972	<s> uhhuh </s>
-0.24119285	T uhhuh </s>
-0.08111336	<s> byebye </s>
-0.3933851	OW1 byebye </s>
-0.18670249	dollies byebye </s>
-0.1513536	<s> nightnight </s>
-0.18093772	L nightnight </s>
-0.12816368	OW1 nightnight </s>
-0.07393378	<s> uhoh </s>
-0.12998772	<s> allgone </s>
-0.29534212	<s> whee </s>
-0.09107294	<s> ssh </s>
-0.29075858	<s> chickie </s>
-0.17532144	AH1 chickie </s>
-0.17005844	EY1 chickie </s>
-0.3707105	IY0 chickie </s>
-0.038141433	<s> uhuh </s>
-0.33871964	<s> mm </s>
-0.13381276	<s> tsitsi </s>
-0.14467794	<s> gramma </s>
-0.32357398	T gramma </s>
-0.14467794	IY0 gramma </s>
-0.13381276	<s> ohmygoodness </s>
-0.13381276	<s> doshueh </s>
-0.13381276	<s> uhhum </s>
-0.13381276	<s> alldone </s>
-0.10877768	<s> grammas </s>
-0.10877768	UW1 grammas </s>
-0.13381276	<s> pss </s>
-1.9979718	UW1 T T
-2.36241	AO1 T T
-2.3694339	L T T
-2.3480954	AH1 T T
-0.9273237	N T T
-2.6244922	OW1 T T
-2.2910576	R T T
-2.1101456	AY1 T T
-2.2188065	IY1 T T
-1.8083631	K T T
-1.964267	AE1 T T
-2.1662884	UH1 T T
-1.6890202	IH1 T T
-1.6277131	S T T
-1.6253148	EY1 T T
-2.2248526	EH1 T T
-1.2420588	OW2 T T
-2.3961372	F T T
-1.542058	IH0 T T
-1.7752153	AH0 T T
-1.9986743	P T T
-1.4352373	SH T T
-1.6306305	CH T T
-1.2509593	AA1 T T
-1.5677918	AW1 T T
-2.3181813	ER1 T T
-2.206495	EY2 T T
-1.0729058	AY2 T T
-1.3723515	T UW1 T
-2.261877	D UW1 T
-1.9116298	L UW1 T
-1.6646887	Z UW1 T
-0.44226557	N UW1 T
-1.5352124	R UW1 T
-1.8161436	HH UW1 T
-1.6894336	K UW1 T
-1.3466765	Y UW1 T
-1.1346152	S UW1 T
-0.20502752	B UW1 T
-2.1998417	SH UW1 T
-1.5977848	CH UW1 T
-2.9336772	UW1 D T
-2.076025	L D T
-1.8521833	ER0 D T
-1.0427673	Z D T
-1.55103	N D T
-1.3478607	R D T
-1.9005247	AY1 D T
-1.6873922	IY1 D T
-1.5673203	AE1 D T
-1.9580581	V D T
-1.6875367	UH1 D T
-2.2335408	IH1 D T
-2.4860296	EY1 D T
-1.8256645	EH1 D T
-2.1251318	NG D T
-0.7919972	OW2 D T
-1.4046327	IH0 D T
-1.9652077	M D T
-1.281732	JH D T
-2.105896	AW1 D T
-2.254814	ER1 D T
-1.472003	AY2 D T
-0.30459943	UW2 D T
-2.5652752	<s> AO1 T
-2.3098564	T AO1 T
-1.5543418	UW1 AO1 T
-2.4498222	D AO1 T
-1.4349675	L AO1 T
-0.97447306	W AO1 T
-0.9585628	N AO1 T
-1.2885895	G AO1 T
-1.0167325	R AO1 T
-1.3474708	AY1 AO1 T
-1.0115739	IY1 AO1 T
-1.6196243	K AO1 T
-2.3583965	S AO1 T
-0.046759494	TH AO1 T
-1.4284425	B AO1 T
-0.6314321	IY2 AO1 T
-1.9424101	UW1 L T
-1.5929756	AO1 L T
-2.2407644	AH1 L T
-0.88998723	OW1 L T
-1.0780029	AY1 L T
-1.7019006	IY1 L T
-1.6260446	UH1 L T
-1.4504809	IH1 L T
-2.3313227	EY1 L T
-1.9676515	EH1 L T
-1.650646	AH0 L T
-0.72006303	OY1 L T
-1.9105275	ER1 L T
-1.7557368	AO2 L T
-2.3546393	<s> ER0 T
-1.7777135	T ER0 T
-1.8178716	UW1 ER0 T
-1.6115184	D ER0 T
-1.6734241	L ER0 T
-1.4320508	Z ER0 T
-1.2871056	N ER0 T
-1.5702779	G ER0 T
-1.5151623	R ER0 T
-2.2033687	AY1 ER0 T
-1.9607941	K ER0 T
-1.6720604	V ER0 T
-1.4134328	DH ER0 T
-1.8259722	S ER0 T
-1.7042873	EY1 ER0 T
-1.0720707	IY0 ER0 T
-1.4793234	F ER0 T
-1.7366885	M ER0 T
-1.2841625	B ER0 T
-1.4948897	P ER0 T
-1.7704805	SH ER0 T
-1.5541371	CH ER0 T
-2.0263832	AW1 ER0 T
-0.5881561	IY2 ER0 T
-1.6447656	UW1 Z T
-1.3652	D Z T
-2.2175803	AO1 Z T
-1.7874305	L Z T
-2.062861	ER0 Z T
-2.5263925	AH1 Z T
-1.3206095	N Z T
-1.6550035	G Z T
-1.4977839	OW1 Z T
-1.7334607	R Z T
-1.232251	AY1 Z T
-1.2880071	IY1 Z T
-1.3777956	AE1 Z T
-1.7747625	IH1 Z T
-1.9486046	EY1 Z T
-1.8496319	EH1 Z T
-1.3858104	IY0 Z T
-0.981483	NG Z T
-1.8470191	IH0 Z T
-1.5799003	AH0 Z T
-1.5757111	M Z T
-1.6470455	AA1 Z T
-1.7355018	OY1 Z T
-1.2382921	IY2 Z T
-1.5011239	AA0 Z T
-2.125747	<s> AH1 T
-1.8518147	UW1 AH1 T
-2.4911308	L AH1 T
-0.13955699	W AH1 T
-2.314978	AH1 AH1 T
-1.588923	N AH1 T
-1.8997649	OW1 AH1 T
-2.9981632	HH AH1 T
-1.4293312	K AH1 T
-1.0527984	DH AH1 T
-1.810829	EY1 AH1 T
-2.9968865	M AH1 T
-0.118394926	B AH1 T
-0.6908412	P AH1 T
-0.3651126	SH AH1 T
-2.390704	UW1 N T
-0.52147114	D N T
-0.2988262	AO1 N T
-1.2348945	AH1 N T
-0.11094365	OW1 N T
-1.2442787	R N T
-1.694177	AY1 N T
-1.9108405	IY1 N T
-0.84275967	AE1 N T
-1.2769283	IH1 N T
-1.5074177	EY1 N T
-0.9379747	EH1 N T
-1.0960395	IH2 N T
-0.99762464	IH0 N T
-0.90076417	AH0 N T
-1.7186097	EH2 N T
-0.61956	AA1 N T
-1.2944437	AW1 N T
-0.14792673	OY1 N T
-1.3555558	IY2 N T
-1.693546	ER1 N T
-1.3763657	EY2 N T
-1.0067898	EH0 N T
-1.0093181	AA2 N T
-1.4472315	AH2 N T
-0.61203027	AE0 N T
-1.8152813	AO1 G T
-2.1924036	AH1 G T
-1.9999034	AE1 G T
-1.2767143	IH1 G T
-2.2141235	<s> OW1 T
-1.6304339	T OW1 T
-1.948889	UW1 OW1 T
-2.5383582	L OW1 T
-2.3023717	W OW1 T
-2.0769563	N OW1 T
-1.2977853	G OW1 T
-1.9205738	OW1 OW1 T
-1.4703953	R OW1 T
-1.7754648	AY1 OW1 T
-0.7666037	K OW1 T
-0.13914779	V OW1 T
-1.9070044	S OW1 T
-1.4182881	IY0 OW1 T
-1.8255651	F OW1 T
-1.8424493	AH0 OW1 T
-0.46018952	M OW1 T
-0.7308595	B OW1 T
-1.6533993	P OW1 T
-1.6986269	JH OW1 T
-1.5527124	UW1 R T
-1.328701	AO1 R T
-2.3129013	AY1 R T
-1.9122257	IY1 R T
-1.3673322	UH1 R T
-2.1089973	IH1 R T
-1.8025779	EH1 R T
-2.1122646	EH2 R T
-0.82532465	AA1 R T
-0.89022577	AW1 R T
-1.0480655	AA0 R T
-0.51861334	AO2 R T
-0.32565796	AA2 R T
-1.9603477	<s> AY1 T
-1.0095702	T AY1 T
-1.7985649	UW1 AY1 T
-1.5118592	D AY1 T
-1.193111	L AY1 T
-1.5555375	ER0 AY1 T
-1.9402968	Z AY1 T
-1.1579747	W AY1 T
-0.772914	N AY1 T
-2.055902	OW1 AY1 T
-0.14328876	R AY1 T
-1.6379714	AY1 AY1 T
-1.7205019	HH AY1 T
-1.452215	IY1 AY1 T
-1.3067815	K AY1 T
-1.6860133	AE1 AY1 T
-0.44451553	V AY1 T
-1.6638567	S AY1 T
-2.165116	EY1 AY1 T
-1.7964114	IY0 AY1 T
-1.5395081	NG AY1 T
-2.0755582	F AY1 T
-1.0264354	M AY1 T
-1.0143712	B AY1 T
-1.7821846	AW1 AY1 T
-0.74447817	EY2 AY1 T
-0.14708252	<s> IY1 T
-0.8153661	T IY1 T
-0.025670005	UW1 IY1 T
-0.90341705	D IY1 T
-1.5686682	L IY1 T
-0.60809284	ER0 IY1 T
-0.8043835	Z IY1 T
-1.4244508	W IY1 T
-0.5584191	AH1 IY1 T
-1.1799394	N IY1 T
-0.80842704	G IY1 T
-0.2843908	OW1 IY1 T
-1.1722442	R IY1 T
-0.25179556	AY1 IY1 T
-2.0303319	HH IY1 T
-0.24173701	IY1 IY1 T
-0.26608977	AE1 IY1 T
-1.505238	V IY1 T
-1.6076142	S IY1 T
-0.64811957	EY1 IY1 T
-0.39989275	IY0 IY1 T
-0.4377619	NG IY1 T
-0.3207543	F IY1 T
-0.037899237	IH0 IY1 T
-0.017585484	AH0 IY1 T
-0.709768	M IY1 T
-1.4299814	B IY1 T
-0.2993482	P IY1 T
-1.5791705	SH IY1 T
-1.9077653	CH IY1 T
-0.21465515	AA1 IY1 T
-0.54924226	AW1 IY1 T
-0.80842704	ER1 IY1 T
-0.778782	AO1 K T
-2.2463393	L K T
-1.9736146	AH1 K T
-2.3607626	OW1 K T
-2.4156466	R K T
-1.0743475	AY1 K T
-2.0727656	IY1 K T
-0.8729609	AE1 K T
-1.7667608	UH1 K T
-1.7147868	IH1 K T
-2.1726134	S K T
-2.146514	EY1 K T
-0.8536725	EH1 K T
-0.46135354	IH2 K T
-2.3916352	NG K T
-2.0609071	IH0 K T
-2.9546375	AH0 K T
-0.9655459	EH2 K T
-1.0998017	AA1 K T
-1.579958	ER1 K T
-0.082687214	EH0 K T
-2.1304898	UH2 K T
-1.4049349	<s> AE1 T
-0.92495644	T AE1 T
-0.78483534	UW1 AE1 T
-1.0751696	D AE1 T
-1.0832192	L AE1 T
-0.8417156	ER0 AE1 T
-0.6715137	Z AE1 T
-1.2764084	AH1 AE1 T
-1.1593786	N AE1 T
-0.63540125	OW1 AE1 T
-1.4925274	R AE1 T
-1.2635897	AY1 AE1 T
-1.5644921	HH AE1 T
-1.0445168	IY1 AE1 T
-0.521003	K AE1 T
-2.2849717	Y AE1 T
-0.6668322	V AE1 T
-0.0019673305	DH AE1 T
-0.82367885	S AE1 T
-0.77375793	EY1 AE1 T
-0.98352903	IY0 AE1 T
-2.912856	TH AE1 T
-0.22842434	NG AE1 T
-0.9435315	F AE1 T
-1.5842198	AH0 AE1 T
-0.7371173	M AE1 T
-1.3730541	B AE1 T
-0.1560436	P AE1 T
-1.994679	SH AE1 T
-0.9351966	AA1 AE1 T
-2.123198	JH AE1 T
-0.84055173	IY2 AE1 T
-0.5753958	ER1 AE1 T
-0.7741777	OW0 AE1 T
-2.326197	UW1 V T
-1.5422957	AH1 V T
-2.6938841	OW1 V T
-2.001196	AY1 V T
-2.4957027	IY1 V T
-1.2424729	AE1 V T
-2.4604325	IH1 V T
-2.0916822	EY1 V T
-1.546244	IH0 V T
-1.5911433	AH0 V T
-0.16748324	F UH1 T
-0.050772592	P UH1 T
-1.9148297	IH1 DH T
-2.0556784	IH0 DH T
-0.29343584	<s> IH1 T
-0.4301424	T IH1 T
-0.13155851	UW1 IH1 T
-0.81302494	D IH1 T
-0.2187473	AO1 IH1 T
-0.20113638	L IH1 T
-0.7207936	ER0 IH1 T
-0.22838628	Z IH1 T
-2.4060857	W IH1 T
-0.9841126	AH1 IH1 T
-0.24259491	N IH1 T
-0.2193576	G IH1 T
-0.2894551	OW1 IH1 T
-0.7204081	R IH1 T
-0.20560518	AY1 IH1 T
-0.9600202	HH IH1 T
-0.48716426	IY1 IH1 T
-0.23452398	K IH1 T
-0.0927906	AE1 IH1 T
-0.18605484	V IH1 T
-1.9231899	DH IH1 T
-0.3966511	S IH1 T
-0.2853421	EY1 IH1 T
-0.61361724	IY0 IH1 T
-1.6876454	TH IH1 T
-0.32706025	NG IH1 T
-0.757927	F IH1 T
-0.088483885	IH0 IH1 T
-0.74115837	AH0 IH1 T
-1.3640312	M IH1 T
-0.9753837	B IH1 T
-1.0407538	P IH1 T
-0.17897108	SH IH1 T
-0.88972163	CH IH1 T
-0.25264212	AA1 IH1 T
-1.0369332	JH IH1 T
-0.13534608	AW1 IH1 T
-1.2144386	OY1 IH1 T
-0.8859117	ER1 IH1 T
-0.58287305	EY2 IH1 T
-1.0709778	<s> S T
-1.2939699	T S T
-1.1225009	UW1 S T
-1.0589029	D S T
-0.23767084	AO1 S T
-1.0023456	L S T
-0.81015754	ER0 S T
-0.9273046	Z S T
-0.19114871	AH1 S T
-0.8643217	N S T
-1.0651098	G S T
-0.7815581	OW1 S T
-1.097194	R S T
-1.0002495	AY1 S T
-1.1925714	IY1 S T
-1.0538831	K S T
-0.41358635	AE1 S T
-1.4305668	V S T
-1.1783396	IH1 S T
-0.7592594	S S T
-0.65679014	EY1 S T
-0.92187124	EH1 S T
-0.59629035	IY0 S T
-1.6390533	TH S T
-0.8223362	NG S T
-0.012562374	OW2 S T
-1.5919001	F S T
-0.7138025	IH0 S T
-0.6714337	AH0 S T
-0.7771248	M S T
-0.16700166	EH2 S T
-1.0253599	B S T
-1.3288718	P S T
-0.8902023	CH S T
-0.5286791	AA1 S T
-1.8084948	AW1 S T
-0.79122114	OY1 S T
-1.6427708	IY2 S T
-0.17691572	ER1 S T
-0.39657634	AA0 S T
-0.7411839	EH0 S T
-1.0451365	<s> EY1 T
-1.6274288	T EY1 T
-0.8074818	UW1 EY1 T
-1.4248245	D EY1 T
-1.1467143	AO1 EY1 T
-0.9236743	L EY1 T
-1.1083108	ER0 EY1 T
-1.0577812	Z EY1 T
-0.6368638	W EY1 T
-1.2119144	AH1 EY1 T
-1.0515765	N EY1 T
-1.1368523	R EY1 T
-0.4387279	AY1 EY1 T
-1.6144192	HH EY1 T
-0.9305964	IY1 EY1 T
-1.6708652	K EY1 T
-0.99766034	Y EY1 T
-0.978734	AE1 EY1 T
-1.2364459	V EY1 T
-1.6722225	DH EY1 T
-1.3606501	S EY1 T
-1.318012	EY1 EY1 T
-0.6018312	IY0 EY1 T
-1.3326756	NG EY1 T
-2.1258695	F EY1 T
-0.5745799	IH0 EY1 T
-1.2834976	AH0 EY1 T
-2.0502167	M EY1 T
-2.5673263	B EY1 T
-1.9524606	P EY1 T
-1.1066399	JH EY1 T
-0.29388225	OY1 EY1 T
-0.92733866	IY2 EY1 T
-0.09778967	L EH1 T
-0.40356463	ER0 EH1 T
-1.652863	W EH1 T
-1.160466	N EH1 T
-0.21754584	G EH1 T
-1.2041445	R EH1 T
-0.8449938	Y EH1 T
-1.0117337	S EH1 T
-1.7944751	M EH1 T
-0.49373376	B EH1 T
-1.7044302	P EH1 T
-1.5003302	T IY0 T
-1.3818171	D IY0 T
-1.5588127	L IY0 T
-1.995238	ER0 IY0 T
-0.9536712	Z IY0 T
-1.5311344	N IY0 T
-1.6056225	G IY0 T
-1.0120238	R IY0 T
-1.985884	K IY0 T
-1.0457932	DH IY0 T
-2.0369585	S IY0 T
-0.7531829	IY0 IY0 T
-1.5486382	F IY0 T
-1.6836262	M IY0 T
-1.5631706	B IY0 T
-1.4052676	P IY0 T
-1.6290957	ER1 IY0 T
-2.4065478	OW1 TH T
-0.64900273	AE1 TH T
-2.3954136	IH1 TH T
-2.1116512	IH0 TH T
-1.314813	<s> IH2 T
-1.5921811	N IH2 T
-0.37300158	AY1 IH2 T
-0.71030104	S IH2 T
-0.45892957	F IH2 T
-0.031980123	P IH2 T
-0.92028666	AO1 NG T
-2.4704187	AH1 NG T
-0.10054289	AY1 NG T
-2.2059844	IH1 NG T
-1.3260998	IH2 NG T
-1.0499054	IH0 NG T
-1.4663813	D OW2 T
-2.3138912	R OW2 T
-1.1792637	K OW2 T
-0.48897028	B OW2 T
-2.6177843	UW1 F T
-1.5136509	AO1 F T
-2.1811929	L F T
-1.2916508	AH1 F T
-2.3931105	IY1 F T
-0.07068648	AE1 F T
-0.9243473	IH1 F T
-2.2828658	EY1 F T
-0.07186001	EH1 F T
-1.7359519	IH0 F T
-1.8882105	AA1 F T
-0.056370024	AE2 F T
-0.25427178	<s> IH0 T
-0.64786595	T IH0 T
-0.52084297	UW1 IH0 T
-0.78545535	D IH0 T
-0.7129469	AO1 IH0 T
-0.657132	L IH0 T
-0.5884204	ER0 IH0 T
-0.22593921	Z IH0 T
-2.8513813	W IH0 T
-0.40607512	AH1 IH0 T
-0.5528718	N IH0 T
-0.99261415	G IH0 T
-0.88730526	OW1 IH0 T
-0.78140444	R IH0 T
-0.7024336	AY1 IH0 T
-0.30853677	IY1 IH0 T
-0.47412568	K IH0 T
-0.11053407	AE1 IH0 T
-0.53700966	V IH0 T
-1.8958046	DH IH0 T
-0.7235398	S IH0 T
-0.9194893	EY1 IH0 T
-0.6154458	IY0 IH0 T
-1.107889	TH IH0 T
-0.34873244	NG IH0 T
-0.36636004	F IH0 T
-0.27139527	IH0 IH0 T
-0.4413032	AH0 IH0 T
-1.2559959	M IH0 T
